{"model_name": "pipeline_Outre-Mer_sup120m2_elec", "feature_order": {"numerical": ["surface_habitable_logement", "annee_construction", "hauteur_sous_plafond", "ubat_w_par_m2_k", "besoin_chauffage", "apport_solaire_saison_chauffe"], "categorical": ["type_batiment", "zone_climatique", "classe_altitude", "chauffage_simplifie", "logement_traversant_clean", "isolation_toiture_clean", "qualite_isolation_enveloppe", "periode_construction", "qualite_isolation_murs", "qualite_isolation_menuiseries", "qualite_isolation_plancher_bas", "type_emetteur_installation_chauffage_n1", "type_installation_ecs", "type_generateur_n1_ecs_n1", "presence_brasseur_air", "protection_solaire_exterieure", "presence_climatisation", "ventilation_simplifiee", "etiquette_dpe"]}, "scaler": {"mean": [177.0653846153846, 1976.2985074626865, 2.566346153846154, 1.1157692307692306, 21676.520192307693, 3167637.466346154], "scale": [108.40571476671717, 41.99396364773108, 0.18272013958040867, 0.6398928580805424, 20800.978290013463, 3109307.5909687793]}, "ohe_categories": {"0": ["appartement", "immeuble", "maison"], "1": ["H1a", "H1b", "H1c", "H2a", "H2b", "H2c", "H2d", "H3"], "2": ["400-800m", "inf\u00e9rieur \u00e0 400m", "sup\u00e9rieur \u00e0 800m"], "3": ["Autre/Inconnu", "Inconnu"], "4": ["Inconnu", "Non", "Oui"], "5": ["Inconnu", "Isol\u00e9", "Non Isol\u00e9"], "6": ["bonne", "insuffisante", "moyenne", "tr\u00e8s bonne"], "7": ["1948-1974", "1978-1982", "1983-1988", "1989-2000", "2001-2005", "2006-2012", "2013-2021", "apr\u00e8s 2021", "avant 1948"], "8": ["bonne", "insuffisante", "moyenne", "tr\u00e8s bonne"], "9": ["bonne", "insuffisante", "moyenne", "tr\u00e8s bonne"], "10": ["bonne", "insuffisante", "moyenne", "tr\u00e8s bonne", "nan"], "11": ["Convecteur \u00e9lectrique NFC, NF** et NF***", "Panneau rayonnant NFC, NF** et NF***", "Plancher chauffant sur r\u00e9seau collectif eau chaude basse ou moyenne temp\u00e9rature(inf 65\u00b0C)", "Plancher chauffant sur r\u00e9seau individuel eau chaude basse ou moyenne temp\u00e9rature(inf 65\u00b0C)", "Plancher rayonnant \u00e9lectrique avec r\u00e9gulation terminale", "Po\u00eale bois", "Radiateur bitube avec robinet thermostatique sur r\u00e9seau collectif eau chaude basse ou moyenne temp\u00e9rature(inf 65\u00b0C)", "Radiateur bitube avec robinet thermostatique sur r\u00e9seau collectif eau chaude haute temp\u00e9rature(sup ou egal 65\u00b0C)", "Radiateur bitube avec robinet thermostatique sur r\u00e9seau individuel eau chaude basse ou moyenne temp\u00e9rature(inf 65\u00b0C)", "Radiateur bitube avec robinet thermostatique sur r\u00e9seau individuel eau chaude haute temp\u00e9rature(sup ou egal 65\u00b0C)", "Radiateur bitube sans robinet thermostatique sur r\u00e9seau collectif eau chaude basse ou moyenne temp\u00e9rature(inf 65\u00b0C)", "Radiateur bitube sans robinet thermostatique sur r\u00e9seau collectif eau chaude haute temp\u00e9rature(sup ou egal 65\u00b0C)", "Radiateur bitube sans robinet thermostatique sur r\u00e9seau individuel eau chaude basse ou moyenne temp\u00e9rature(inf 65\u00b0C)", "Radiateur bitube sans robinet thermostatique sur r\u00e9seau individuel eau chaude haute temp\u00e9rature(sup ou egal 65\u00b0C)", "Radiateur monotube avec robinet thermostatique sur r\u00e9seau individuel eau chaude basse ou moyenne temp\u00e9rature(inf 65\u00b0C)", "Radiateur monotube avec robinet thermostatique sur r\u00e9seau individuel eau chaude haute temp\u00e9rature(sup ou egal 65\u00b0C)", "Radiateur monotube sans robinet thermostatique sur r\u00e9seau individuel eau chaude basse ou moyenne temp\u00e9rature(inf 65\u00b0C)", "Soufflage d'air chaud (air souffl\u00e9) avec distribution par fluide frigorig\u00e8ne", "Soufflage d'air chaud (air souffl\u00e9) avec distribution par r\u00e9seau a\u00e9raulique", "Soufflage d'air chaud sans r\u00e9seau de distribution (ventiloconvecteur \u00e9l\u00e9ctrique)", "nan"], "12": ["collectif", "individuel", "nan"], "13": ["Accumulateur gaz classique apr\u00e8s 2000", "Ballon \u00e9lectrique \u00e0 accumulation horizontal", "Ballon \u00e9lectrique \u00e0 accumulation vertical Autres ou inconnue", "Ballon \u00e9lectrique \u00e0 accumulation vertical Cat\u00e9gorie B ou 2 \u00e9toiles", "Ballon \u00e9lectrique \u00e0 accumulation vertical Cat\u00e9gorie C ou 3 \u00e9toiles", "CET sur air ambiant (sur local non chauff\u00e9) apr\u00e8s 2014", "CET sur air ambiant (sur local non chauff\u00e9) avant 2010", "CET sur air ext\u00e9rieur 2010-2014", "CET sur air ext\u00e9rieur apr\u00e8s 2014", "Chaudi\u00e8re fioul standard 1991-2015", "Chaudi\u00e8re gaz basse temp\u00e9rature 2001-2015", "Chaudi\u00e8re gaz basse temp\u00e9rature apr\u00e8s 2015", "Chaudi\u00e8re gaz standard 1991-2000", "Chaudi\u00e8re gaz standard 2001-2015", "Chaudi\u00e8re gaz standard apr\u00e8s 2015", "Chaudi\u00e8re gaz \u00e0 condensation 1986-2000", "Chaudi\u00e8re gaz \u00e0 condensation 2001-2015", "Chaudi\u00e8re gaz \u00e0 condensation apr\u00e8s 2015", "Chaudi\u00e8re gpl/propane/butane \u00e0 condensation 2001-2015", "Chaudi\u00e8re gpl/propane/butane \u00e0 condensation apr\u00e8s 2015", "Chauffe-eau gaz \u00e0 production instantan\u00e9e 2001-2015", "Chauffe-eau gaz \u00e0 production instantan\u00e9e avant 1980", "PAC double service apr\u00e8s 2014", "R\u00e9seau de chaleur isol\u00e9", "nan"], "14": ["0.0", "1.0", "nan"], "15": ["0.0", "1.0", "nan"], "16": ["0", "1"], "17": ["Autre / Inconnu", "Naturelle"], "18": ["A", "B", "C", "D", "E", "F", "G"]}, "xgboost": {"learner": {"attributes": {}, "feature_names": [], "feature_types": [], "gradient_booster": {"model": {"gbtree_model_param": {"num_parallel_tree": "1", "num_trees": "100"}, "iteration_indptr": [0, 1, 2, 3, 4, 5, 6, 7, 8, 9, 10, 11, 12, 13, 14, 15, 16, 17, 18, 19, 20, 21, 22, 23, 24, 25, 26, 27, 28, 29, 30, 31, 32, 33, 34, 35, 36, 37, 38, 39, 40, 41, 42, 43, 44, 45, 46, 47, 48, 49, 50, 51, 52, 53, 54, 55, 56, 57, 58, 59, 60, 61, 62, 63, 64, 65, 66, 67, 68, 69, 70, 71, 72, 73, 74, 75, 76, 77, 78, 79, 80, 81, 82, 83, 84, 85, 86, 87, 88, 89, 90, 91, 92, 93, 94, 95, 96, 97, 98, 99, 100], "tree_info": [0, 0, 0, 0, 0, 0, 0, 0, 0, 0, 0, 0, 0, 0, 0, 0, 0, 0, 0, 0, 0, 0, 0, 0, 0, 0, 0, 0, 0, 0, 0, 0, 0, 0, 0, 0, 0, 0, 0, 0, 0, 0, 0, 0, 0, 0, 0, 0, 0, 0, 0, 0, 0, 0, 0, 0, 0, 0, 0, 0, 0, 0, 0, 0, 0, 0, 0, 0, 0, 0, 0, 0, 0, 0, 0, 0, 0, 0, 0, 0, 0, 0, 0, 0, 0, 0, 0, 0, 0, 0, 0, 0, 0, 0, 0, 0, 0, 0, 0, 0], "trees": [{"base_weights": [-1.8601191e-05, -1369.0312, 27654.43, -2343.5889, 5408.251, 3781.0095, 828.0625, 1224.3959, -3025.938, 14510.19, -249.2991, -280.2146, 2464.5435, -3845.5828, 1178.9508, 1873.2992, 545.06586, -422.18463, 2440.6155, -1126.0962, 3786.5454, -4497.16, -356.56503, 3101.3008, -251.70694, 4506.704, -1127.7076, -193.10744, 64.44192, 52.97693, 412.7421, 101.34788, -484.80685, -278.52414, 458.9929, -186.42743, 478.63614, 69.611916, 554.4859, -143.24808, -25.908081], "categories": [], "categories_nodes": [], "categories_segments": [], "categories_sizes": [], "default_left": [0, 0, 0, 0, 0, 0, 0, 0, 0, 0, 0, 0, 0, 0, 0, 0, 0, 0, 0, 0, 0, 0, 0, 0, 0, 0, 0, 0, 0, 0, 0, 0, 0, 0, 0, 0, 0, 0, 0, 0, 0], "id": 0, "left_children": [1, 3, 5, 7, 9, -1, -1, 11, 13, 15, 17, -1, 19, 21, 23, -1, -1, -1, 25, 27, 29, 31, 33, 35, -1, 37, 39, -1, -1, -1, -1, -1, -1, -1, -1, -1, -1, -1, -1, -1, -1], "loss_changes": [4013136600.0, 679764860.0, 670678000.0, 220385310.0, 673048200.0, 0.0, 0.0, 81808610.0, 263022340.0, 89175870.0, 106476200.0, 0.0, 61225984.0, 141618560.0, 100171760.0, 0.0, 0.0, 0.0, 49317076.0, 6945326.5, 7804840.0, 107400830.0, 144931820.0, 84228750.0, 0.0, 11964024.0, 423073.5, 0.0, 0.0, 0.0, 0.0, 0.0, 0.0, 0.0, 0.0, 0.0, 0.0, 0.0, 0.0, 0.0, 0.0], "parents": [2147483647, 0, 0, 1, 1, 2, 2, 3, 3, 4, 4, 7, 7, 8, 8, 9, 9, 10, 10, 12, 12, 13, 13, 14, 14, 18, 18, 19, 19, 20, 20, 21, 21, 22, 22, 23, 23, 25, 25, 26, 26], "right_children": [2, 4, 6, 8, 10, -1, -1, 12, 14, 16, 18, -1, 20, 22, 24, -1, -1, -1, 26, 28, 30, 32, 34, 36, -1, 38, 40, -1, -1, -1, -1, -1, -1, -1, -1, -1, -1, -1, -1, -1, -1], "split_conditions": [1.6874998, 2.00001, 4.2602425, 2.00001, 2.00001, 3781.0095, 828.0625, 2.00001, 0.4294206, -0.15649898, -0.49227464, -280.2146, -0.3760446, 2.00001, 1.0413791, 1873.2992, 545.06586, -422.18463, -0.50585216, -0.040271163, -1.1967148, 2.00001, -0.45297965, 2.00001, -251.70694, -0.70947725, 0.159905, -193.10744, 64.44192, 52.97693, 412.7421, 101.34788, -484.80685, -278.52414, 458.9929, -186.42743, 478.63614, 69.611916, 554.4859, -143.24808, -25.908081], "split_indices": [0, 103, 0, 80, 46, 0, 0, 32, 5, 0, 0, 0, 0, 109, 5, 0, 0, 0, 4, 3, 3, 74, 4, 11, 0, 4, 0, 0, 0, 0, 0, 0, 0, 0, 0, 0, 0, 0, 0, 0, 0], "split_type": [0, 0, 0, 0, 0, 0, 0, 0, 0, 0, 0, 0, 0, 0, 0, 0, 0, 0, 0, 0, 0, 0, 0, 0, 0, 0, 0, 0, 0, 0, 0, 0, 0, 0, 0, 0, 0, 0, 0, 0, 0], "sum_hessian": [104.0, 100.0, 4.0, 88.0, 12.0, 2.0, 2.0, 14.0, 74.0, 4.0, 8.0, 3.0, 11.0, 62.0, 12.0, 2.0, 2.0, 3.0, 5.0, 3.0, 8.0, 52.0, 10.0, 8.0, 4.0, 3.0, 2.0, 2.0, 1.0, 1.0, 7.0, 3.0, 49.0, 7.0, 3.0, 2.0, 6.0, 1.0, 2.0, 1.0, 1.0], "tree_param": {"num_deleted": "0", "num_feature": "120", "num_nodes": "41", "size_leaf_vector": "1"}}, {"base_weights": [66.23373, -1208.9056, 25810.803, -2110.4172, 5055.974, 3528.9421, 7728.5835, -3838.5376, -919.2552, 13542.846, -220.72943, 934.0537, 225.2338, -1935.3545, -4598.524, -2620.424, 1013.5585, 1748.4127, 508.72818, 596.4977, -1739.5647, -379.45163, -894.021, -4701.1484, -106.77688, 2627.0232, -3823.1016, -1388.922, 2367.1611, 1106.5065, -366.8509, 56.160816, -171.5437, -114.05275, -480.63696, 372.95972, -144.29234, 308.5373, -425.7617, 84.25023, -205.20909, 338.46555, -350.9364, 163.94264, -24.61267], "categories": [], "categories_nodes": [], "categories_segments": [], "categories_sizes": [], "default_left": [0, 0, 0, 0, 0, 0, 0, 0, 1, 0, 0, 0, 0, 0, 0, 0, 0, 0, 0, 0, 0, 0, 0, 0, 0, 0, 0, 0, 0, 0, 0, 0, 0, 0, 0, 0, 0, 0, 0, 0, 0, 0, 0, 0, 0], "id": 1, "left_children": [1, 3, 5, 7, 9, -1, 11, 13, 15, 17, 19, -1, -1, 21, 23, 25, 27, -1, -1, -1, 29, -1, 31, 33, -1, 35, 37, 39, 41, 43, -1, -1, -1, -1, -1, -1, -1, -1, -1, -1, -1, -1, -1, -1, -1], "loss_changes": [3478133800.0, 581104260.0, 584235000.0, 179675360.0, 585164400.0, 0.0, 5444304.0, 43170400.0, 180210270.0, 77682110.0, 94932080.0, 0.0, 0.0, 19839708.0, 4038784.0, 193061980.0, 87839900.0, 0.0, 0.0, 0.0, 47978524.0, 0.0, 11724496.0, 3509888.0, 0.0, 32306028.0, 85180420.0, 16527000.0, 113526620.0, 3286887.5, 0.0, 0.0, 0.0, 0.0, 0.0, 0.0, 0.0, 0.0, 0.0, 0.0, 0.0, 0.0, 0.0, 0.0, 0.0], "parents": [2147483647, 0, 0, 1, 1, 2, 2, 3, 3, 4, 4, 6, 6, 7, 7, 8, 8, 9, 9, 10, 10, 13, 13, 14, 14, 15, 15, 16, 16, 20, 20, 22, 22, 23, 23, 25, 25, 26, 26, 27, 27, 28, 28, 29, 29], "right_children": [2, 4, 6, 8, 10, -1, 12, 14, 16, 18, 20, -1, -1, 22, 24, 26, 28, -1, -1, -1, 30, -1, 32, 34, -1, 36, 38, 40, 42, 44, -1, -1, -1, -1, -1, -1, -1, -1, -1, -1, -1, -1, -1, -1, -1], "split_conditions": [1.6874998, 2.00001, 4.2602425, -0.35390556, 2.00001, 3528.9421, 6.945525, -0.56483495, -0.10236013, -0.15649898, -0.67387086, 934.0537, 225.2338, -1.0171913, 2.00001, 2.00001, -0.57287306, 1748.4127, 508.72818, 596.4977, -0.8372796, -379.45163, 2.00001, 2.00001, -106.77688, -0.10278163, 2.00001, 2.00001, 0.7314675, 0.3167233, -366.8509, 56.160816, -171.5437, -114.05275, -480.63696, 372.95972, -144.29234, 308.5373, -425.7617, 84.25023, -205.20909, 338.46555, -350.9364, 163.94264, -24.61267], "split_indices": [0, 103, 0, 0, 46, 0, 0, 4, 1, 0, 1, 0, 0, 5, 109, 80, 4, 0, 0, 0, 3, 0, 115, 12, 0, 3, 71, 14, 2, 0, 0, 0, 0, 0, 0, 0, 0, 0, 0, 0, 0, 0, 0, 0, 0], "split_type": [0, 0, 0, 0, 0, 0, 0, 0, 0, 0, 0, 0, 0, 0, 0, 0, 0, 0, 0, 0, 0, 0, 0, 0, 0, 0, 0, 0, 0, 0, 0, 0, 0, 0, 0, 0, 0, 0, 0, 0, 0, 0, 0, 0, 0], "sum_hessian": [104.0, 100.0, 4.0, 88.0, 12.0, 2.0, 2.0, 35.0, 53.0, 4.0, 8.0, 1.0, 1.0, 11.0, 24.0, 28.0, 25.0, 2.0, 2.0, 1.0, 7.0, 3.0, 8.0, 23.0, 1.0, 5.0, 23.0, 9.0, 16.0, 3.0, 4.0, 3.0, 5.0, 1.0, 22.0, 4.0, 1.0, 1.0, 22.0, 2.0, 7.0, 14.0, 2.0, 2.0, 1.0], "tree_param": {"num_deleted": "0", "num_feature": "120", "num_nodes": "45", "size_leaf_vector": "1"}}, {"base_weights": [117.667984, -1074.0762, 24167.367, -1913.0642, 4752.3857, 3293.679, 7342.1543, -2764.627, 144.77, 12639.988, -157.65907, 887.3511, 213.97209, 26.006348, -3355.4534, 1277.6737, -327.46225, 1631.8519, 474.81296, 566.6728, -1594.0483, -2104.7278, 2507.5283, 407.61905, -3581.0972, 2322.7146, -374.44284, 1030.6882, -337.50278, -302.31992, 12.763379, 58.411793, 277.5387, -120.72237, -399.46732, -184.64885, 364.58075, 153.01312, -23.382032], "categories": [], "categories_nodes": [], "categories_segments": [], "categories_sizes": [], "default_left": [0, 0, 0, 0, 0, 0, 0, 0, 0, 0, 0, 0, 0, 0, 0, 0, 0, 0, 0, 0, 0, 1, 0, 0, 0, 0, 0, 0, 0, 0, 0, 0, 0, 0, 0, 0, 0, 0, 0], "id": 2, "left_children": [1, 3, 5, 7, 9, -1, 11, 13, 15, 17, 19, -1, -1, 21, 23, 25, -1, -1, -1, -1, 27, 29, 31, -1, 33, 35, -1, 37, -1, -1, -1, -1, -1, -1, -1, -1, -1, -1, -1], "loss_changes": [3035372000.0, 502813060.0, 495909900.0, 156361630.0, 505463070.0, 0.0, 4913504.0, 103960450.0, 108777650.0, 67669700.0, 84327816.0, 0.0, 0.0, 68727230.0, 101796220.0, 118911570.0, 0.0, 0.0, 0.0, 0.0, 40875420.0, 14738384.0, 1470060.0, 0.0, 45248130.0, 106024320.0, 0.0, 2883975.0, 0.0, 0.0, 0.0, 0.0, 0.0, 0.0, 0.0, 0.0, 0.0, 0.0, 0.0], "parents": [2147483647, 0, 0, 1, 1, 2, 2, 3, 3, 4, 4, 6, 6, 7, 7, 8, 8, 9, 9, 10, 10, 13, 13, 14, 14, 15, 15, 20, 20, 21, 21, 22, 22, 24, 24, 25, 25, 27, 27], "right_children": [2, 4, 6, 8, 10, -1, 12, 14, 16, 18, 20, -1, -1, 22, 24, 26, -1, -1, -1, -1, 28, 30, 32, -1, 34, 36, -1, 38, -1, -1, -1, -1, -1, -1, -1, -1, -1, -1, -1], "split_conditions": [1.6874998, 2.00001, 4.2602425, -0.14819685, 2.00001, 3293.679, 6.945525, 2.00001, 0.6785992, -0.15649898, -0.67387086, 887.3511, 213.97209, 2.00001, 2.00001, 0.7314675, -327.46225, 1631.8519, 474.81296, 566.6728, -0.8372796, 0.04051755, -0.43692702, 407.61905, 2.00001, 2.00001, -374.44284, 0.3167233, -337.50278, -302.31992, 12.763379, 58.411793, 277.5387, -120.72237, -399.46732, -184.64885, 364.58075, 153.01312, -23.382032], "split_indices": [0, 103, 0, 0, 46, 0, 0, 80, 3, 0, 1, 0, 0, 106, 55, 2, 0, 0, 0, 0, 3, 1, 0, 0, 81, 30, 0, 0, 0, 0, 0, 0, 0, 0, 0, 0, 0, 0, 0], "split_type": [0, 0, 0, 0, 0, 0, 0, 0, 0, 0, 0, 0, 0, 0, 0, 0, 0, 0, 0, 0, 0, 0, 0, 0, 0, 0, 0, 0, 0, 0, 0, 0, 0, 0, 0, 0, 0, 0, 0], "sum_hessian": [104.0, 100.0, 4.0, 88.0, 12.0, 2.0, 2.0, 62.0, 26.0, 4.0, 8.0, 1.0, 1.0, 11.0, 51.0, 20.0, 6.0, 2.0, 2.0, 1.0, 7.0, 6.0, 5.0, 1.0, 50.0, 17.0, 3.0, 3.0, 4.0, 4.0, 2.0, 1.0, 4.0, 8.0, 42.0, 4.0, 13.0, 2.0, 1.0], "tree_param": {"num_deleted": "0", "num_feature": "120", "num_nodes": "39", "size_leaf_vector": "1"}}, {"base_weights": [165.63756, -948.0813, 22629.63, -1728.3662, 4466.7983, 10403.786, 3576.6504, -2489.2148, 110.96078, 11797.323, -102.02637, 1251.6559, 203.27348, 27.271933, -3022.073, 1140.644, -299.39407, 1368.4071, 212.5166, 538.3391, -1460.6274, -1935.6202, 2312.7673, 387.2381, -3233.1873, 2100.4395, -346.3596, 960.0271, -310.50256, -278.13434, 11.9125, 55.49121, 255.3356, -109.99151, -360.4496, -314.39963, 295.24936, 142.81224, -22.21294], "categories": [], "categories_nodes": [], "categories_segments": [], "categories_sizes": [], "default_left": [0, 0, 0, 0, 0, 0, 0, 0, 0, 0, 0, 0, 0, 0, 0, 0, 0, 0, 0, 0, 0, 1, 0, 0, 0, 0, 0, 0, 0, 0, 0, 0, 0, 0, 0, 0, 0, 0, 0], "id": 3, "left_children": [1, 3, 5, 7, 9, 11, -1, 13, 15, 17, 19, -1, -1, 21, 23, 25, -1, -1, -1, -1, 27, 29, 31, -1, 33, 35, -1, 37, -1, -1, -1, -1, -1, -1, -1, -1, -1, -1, -1], "loss_changes": [2648405000.0, 434460260.0, 430939650.0, 124827170.0, 436598140.0, 45301664.0, 0.0, 84561060.0, 89735780.0, 62163650.0, 74935576.0, 0.0, 0.0, 58310816.0, 88207140.0, 100076750.0, 0.0, 0.0, 0.0, 0.0, 34825068.0, 12495544.0, 1120628.0, 0.0, 36432544.0, 89716400.0, 0.0, 2530675.2, 0.0, 0.0, 0.0, 0.0, 0.0, 0.0, 0.0, 0.0, 0.0, 0.0, 0.0], "parents": [2147483647, 0, 0, 1, 1, 2, 2, 3, 3, 4, 4, 5, 5, 7, 7, 8, 8, 9, 9, 10, 10, 13, 13, 14, 14, 15, 15, 20, 20, 21, 21, 22, 22, 24, 24, 25, 25, 27, 27], "right_children": [2, 4, 6, 8, 10, 12, -1, 14, 16, 18, 20, -1, -1, 22, 24, 26, -1, -1, -1, -1, 28, 30, 32, -1, 34, 36, -1, 38, -1, -1, -1, -1, -1, -1, -1, -1, -1, -1, -1], "split_conditions": [1.6874998, 2.00001, -0.2452378, -0.14819685, 2.00001, 6.945525, 3576.6504, 2.00001, 0.6785992, -0.12974763, -0.67387086, 1251.6559, 203.27348, 2.00001, 2.00001, 0.7314675, -299.39407, 1368.4071, 212.5166, 538.3391, -0.8372796, 0.04051755, -0.43692702, 387.2381, 2.00001, 2.00001, -346.3596, 0.3167233, -310.50256, -278.13434, 11.9125, 55.49121, 255.3356, -109.99151, -360.4496, -314.39963, 295.24936, 142.81224, -22.21294], "split_indices": [0, 103, 1, 0, 46, 0, 0, 80, 3, 0, 1, 0, 0, 106, 55, 2, 0, 0, 0, 0, 3, 1, 0, 0, 81, 51, 0, 0, 0, 0, 0, 0, 0, 0, 0, 0, 0, 0, 0], "split_type": [0, 0, 0, 0, 0, 0, 0, 0, 0, 0, 0, 0, 0, 0, 0, 0, 0, 0, 0, 0, 0, 0, 0, 0, 0, 0, 0, 0, 0, 0, 0, 0, 0, 0, 0, 0, 0, 0, 0], "sum_hessian": [104.0, 100.0, 4.0, 88.0, 12.0, 3.0, 1.0, 62.0, 26.0, 4.0, 8.0, 2.0, 1.0, 11.0, 51.0, 20.0, 6.0, 3.0, 1.0, 1.0, 7.0, 6.0, 5.0, 1.0, 50.0, 17.0, 3.0, 3.0, 4.0, 4.0, 2.0, 1.0, 4.0, 8.0, 42.0, 2.0, 15.0, 2.0, 1.0], "tree_param": {"num_deleted": "0", "num_feature": "120", "num_nodes": "39", "size_leaf_vector": "1"}}, {"base_weights": [208.6685, -841.1359, 21372.984, -1563.434, 4168.531, 9727.14, 3397.818, -2084.9822, 609.6157, 10933.775, -53.108616, 1168.2122, 193.10982, 3155.9004, -2358.5842, -1627.5747, 3027.648, 1431.8347, 390.46133, 511.42218, -1338.3026, 52.716652, 385.6423, -3336.8518, -1123.1858, -200.16406, -2210.7273, 3720.3833, -125.711815, 894.1743, -2856.6235, -53.44217, -347.76974, -214.78795, 134.59282, 44.881786, -56.609737, -55.314014, -239.48018, 530.17523, 171.12117, 133.29144, -21.102295, -314.40656, -85.34285], "categories": [], "categories_nodes": [], "categories_segments": [], "categories_sizes": [], "default_left": [0, 0, 0, 0, 0, 0, 0, 0, 0, 0, 0, 0, 0, 0, 1, 0, 0, 0, 0, 0, 0, 0, 0, 0, 0, 0, 0, 0, 0, 0, 0, 0, 0, 0, 0, 0, 0, 0, 0, 0, 0, 0, 0, 0, 0], "id": 4, "left_children": [1, 3, 5, 7, 9, 11, -1, 13, 15, 17, 19, -1, -1, 21, 23, 25, 27, -1, -1, -1, 29, -1, -1, 31, 33, 35, 37, 39, -1, 41, 43, -1, -1, -1, -1, -1, -1, -1, -1, -1, -1, -1, -1, -1, -1], "loss_changes": [2350909000.0, 371983000.0, 403480060.0, 102139180.0, 371866240.0, 38405120.0, 0.0, 110685440.0, 102300490.0, 63045824.0, 66613576.0, 0.0, 0.0, 5332972.0, 79642080.0, 7881474.0, 31390848.0, 0.0, 0.0, 0.0, 29671256.0, 0.0, 0.0, 13140416.0, 83853620.0, 1204010.9, 811176.0, 16345512.0, 0.0, 2220853.2, 195772.0, 0.0, 0.0, 0.0, 0.0, 0.0, 0.0, 0.0, 0.0, 0.0, 0.0, 0.0, 0.0, 0.0, 0.0], "parents": [2147483647, 0, 0, 1, 1, 2, 2, 3, 3, 4, 4, 5, 5, 7, 7, 8, 8, 9, 9, 10, 10, 13, 13, 14, 14, 15, 15, 16, 16, 20, 20, 23, 23, 24, 24, 25, 25, 26, 26, 27, 27, 29, 29, 30, 30], "right_children": [2, 4, 6, 8, 10, 12, -1, 14, 16, 18, 20, -1, -1, 22, 24, 26, 28, -1, -1, -1, 30, -1, -1, 32, 34, 36, 38, 40, -1, 42, 44, -1, -1, -1, -1, -1, -1, -1, -1, -1, -1, -1, -1, -1, -1], "split_conditions": [1.6874998, 2.00001, -0.2452378, 2.00001, 2.00001, 6.945525, 3397.818, 2.00001, -0.45297965, -0.15649898, -0.67387086, 1168.2122, 193.10982, -0.43692702, -0.6976838, 2.00001, 1.5509756, 1431.8347, 390.46133, 511.42218, -0.8372796, 52.716652, 385.6423, 2.00001, -0.14819685, -1.1967148, -0.53099316, 2.00001, -125.711815, 0.3167233, -0.49227464, -53.44217, -347.76974, -214.78795, 134.59282, 44.881786, -56.609737, -55.314014, -239.48018, 530.17523, 171.12117, 133.29144, -21.102295, -314.40656, -85.34285], "split_indices": [0, 103, 1, 109, 46, 0, 0, 54, 4, 0, 1, 0, 0, 0, 1, 114, 0, 0, 0, 0, 3, 0, 0, 70, 0, 3, 1, 106, 0, 0, 0, 0, 0, 0, 0, 0, 0, 0, 0, 0, 0, 0, 0, 0, 0], "split_type": [0, 0, 0, 0, 0, 0, 0, 0, 0, 0, 0, 0, 0, 0, 0, 0, 0, 0, 0, 0, 0, 0, 0, 0, 0, 0, 0, 0, 0, 0, 0, 0, 0, 0, 0, 0, 0, 0, 0, 0, 0, 0, 0, 0, 0], "sum_hessian": [104.0, 100.0, 4.0, 88.0, 12.0, 3.0, 1.0, 71.0, 17.0, 4.0, 8.0, 2.0, 1.0, 3.0, 68.0, 9.0, 8.0, 2.0, 2.0, 1.0, 7.0, 1.0, 2.0, 37.0, 31.0, 3.0, 6.0, 7.0, 1.0, 3.0, 4.0, 2.0, 35.0, 22.0, 9.0, 1.0, 2.0, 1.0, 5.0, 3.0, 4.0, 2.0, 1.0, 3.0, 1.0], "tree_param": {"num_deleted": "0", "num_feature": "120", "num_nodes": "45", "size_leaf_vector": "1"}}, {"base_weights": [254.76646, 3227.927, -363.53903, -1174.6831, 4934.8647, -1549.1516, 4388.479, 11549.07, -22.924154, -223.5053, -2411.6223, 751.8911, 943.5354, 364.4306, 1459.0376, 485.85107, -1240.4174, -1141.416, 2555.0605, 245.05571, -2555.0093, -119.42622, 205.4222, 832.8041, -2650.9111, 200.62798, -161.84729, 450.36798, 9.54292, 148.74454, -275.03635, 124.405334, -20.047194, -290.82602, -81.07571], "categories": [], "categories_nodes": [], "categories_segments": [], "categories_sizes": [], "default_left": [0, 0, 0, 0, 0, 0, 0, 0, 0, 0, 0, 0, 0, 0, 0, 0, 0, 0, 0, 0, 0, 0, 0, 0, 0, 0, 0, 0, 0, 0, 0, 0, 0, 0, 0], "id": 5, "left_children": [1, -1, 3, 5, 7, 9, 11, 13, 15, 17, 19, -1, 21, -1, -1, -1, 23, 25, 27, -1, 29, -1, -1, 31, 33, -1, -1, -1, -1, -1, -1, -1, -1, -1, -1], "loss_changes": [2090832100.0, 0.0, 452764860.0, 196372290.0, 459350430.0, 97787460.0, 57610600.0, 91073020.0, 59514610.0, 92183020.0, 42514210.0, 0.0, 11950972.0, 0.0, 0.0, 0.0, 25601818.0, 43791116.0, 42706188.0, 0.0, 44366210.0, 0.0, 0.0, 1949134.0, 9920.0, 0.0, 0.0, 0.0, 0.0, 0.0, 0.0, 0.0, 0.0, 0.0, 0.0], "parents": [2147483647, 0, 0, 2, 2, 3, 3, 4, 4, 5, 5, 6, 6, 7, 7, 8, 8, 9, 9, 10, 10, 12, 12, 16, 16, 17, 17, 18, 18, 20, 20, 23, 23, 24, 24], "right_children": [2, -1, 4, 6, 8, 10, 12, 14, 16, 18, 20, -1, 22, -1, -1, -1, 24, 26, 28, -1, 30, -1, -1, 32, 34, -1, -1, -1, -1, -1, -1, -1, -1, -1, -1], "split_conditions": [2.00001, 3227.927, 2.00001, 0.96890295, 2.00001, -0.5716101, 2.00001, -0.5559825, -0.67387086, -0.37321898, 2.00001, 751.8911, 1.3547418, 364.4306, 1459.0376, 485.85107, -0.8372796, 2.00001, 2.00001, 245.05571, 2.00001, -119.42622, 205.4222, 0.3167233, -0.49227464, 200.62798, -161.84729, 450.36798, 9.54292, 148.74454, -275.03635, 124.405334, -20.047194, -290.82602, -81.07571], "split_indices": [7, 0, 103, 0, 46, 3, 115, 3, 1, 4, 73, 0, 5, 0, 0, 0, 3, 80, 28, 0, 71, 0, 0, 0, 0, 0, 0, 0, 0, 0, 0, 0, 0, 0, 0], "split_type": [0, 0, 0, 0, 0, 0, 0, 0, 0, 0, 0, 0, 0, 0, 0, 0, 0, 0, 0, 0, 0, 0, 0, 0, 0, 0, 0, 0, 0, 0, 0, 0, 0, 0, 0], "sum_hessian": [104.0, 1.0, 103.0, 90.0, 13.0, 85.0, 5.0, 5.0, 8.0, 34.0, 51.0, 2.0, 3.0, 2.0, 3.0, 1.0, 7.0, 26.0, 8.0, 1.0, 50.0, 1.0, 2.0, 3.0, 4.0, 3.0, 23.0, 4.0, 4.0, 2.0, 48.0, 2.0, 1.0, 3.0, 1.0], "tree_param": {"num_deleted": "0", "num_feature": "120", "num_nodes": "35", "size_leaf_vector": "1"}}, {"base_weights": [293.33777, 3066.5308, -293.5591, -1041.2222, 4587.219, -1387.0569, 4089.2793, 10698.075, 3.6246746, 850.82825, -1797.2396, 701.7651, 870.681, 340.13522, 1349.6097, 461.5585, -1149.8185, -188.91905, 1769.8506, 1758.5785, -2084.5583, -113.45491, 191.7274, 775.6133, -246.02002, -45.24418, 265.97656, 347.43405, -111.52968, -251.34093, -7.684953, 7.4755044, 143.90941], "categories": [], "categories_nodes": [], "categories_segments": [], "categories_sizes": [], "default_left": [0, 0, 0, 0, 0, 0, 0, 0, 0, 0, 0, 0, 0, 0, 0, 0, 0, 0, 0, 0, 1, 0, 0, 0, 0, 0, 0, 0, 0, 0, 0, 0, 0], "id": 6, "left_children": [1, -1, 3, 5, 7, 9, 11, 13, 15, 17, 19, -1, 21, -1, -1, -1, 23, -1, 25, 27, 29, -1, -1, 31, -1, -1, -1, -1, -1, -1, -1, -1, -1], "loss_changes": [1880649600.0, 0.0, 384290800.0, 167133890.0, 392096770.0, 80472110.0, 50441370.0, 76593470.0, 53183788.0, 38597530.0, 78246530.0, 0.0, 10569881.0, 0.0, 0.0, 0.0, 22092568.0, 0.0, 22957552.0, 33460234.0, 58355360.0, 0.0, 0.0, 1752444.2, 0.0, 0.0, 0.0, 0.0, 0.0, 0.0, 0.0, 0.0, 0.0], "parents": [2147483647, 0, 0, 2, 2, 3, 3, 4, 4, 5, 5, 6, 6, 7, 7, 8, 8, 9, 9, 10, 10, 12, 12, 16, 16, 18, 18, 19, 19, 20, 20, 23, 23], "right_children": [2, -1, 4, 6, 8, 10, 12, 14, 16, 18, 20, -1, 22, -1, -1, -1, 24, -1, 26, 28, 30, -1, -1, 32, -1, -1, -1, -1, -1, -1, -1, -1, -1], "split_conditions": [2.00001, 3066.5308, 2.00001, 0.96890295, 2.00001, 2.00001, 2.00001, -0.5559825, -0.67387086, 2.00001, 2.00001, 701.7651, 1.3547418, 340.13522, 1349.6097, 461.5585, -0.8372796, -188.91905, -0.3760446, 2.00001, 0.6358412, -113.45491, 191.7274, 0.731093, -246.02002, -45.24418, 265.97656, 347.43405, -111.52968, -251.34093, -7.684953, 7.4755044, 143.90941], "split_indices": [7, 0, 103, 0, 46, 80, 115, 3, 1, 32, 82, 0, 5, 0, 0, 0, 3, 0, 0, 26, 1, 0, 0, 1, 0, 0, 0, 0, 0, 0, 0, 0, 0], "split_type": [0, 0, 0, 0, 0, 0, 0, 0, 0, 0, 0, 0, 0, 0, 0, 0, 0, 0, 0, 0, 0, 0, 0, 0, 0, 0, 0, 0, 0, 0, 0, 0, 0], "sum_hessian": [104.0, 1.0, 103.0, 90.0, 13.0, 85.0, 5.0, 5.0, 8.0, 13.0, 72.0, 2.0, 3.0, 2.0, 3.0, 1.0, 7.0, 3.0, 10.0, 5.0, 67.0, 1.0, 2.0, 3.0, 4.0, 3.0, 7.0, 3.0, 2.0, 55.0, 12.0, 2.0, 1.0], "tree_param": {"num_deleted": "0", "num_feature": "120", "num_nodes": "33", "size_leaf_vector": "1"}}, {"base_weights": [320.30804, 2913.204, -236.84361, -928.4326, 4275.4023, -1248.2502, 3810.3577, 9909.892, 44.031467, -141.58344, -1969.1172, 654.9807, 803.181, 317.45956, 1248.389, 438.48056, -1046.666, -949.85956, 2298.9763, 245.36998, -2103.951, -107.78216, 178.94557, 735.8982, -2263.3843, 165.63264, -134.46465, 400.1485, 13.667276, 147.46245, -228.01097, 111.06549, -19.418604, -250.56255, -64.720924], "categories": [], "categories_nodes": [], "categories_segments": [], "categories_sizes": [], "default_left": [0, 0, 0, 0, 0, 0, 0, 0, 0, 0, 0, 0, 0, 0, 0, 0, 0, 0, 0, 0, 0, 0, 0, 0, 0, 0, 0, 0, 0, 0, 0, 0, 0, 0, 0], "id": 7, "left_children": [1, -1, 3, 5, 7, 9, 11, 13, 15, 17, 19, -1, 21, -1, -1, -1, 23, 25, 27, -1, 29, -1, -1, 31, 33, -1, -1, -1, -1, -1, -1, -1, -1, -1, -1], "loss_changes": [1692412800.0, 0.0, 328513920.0, 142671170.0, 333346300.0, 68328510.0, 44167376.0, 64388544.0, 47199670.0, 71226320.0, 36172400.0, 0.0, 9349455.0, 0.0, 0.0, 0.0, 19016646.0, 30007148.0, 32585176.0, 0.0, 35512544.0, 0.0, 0.0, 1609895.2, 335858.0, 0.0, 0.0, 0.0, 0.0, 0.0, 0.0, 0.0, 0.0, 0.0, 0.0], "parents": [2147483647, 0, 0, 2, 2, 3, 3, 4, 4, 5, 5, 6, 6, 7, 7, 8, 8, 9, 9, 10, 10, 12, 12, 16, 16, 17, 17, 18, 18, 20, 20, 23, 23, 24, 24], "right_children": [2, -1, 4, 6, 8, 10, 12, 14, 16, 18, 20, -1, 22, -1, -1, -1, 24, 26, 28, -1, 30, -1, -1, 32, 34, -1, -1, -1, -1, -1, -1, -1, -1, -1, -1], "split_conditions": [2.00001, 2913.204, 2.00001, 0.96890295, 2.00001, -0.5716101, 2.00001, -0.5559825, -0.67387086, -0.37321898, 2.00001, 654.9807, 1.3547418, 317.45956, 1248.389, 438.48056, -0.8372796, 2.00001, 2.00001, 245.36998, 2.00001, -107.78216, 178.94557, 0.3167233, -0.49227464, 165.63264, -134.46465, 400.1485, 13.667276, 147.46245, -228.01097, 111.06549, -19.418604, -250.56255, -64.720924], "split_indices": [7, 0, 103, 0, 46, 3, 115, 3, 1, 4, 73, 0, 5, 0, 0, 0, 3, 80, 28, 0, 71, 0, 0, 0, 0, 0, 0, 0, 0, 0, 0, 0, 0, 0, 0], "split_type": [0, 0, 0, 0, 0, 0, 0, 0, 0, 0, 0, 0, 0, 0, 0, 0, 0, 0, 0, 0, 0, 0, 0, 0, 0, 0, 0, 0, 0, 0, 0, 0, 0, 0, 0], "sum_hessian": [104.0, 1.0, 103.0, 90.0, 13.0, 85.0, 5.0, 5.0, 8.0, 34.0, 51.0, 2.0, 3.0, 2.0, 3.0, 1.0, 7.0, 26.0, 8.0, 1.0, 50.0, 1.0, 2.0, 3.0, 4.0, 3.0, 23.0, 4.0, 4.0, 2.0, 48.0, 2.0, 1.0, 3.0, 1.0], "tree_param": {"num_deleted": "0", "num_feature": "120", "num_nodes": "35", "size_leaf_vector": "1"}}, {"base_weights": [345.70438, 2767.544, -183.19153, -820.9086, 3975.0544, -1142.6791, 3203.5767, 9179.878, 63.499783, 833.2586, -1511.0186, 611.31537, 817.1151, 296.2956, 1154.76, 416.55655, -969.9541, -157.64932, 1633.7812, 1571.4789, -1764.5106, -102.39304, 153.33592, 685.22, -2100.1025, -83.94621, 227.66643, 304.7307, -92.01183, 118.12799, -202.11273, 3.9222333, 131.16064, -231.77037, -61.48489], "categories": [], "categories_nodes": [], "categories_segments": [], "categories_sizes": [], "default_left": [0, 0, 0, 0, 0, 0, 0, 0, 0, 0, 0, 0, 0, 0, 0, 0, 0, 0, 0, 0, 0, 0, 0, 0, 0, 0, 0, 0, 0, 0, 0, 0, 0, 0, 0], "id": 8, "left_children": [1, -1, 3, 5, 7, 9, 11, 13, 15, 17, 19, -1, 21, -1, -1, -1, 23, -1, 25, 27, 29, -1, -1, 31, 33, -1, -1, -1, -1, -1, -1, -1, -1, -1, -1], "loss_changes": [1522801300.0, 0.0, 279048770.0, 121502060.0, 284442370.0, 63123440.0, 43610000.0, 54104670.0, 42194068.0, 29582496.0, 59032864.0, 0.0, 8163242.0, 0.0, 0.0, 0.0, 16403772.0, 0.0, 19401244.0, 24866896.0, 53035424.0, 0.0, 0.0, 1567132.6, 190926.0, 0.0, 0.0, 0.0, 0.0, 0.0, 0.0, 0.0, 0.0, 0.0, 0.0], "parents": [2147483647, 0, 0, 2, 2, 3, 3, 4, 4, 5, 5, 6, 6, 7, 7, 8, 8, 9, 9, 10, 10, 12, 12, 16, 16, 18, 18, 19, 19, 20, 20, 23, 23, 24, 24], "right_children": [2, -1, 4, 6, 8, 10, 12, 14, 16, 18, 20, -1, 22, -1, -1, -1, 24, -1, 26, 28, 30, -1, -1, 32, 34, -1, -1, -1, -1, -1, -1, -1, -1, -1, -1], "split_conditions": [2.00001, 2767.544, 2.00001, 0.82038677, 2.00001, 2.00001, 2.00001, -0.5559825, -0.67387086, 2.00001, 2.00001, 611.31537, 2.00001, 296.2956, 1154.76, 416.55655, -0.8372796, -157.64932, 2.00001, 2.00001, 2.00001, -102.39304, 153.33592, 0.731093, -0.49227464, -83.94621, 227.66643, 304.7307, -92.01183, 118.12799, -202.11273, 3.9222333, 131.16064, -231.77037, -61.48489], "split_indices": [7, 0, 103, 0, 46, 80, 115, 3, 1, 32, 82, 0, 32, 0, 0, 0, 3, 0, 57, 26, 74, 0, 0, 1, 0, 0, 0, 0, 0, 0, 0, 0, 0, 0, 0], "split_type": [0, 0, 0, 0, 0, 0, 0, 0, 0, 0, 0, 0, 0, 0, 0, 0, 0, 0, 0, 0, 0, 0, 0, 0, 0, 0, 0, 0, 0, 0, 0, 0, 0, 0, 0], "sum_hessian": [104.0, 1.0, 103.0, 90.0, 13.0, 84.0, 6.0, 5.0, 8.0, 13.0, 71.0, 2.0, 4.0, 2.0, 3.0, 1.0, 7.0, 3.0, 10.0, 5.0, 66.0, 1.0, 3.0, 3.0, 4.0, 2.0, 8.0, 3.0, 2.0, 5.0, 61.0, 2.0, 1.0, 3.0, 1.0], "tree_param": {"num_deleted": "0", "num_feature": "120", "num_nodes": "35", "size_leaf_vector": "1"}}, {"base_weights": [361.17252, 2629.1667, -140.96367, -730.27856, 3699.6519, -1003.8432, 3312.5278, 8503.732, 85.85894, 748.9379, -1326.2417, 570.561, 689.5842, 276.5425, 1068.153, 395.72873, -892.73047, -145.8256, 1483.4686, -2061.32, -372.77335, -97.27339, 156.7935, 650.4685, -1948.7435, -78.349785, 207.42944, 241.47246, -223.35893, -149.6771, 91.50222, 3.6607423, 124.60259, -214.38762, -58.410645], "categories": [], "categories_nodes": [], "categories_segments": [], "categories_sizes": [], "default_left": [0, 0, 0, 0, 0, 0, 0, 0, 0, 0, 1, 0, 0, 0, 0, 0, 0, 0, 0, 0, 0, 0, 0, 0, 0, 0, 0, 0, 0, 0, 0, 0, 0, 0, 0], "id": 9, "left_children": [1, -1, 3, 5, 7, 9, 11, 13, 15, 17, 19, -1, 21, -1, -1, -1, 23, -1, 25, 27, 29, -1, -1, 31, 33, -1, -1, -1, -1, -1, -1, -1, -1, -1, -1], "loss_changes": [1370873300.0, 0.0, 238088270.0, 103968430.0, 242323220.0, 49591370.0, 33727012.0, 45442240.0, 37629640.0, 24860804.0, 50395390.0, 0.0, 7365576.5, 0.0, 0.0, 0.0, 14304704.0, 0.0, 16358408.0, 37007984.0, 49136380.0, 0.0, 0.0, 1416744.1, 79172.0, 0.0, 0.0, 0.0, 0.0, 0.0, 0.0, 0.0, 0.0, 0.0, 0.0], "parents": [2147483647, 0, 0, 2, 2, 3, 3, 4, 4, 5, 5, 6, 6, 7, 7, 8, 8, 9, 9, 10, 10, 12, 12, 16, 16, 18, 18, 19, 19, 20, 20, 23, 23, 24, 24], "right_children": [2, -1, 4, 6, 8, 10, 12, 14, 16, 18, 20, -1, 22, -1, -1, -1, 24, -1, 26, 28, 30, -1, -1, 32, 34, -1, -1, -1, -1, -1, -1, -1, -1, -1, -1], "split_conditions": [2.00001, 2629.1667, 2.00001, 0.96890295, 2.00001, 2.00001, 2.00001, -0.5559825, -0.67387086, 2.00001, -0.10236013, 570.561, 1.3547418, 276.5425, 1068.153, 395.72873, -0.8372796, -145.8256, 2.00001, 2.00001, -0.3409911, -97.27339, 156.7935, 0.731093, -0.49227464, -78.349785, 207.42944, 241.47246, -223.35893, -149.6771, 91.50222, 3.6607423, 124.60259, -214.38762, -58.410645], "split_indices": [7, 0, 103, 0, 46, 80, 115, 3, 1, 32, 1, 0, 5, 0, 0, 0, 3, 0, 57, 71, 0, 0, 0, 1, 0, 0, 0, 0, 0, 0, 0, 0, 0, 0, 0], "split_type": [0, 0, 0, 0, 0, 0, 0, 0, 0, 0, 0, 0, 0, 0, 0, 0, 0, 0, 0, 0, 0, 0, 0, 0, 0, 0, 0, 0, 0, 0, 0, 0, 0, 0, 0], "sum_hessian": [104.0, 1.0, 103.0, 90.0, 13.0, 85.0, 5.0, 5.0, 8.0, 13.0, 72.0, 2.0, 3.0, 2.0, 3.0, 1.0, 7.0, 3.0, 10.0, 40.0, 32.0, 1.0, 2.0, 3.0, 4.0, 2.0, 8.0, 1.0, 39.0, 17.0, 15.0, 2.0, 1.0, 3.0, 1.0], "tree_param": {"num_deleted": "0", "num_feature": "120", "num_nodes": "35", "size_leaf_vector": "1"}}, {"base_weights": [370.75363, 2497.7085, -106.00998, -650.951, 3443.6787, -904.11945, 3086.2886, 7877.475, 105.18354, -13.72719, -1486.035, 532.5236, 635.5056, 904.24725, 102.62451, 375.9423, -821.52423, -675.91833, 1974.3715, 238.63199, -1608.7542, -92.40972, 146.34056, 617.48755, -180.84288, -242.78665, -16.73907, 345.7976, 9.589258, 148.04591, -176.50578, 3.4166992, 118.37246], "categories": [], "categories_nodes": [], "categories_segments": [], "categories_sizes": [], "default_left": [0, 0, 0, 0, 0, 0, 0, 0, 0, 0, 0, 0, 0, 0, 0, 0, 0, 0, 0, 0, 0, 0, 0, 0, 0, 0, 0, 0, 0, 0, 0, 0, 0], "id": 10, "left_children": [1, -1, 3, 5, 7, 9, 11, 13, 15, 17, 19, -1, 21, -1, -1, -1, 23, 25, 27, -1, 29, -1, -1, 31, -1, -1, -1, -1, -1, -1, -1, -1, -1], "loss_changes": [1234445000.0, 0.0, 203416260.0, 88890120.0, 206402320.0, 44539056.0, 29538836.0, 38610210.0, 33566164.0, 47412056.0, 28550024.0, 0.0, 6517109.5, 0.0, 0.0, 0.0, 12478022.0, 23648272.0, 24750684.0, 0.0, 27238728.0, 0.0, 0.0, 1280746.8, 0.0, 0.0, 0.0, 0.0, 0.0, 0.0, 0.0, 0.0, 0.0], "parents": [2147483647, 0, 0, 2, 2, 3, 3, 4, 4, 5, 5, 6, 6, 7, 7, 8, 8, 9, 9, 10, 10, 12, 12, 16, 16, 17, 17, 18, 18, 20, 20, 23, 23], "right_children": [2, -1, 4, 6, 8, 10, 12, 14, 16, 18, 20, -1, 22, -1, -1, -1, 24, 26, 28, -1, 30, -1, -1, 32, -1, -1, -1, -1, -1, -1, -1, -1, -1], "split_conditions": [2.00001, 2497.7085, 2.00001, 0.96890295, 2.00001, -0.5716101, 2.00001, -0.2452378, -0.67387086, -0.37321898, 2.00001, 532.5236, 1.3547418, 904.24725, 102.62451, 375.9423, -0.8372796, 2.00001, 2.00001, 238.63199, 2.00001, -92.40972, 146.34056, 0.731093, -180.84288, -242.78665, -16.73907, 345.7976, 9.589258, 148.04591, -176.50578, 3.4166992, 118.37246], "split_indices": [7, 0, 103, 0, 46, 3, 115, 1, 1, 4, 73, 0, 5, 0, 0, 0, 3, 62, 28, 0, 71, 0, 0, 1, 0, 0, 0, 0, 0, 0, 0, 0, 0], "split_type": [0, 0, 0, 0, 0, 0, 0, 0, 0, 0, 0, 0, 0, 0, 0, 0, 0, 0, 0, 0, 0, 0, 0, 0, 0, 0, 0, 0, 0, 0, 0, 0, 0], "sum_hessian": [104.0, 1.0, 103.0, 90.0, 13.0, 85.0, 5.0, 5.0, 8.0, 34.0, 51.0, 2.0, 3.0, 4.0, 1.0, 1.0, 7.0, 26.0, 8.0, 1.0, 50.0, 1.0, 2.0, 3.0, 4.0, 5.0, 21.0, 4.0, 4.0, 2.0, 48.0, 2.0, 1.0], "tree_param": {"num_deleted": "0", "num_feature": "120", "num_nodes": "33", "size_leaf_vector": "1"}}, {"base_weights": [378.57312, 2372.823, -74.09888, -576.0483, 3193.865, -737.90656, 4417.762, 7257.539, 129.87506, -1598.9203, -150.23244, 530.8383, 131.82608, 224.54393, 920.22296, 357.14517, -746.7535, 173.47105, -1743.73, 1466.1566, -646.9664, 586.1863, -1663.7546, -190.4709, -1.9966004, -27.38452, 354.17996, 294.2635, -90.00123, 90.82327, -18.997656, -184.74535, -46.447975], "categories": [], "categories_nodes": [], "categories_segments": [], "categories_sizes": [], "default_left": [0, 0, 0, 0, 0, 0, 0, 0, 0, 0, 0, 0, 0, 0, 0, 0, 0, 0, 0, 0, 0, 0, 0, 0, 0, 0, 0, 0, 0, 0, 0, 0, 0], "id": 11, "left_children": [1, -1, 3, 5, 7, 9, 11, 13, 15, 17, 19, -1, -1, -1, -1, -1, 21, -1, 23, 25, 27, 29, 31, -1, -1, -1, -1, -1, -1, -1, -1, -1, -1], "loss_changes": [1111580500.0, 0.0, 172436480.0, 76814240.0, 173372240.0, 44793388.0, 1283608.0, 37818816.0, 29819852.0, 20403584.0, 44305976.0, 0.0, 0.0, 0.0, 0.0, 0.0, 10753728.0, 0.0, 9674112.0, 47920988.0, 40798436.0, 1172385.1, 243422.0, 0.0, 0.0, 0.0, 0.0, 0.0, 0.0, 0.0, 0.0, 0.0, 0.0], "parents": [2147483647, 0, 0, 2, 2, 3, 3, 4, 4, 5, 5, 6, 6, 7, 7, 8, 8, 9, 9, 10, 10, 16, 16, 18, 18, 19, 19, 20, 20, 21, 21, 22, 22], "right_children": [2, -1, 4, 6, 8, 10, 12, 14, 16, 18, 20, -1, -1, -1, -1, -1, 22, -1, 24, 26, 28, 30, 32, -1, -1, -1, -1, -1, -1, -1, -1, -1, -1], "split_conditions": [2.00001, 2372.823, 2.00001, 1.6874998, 2.00001, -0.35390556, 6.945525, -0.5559825, -0.67387086, 2.00001, 2.00001, 530.8383, 131.82608, 224.54393, 920.22296, 357.14517, -0.8372796, 173.47105, 0.3126126, -0.548254, 2.00001, 0.3167233, -0.49227464, -190.4709, -1.9966004, -27.38452, 354.17996, 294.2635, -90.00123, 90.82327, -18.997656, -184.74535, -46.447975], "split_indices": [7, 0, 103, 0, 46, 0, 0, 3, 1, 74, 28, 0, 0, 0, 0, 0, 3, 0, 5, 4, 73, 0, 0, 0, 0, 0, 0, 0, 0, 0, 0, 0, 0], "split_type": [0, 0, 0, 0, 0, 0, 0, 0, 0, 0, 0, 0, 0, 0, 0, 0, 0, 0, 0, 0, 0, 0, 0, 0, 0, 0, 0, 0, 0, 0, 0, 0, 0], "sum_hessian": [104.0, 1.0, 103.0, 90.0, 13.0, 88.0, 2.0, 5.0, 8.0, 35.0, 53.0, 1.0, 1.0, 2.0, 3.0, 1.0, 7.0, 1.0, 34.0, 12.0, 41.0, 3.0, 4.0, 31.0, 3.0, 7.0, 5.0, 2.0, 39.0, 2.0, 1.0, 3.0, 1.0], "tree_param": {"num_deleted": "0", "num_feature": "120", "num_nodes": "33", "size_leaf_vector": "1"}}, {"base_weights": [387.28815, 2254.182, -42.48442, -505.53433, 2970.3748, -658.36237, 4196.8745, 6722.58, 138.86285, 856.92786, -952.6422, 504.2964, 125.234764, 209.57433, 851.20624, 339.2879, -691.999, -1149.0063, 1454.1619, -1572.7479, -158.6103, 545.52405, -1543.6177, -27.569117, -134.82144, -57.335888, 191.7002, 226.49658, -172.1594, -117.679054, 92.87929, 0.7947428, 107.9127, -170.88942, -44.125587], "categories": [], "categories_nodes": [], "categories_segments": [], "categories_sizes": [], "default_left": [0, 0, 0, 0, 0, 0, 0, 0, 0, 0, 1, 0, 0, 0, 0, 0, 0, 0, 0, 0, 0, 0, 0, 0, 0, 0, 0, 0, 0, 0, 0, 0, 0, 0, 0], "id": 12, "left_children": [1, -1, 3, 5, 7, 9, 11, 13, 15, 17, 19, -1, -1, -1, -1, -1, 21, 23, 25, 27, 29, 31, 33, -1, -1, -1, -1, -1, -1, -1, -1, -1, -1, -1, -1], "loss_changes": [1000705660.0, 0.0, 146592460.0, 68161090.0, 147808270.0, 40503172.0, 1158452.0, 31838752.0, 26680610.0, 19641024.0, 36679330.0, 0.0, 0.0, 0.0, 0.0, 0.0, 9273263.0, 324194.5, 12360146.0, 27890904.0, 38736856.0, 1138833.5, 156912.0, 0.0, 0.0, 0.0, 0.0, 0.0, 0.0, 0.0, 0.0, 0.0, 0.0, 0.0, 0.0], "parents": [2147483647, 0, 0, 2, 2, 3, 3, 4, 4, 5, 5, 6, 6, 7, 7, 8, 8, 9, 9, 10, 10, 16, 16, 17, 17, 18, 18, 19, 19, 20, 20, 21, 21, 22, 22], "right_children": [2, -1, 4, 6, 8, 10, 12, 14, 16, 18, 20, -1, -1, -1, -1, -1, 22, 24, 26, 28, 30, 32, 34, -1, -1, -1, -1, -1, -1, -1, -1, -1, -1, -1, -1], "split_conditions": [2.00001, 2254.182, 2.00001, 1.6874998, 2.00001, 2.00001, 6.945525, -0.5559825, -0.67387086, 2.00001, -0.10236013, 504.2964, 125.234764, 209.57433, 851.20624, 339.2879, -0.8372796, -0.22199368, 2.00001, 2.00001, -0.3409911, 0.731093, -0.49227464, -27.569117, -134.82144, -57.335888, 191.7002, 226.49658, -172.1594, -117.679054, 92.87929, 0.7947428, 107.9127, -170.88942, -44.125587], "split_indices": [7, 0, 103, 0, 46, 80, 0, 3, 1, 32, 1, 0, 0, 0, 0, 0, 3, 0, 57, 71, 0, 1, 0, 0, 0, 0, 0, 0, 0, 0, 0, 0, 0, 0, 0], "split_type": [0, 0, 0, 0, 0, 0, 0, 0, 0, 0, 0, 0, 0, 0, 0, 0, 0, 0, 0, 0, 0, 0, 0, 0, 0, 0, 0, 0, 0, 0, 0, 0, 0, 0, 0], "sum_hessian": [104.0, 1.0, 103.0, 90.0, 13.0, 88.0, 2.0, 5.0, 8.0, 14.0, 74.0, 1.0, 1.0, 2.0, 3.0, 1.0, 7.0, 3.0, 11.0, 41.0, 33.0, 3.0, 4.0, 1.0, 2.0, 2.0, 9.0, 1.0, 40.0, 17.0, 16.0, 2.0, 1.0, 3.0, 1.0], "tree_param": {"num_deleted": "0", "num_feature": "120", "num_nodes": "35", "size_leaf_vector": "1"}}, {"base_weights": [388.35916, 2141.4727, -19.728271, -448.04636, 2765.7485, -592.5091, 3987.0305, 6227.118, 150.8631, 769.36664, -856.98413, 479.08154, 118.973045, 195.6027, 787.3657, 322.3235, -636.08777, -1074.7034, 1319.9427, -1136.4254, 563.153, 811.44794, -1253.841, -26.190662, -125.83335, -27.787672, 188.34245, 44.636784, -140.84904, 152.10709, -127.37298, 19.200148, 102.517044, -158.07274, -40.00456], "categories": [], "categories_nodes": [], "categories_segments": [], "categories_sizes": [], "default_left": [0, 0, 0, 0, 0, 0, 0, 0, 0, 0, 0, 0, 0, 0, 0, 0, 0, 0, 0, 0, 0, 0, 0, 0, 0, 0, 0, 0, 0, 0, 0, 0, 0, 0, 0], "id": 13, "left_children": [1, -1, 3, 5, 7, 9, 11, 13, 15, 17, 19, -1, -1, -1, -1, -1, 21, 23, 25, 27, 29, 31, 33, -1, -1, -1, -1, -1, -1, -1, -1, -1, -1, -1, -1], "loss_changes": [901385100.0, 0.0, 125318460.0, 60666356.0, 125775750.0, 32715546.0, 1045504.0, 26794032.0, 23810510.0, 16648062.0, 30403348.0, 0.0, 0.0, 0.0, 0.0, 0.0, 8171185.0, 267449.5, 11327464.0, 27757920.0, 24812008.0, 200334.88, 1042200.0, 0.0, 0.0, 0.0, 0.0, 0.0, 0.0, 0.0, 0.0, 0.0, 0.0, 0.0, 0.0], "parents": [2147483647, 0, 0, 2, 2, 3, 3, 4, 4, 5, 5, 6, 6, 7, 7, 8, 8, 9, 9, 10, 10, 16, 16, 17, 17, 18, 18, 19, 19, 20, 20, 21, 21, 22, 22], "right_children": [2, -1, 4, 6, 8, 10, 12, 14, 16, 18, 20, -1, -1, -1, -1, -1, 22, 24, 26, 28, 30, 32, 34, -1, -1, -1, -1, -1, -1, -1, -1, -1, -1, -1, -1], "split_conditions": [2.00001, 2141.4727, 2.00001, 1.6874998, 2.00001, 2.00001, 6.945525, -0.5559825, -0.67387086, 2.00001, 0.4294206, 479.08154, 118.973045, 195.6027, 787.3657, 322.3235, -1.1967148, -0.22199368, -0.3760446, 2.00001, 1.0413791, -0.16664605, -0.49227464, -26.190662, -125.83335, -27.787672, 188.34245, 44.636784, -140.84904, 152.10709, -127.37298, 19.200148, 102.517044, -158.07274, -40.00456], "split_indices": [7, 0, 103, 0, 46, 80, 0, 3, 1, 32, 5, 0, 0, 0, 0, 0, 3, 0, 0, 81, 5, 0, 0, 0, 0, 0, 0, 0, 0, 0, 0, 0, 0, 0, 0], "split_type": [0, 0, 0, 0, 0, 0, 0, 0, 0, 0, 0, 0, 0, 0, 0, 0, 0, 0, 0, 0, 0, 0, 0, 0, 0, 0, 0, 0, 0, 0, 0, 0, 0, 0, 0], "sum_hessian": [104.0, 1.0, 103.0, 90.0, 13.0, 88.0, 2.0, 5.0, 8.0, 14.0, 74.0, 1.0, 1.0, 2.0, 3.0, 1.0, 7.0, 3.0, 11.0, 62.0, 12.0, 2.0, 5.0, 1.0, 2.0, 3.0, 8.0, 9.0, 53.0, 8.0, 4.0, 1.0, 1.0, 3.0, 2.0], "tree_param": {"num_deleted": "0", "num_feature": "120", "num_nodes": "35", "size_leaf_vector": "1"}}, {"base_weights": [386.71866, 2034.399, -0.79348874, -397.3614, 2576.9546, -533.96545, 3787.679, 5768.235, 163.1061, -889.8162, 316.12958, 455.12744, 113.024414, 665.78534, 66.007225, 306.20734, -582.0239, -1594.5007, -415.2796, 821.6039, -207.22783, 770.8757, -1161.4697, -18.885677, -170.85194, -163.9393, 0.66008425, 294.52536, 6.8076067, 18.240137, 97.39121, -146.21727, -37.337597], "categories": [], "categories_nodes": [], "categories_segments": [], "categories_sizes": [], "default_left": [0, 0, 0, 0, 0, 0, 0, 0, 0, 0, 0, 0, 0, 0, 0, 0, 0, 0, 0, 0, 0, 0, 0, 0, 0, 0, 0, 0, 0, 0, 0, 0, 0], "id": 14, "left_children": [1, -1, 3, 5, 7, 9, 11, 13, 15, 17, 19, -1, -1, -1, -1, -1, 21, 23, 25, 27, -1, 29, 31, -1, -1, -1, -1, -1, -1, -1, -1, -1, -1], "loss_changes": [812053060.0, 0.0, 107338210.0, 54046590.0, 106904910.0, 27204416.0, 943560.0, 22871216.0, 21223168.0, 20404948.0, 34299120.0, 0.0, 0.0, 0.0, 0.0, 0.0, 7166805.0, 3684084.0, 20151572.0, 36604764.0, 0.0, 180802.25, 875953.0, 0.0, 0.0, 0.0, 0.0, 0.0, 0.0, 0.0, 0.0, 0.0, 0.0], "parents": [2147483647, 0, 0, 2, 2, 3, 3, 4, 4, 5, 5, 6, 6, 7, 7, 8, 8, 9, 9, 10, 10, 16, 16, 17, 17, 18, 18, 19, 19, 21, 21, 22, 22], "right_children": [2, -1, 4, 6, 8, 10, 12, 14, 16, 18, 20, -1, -1, -1, -1, -1, 22, 24, 26, 28, -1, 30, 32, -1, -1, -1, -1, -1, -1, -1, -1, -1, -1], "split_conditions": [2.00001, 2034.399, 2.00001, 1.6874998, 2.00001, -0.14819685, 6.945525, -0.2452378, -0.67387086, 2.00001, 0.7314675, 455.12744, 113.024414, 665.78534, 66.007225, 306.20734, -1.1967148, 2.00001, -0.48028266, 2.00001, -207.22783, -0.16664605, -0.49227464, -18.885677, -170.85194, -163.9393, 0.66008425, 294.52536, 6.8076067, 18.240137, 97.39121, -146.21727, -37.337597], "split_indices": [7, 0, 103, 0, 46, 0, 0, 1, 1, 32, 2, 0, 0, 0, 0, 0, 3, 11, 0, 50, 0, 0, 0, 0, 0, 0, 0, 0, 0, 0, 0, 0, 0], "split_type": [0, 0, 0, 0, 0, 0, 0, 0, 0, 0, 0, 0, 0, 0, 0, 0, 0, 0, 0, 0, 0, 0, 0, 0, 0, 0, 0, 0, 0, 0, 0, 0, 0], "sum_hessian": [104.0, 1.0, 103.0, 90.0, 13.0, 88.0, 2.0, 5.0, 8.0, 62.0, 26.0, 1.0, 1.0, 4.0, 1.0, 1.0, 7.0, 24.0, 38.0, 22.0, 4.0, 2.0, 5.0, 2.0, 22.0, 9.0, 29.0, 5.0, 17.0, 1.0, 1.0, 3.0, 2.0], "tree_param": {"num_deleted": "0", "num_feature": "120", "num_nodes": "33", "size_leaf_vector": "1"}}, {"base_weights": [379.606, 1932.6791, 11.586982, -354.22702, 2388.5503, -483.47803, 3598.2952, 5365.3457, 138.62575, 698.06635, -713.3405, 432.3711, 107.37319, 659.0624, -38.052223, -135.25096, 1109.6117, -398.2324, 1473.1802, 1261.1958, -872.39594, 20.717936, 164.88792, 79.608955, -103.51791, 201.0557, 29.882008, 271.1586, -14.189582, 114.66184, -104.5345, 17.328125, -14.220435], "categories": [], "categories_nodes": [], "categories_segments": [], "categories_sizes": [], "default_left": [0, 0, 0, 0, 0, 0, 0, 0, 0, 0, 0, 0, 0, 0, 0, 0, 0, 0, 0, 0, 0, 0, 0, 0, 0, 0, 0, 0, 0, 0, 0, 0, 0], "id": 15, "left_children": [1, -1, 3, 5, 7, 9, 11, 13, 15, 17, 19, -1, -1, -1, -1, -1, 21, 23, 25, 27, 29, 31, -1, -1, -1, -1, -1, -1, -1, -1, -1, -1, -1], "loss_changes": [731933100.0, 0.0, 91276850.0, 48228636.0, 93022120.0, 24669710.0, 851564.0, 44749616.0, 14531605.0, 13333014.0, 24654812.0, 0.0, 0.0, 0.0, 0.0, 0.0, 3489068.5, 6149131.0, 5078870.0, 12594943.0, 25641672.0, 99209.24, 0.0, 0.0, 0.0, 0.0, 0.0, 0.0, 0.0, 0.0, 0.0, 0.0, 0.0], "parents": [2147483647, 0, 0, 2, 2, 3, 3, 4, 4, 5, 5, 6, 6, 7, 7, 8, 8, 9, 9, 10, 10, 16, 16, 17, 17, 18, 18, 19, 19, 20, 20, 21, 21], "right_children": [2, -1, 4, 6, 8, 10, 12, 14, 16, 18, 20, -1, -1, -1, -1, -1, 22, 24, 26, 28, 30, 32, -1, -1, -1, -1, -1, -1, -1, -1, -1, -1, -1], "split_conditions": [2.00001, 1932.6791, 2.00001, 1.6874998, 2.00001, 2.00001, 6.945525, 1.4130971, -0.49227464, 2.00001, 2.00001, 432.3711, 107.37319, 659.0624, -38.052223, -135.25096, 2.00001, 2.00001, 2.00001, 2.00001, 2.00001, -0.16664605, 164.88792, 79.608955, -103.51791, 201.0557, 29.882008, 271.1586, -14.189582, 114.66184, -104.5345, 17.328125, -14.220435], "split_indices": [7, 0, 103, 0, 42, 80, 0, 3, 0, 42, 82, 0, 0, 0, 0, 0, 59, 26, 115, 116, 74, 0, 0, 0, 0, 0, 0, 0, 0, 0, 0, 0, 0], "split_type": [0, 0, 0, 0, 0, 0, 0, 0, 0, 0, 0, 0, 0, 0, 0, 0, 0, 0, 0, 0, 0, 0, 0, 0, 0, 0, 0, 0, 0, 0, 0, 0, 0], "sum_hessian": [104.0, 1.0, 103.0, 90.0, 13.0, 88.0, 2.0, 5.0, 8.0, 14.0, 74.0, 1.0, 1.0, 4.0, 1.0, 3.0, 5.0, 6.0, 8.0, 5.0, 69.0, 2.0, 3.0, 2.0, 4.0, 5.0, 3.0, 2.0, 3.0, 5.0, 64.0, 1.0, 1.0], "tree_param": {"num_deleted": "0", "num_feature": "120", "num_nodes": "33", "size_leaf_vector": "1"}}, {"base_weights": [375.93396, 1836.0452, 26.463121, 1839.4221, -400.42682, 481.0096, 4928.8833, -735.33954, 1919.4714, -1323.0627, 1257.3143, 147.17696, 628.94977, 204.28139, -839.4371, 445.7976, 860.0286, -145.6232, -39.519276, 2188.1204, -297.27707, -1074.269, 226.94566, 1816.6812, -268.62958, 30.337706, 288.13425, -88.1619, 102.00454, 42.498425, -128.03023, -44.474228, 152.49324, 236.26228, 66.51792, -61.935757, 56.71411], "categories": [], "categories_nodes": [], "categories_segments": [], "categories_sizes": [], "default_left": [0, 0, 0, 0, 0, 0, 0, 0, 0, 0, 0, 0, 0, 0, 0, 0, 0, 0, 0, 0, 0, 0, 0, 0, 0, 0, 0, 0, 0, 0, 0, 0, 0, 0, 0, 0, 0], "id": 16, "left_children": [1, -1, 3, 5, 7, 9, 11, 13, 15, 17, 19, -1, -1, -1, 21, -1, 23, -1, -1, 25, 27, 29, 31, 33, 35, -1, -1, -1, -1, -1, -1, -1, -1, -1, -1, -1, -1], "loss_changes": [659445900.0, 0.0, 81225690.0, 81564424.0, 67453350.0, 22671152.0, 18966096.0, 23404732.0, 25749412.0, 42327.0, 16567736.0, 0.0, 0.0, 0.0, 18524520.0, 0.0, 10205618.0, 0.0, 0.0, 8271682.0, 4748125.5, 19077864.0, 12883990.0, 1571697.0, 1816904.0, 0.0, 0.0, 0.0, 0.0, 0.0, 0.0, 0.0, 0.0, 0.0, 0.0, 0.0, 0.0], "parents": [2147483647, 0, 0, 2, 2, 3, 3, 4, 4, 5, 5, 6, 6, 7, 7, 8, 8, 9, 9, 10, 10, 14, 14, 16, 16, 19, 19, 20, 20, 21, 21, 22, 22, 23, 23, 24, 24], "right_children": [2, -1, 4, 6, 8, 10, 12, 14, 16, 18, 20, -1, -1, -1, 22, -1, 24, -1, -1, 26, 28, 30, 32, 34, 36, -1, -1, -1, -1, -1, -1, -1, -1, -1, -1, -1, -1], "split_conditions": [2.00001, 1836.0452, 2.00001, 2.00001, 0.574392, 2.00001, -0.5559825, 2.00001, -0.67387086, 0.94426864, 0.6785992, 147.17696, 628.94977, 204.28139, 2.00001, 445.7976, 1.0413791, -145.6232, -39.519276, 2.00001, 0.640507, 2.00001, -0.45297965, 0.20720817, 0.82038677, 30.337706, 288.13425, -88.1619, 102.00454, 42.498425, -128.03023, -44.474228, 152.49324, 236.26228, 66.51792, -61.935757, 56.71411], "split_indices": [7, 0, 46, 103, 5, 66, 3, 54, 1, 3, 3, 0, 0, 0, 109, 0, 5, 0, 0, 30, 0, 37, 4, 1, 0, 0, 0, 0, 0, 0, 0, 0, 0, 0, 0, 0, 0], "split_type": [0, 0, 0, 0, 0, 0, 0, 0, 0, 0, 0, 0, 0, 0, 0, 0, 0, 0, 0, 0, 0, 0, 0, 0, 0, 0, 0, 0, 0, 0, 0, 0, 0, 0, 0, 0, 0], "sum_hessian": [104.0, 1.0, 103.0, 19.0, 84.0, 14.0, 5.0, 74.0, 10.0, 4.0, 10.0, 2.0, 3.0, 2.0, 72.0, 2.0, 8.0, 3.0, 1.0, 6.0, 4.0, 59.0, 13.0, 4.0, 4.0, 2.0, 4.0, 3.0, 1.0, 7.0, 52.0, 9.0, 4.0, 2.0, 2.0, 3.0, 1.0], "tree_param": {"num_deleted": "0", "num_feature": "120", "num_nodes": "37", "size_leaf_vector": "1"}}, {"base_weights": [373.85934, 1744.2428, 42.02285, 1701.645, -348.9709, 442.7202, 4565.3496, -658.782, 1795.102, -1227.7849, 1161.7935, 137.36517, 581.77856, 190.66264, -755.1853, 416.0778, 807.0877, -134.70146, -37.543312, 2014.8046, -264.78094, 207.84233, -823.40796, 1695.569, -242.81104, 60.453552, 292.13727, -81.54977, 96.9043, -104.61621, 26.80274, 220.51143, 62.0834, -57.29059, 53.878418], "categories": [], "categories_nodes": [], "categories_segments": [], "categories_sizes": [], "default_left": [0, 0, 0, 0, 0, 0, 0, 0, 0, 0, 0, 0, 0, 0, 0, 0, 0, 0, 0, 0, 0, 0, 1, 0, 0, 0, 0, 0, 0, 0, 0, 0, 0, 0, 0], "id": 17, "left_children": [1, -1, 3, 5, 7, 9, 11, 13, 15, 17, 19, -1, -1, -1, 21, -1, 23, -1, -1, 25, 27, -1, 29, 31, 33, -1, -1, -1, -1, -1, -1, -1, -1, -1, -1], "loss_changes": [593984300.0, 0.0, 68079620.0, 70082610.0, 57644476.0, 19444664.0, 15992760.0, 19988398.0, 22352424.0, 2414.5, 13919204.0, 0.0, 0.0, 0.0, 15823484.0, 0.0, 8807040.0, 0.0, 0.0, 7183460.0, 4187689.2, 0.0, 17785172.0, 1369122.0, 1598675.5, 0.0, 0.0, 0.0, 0.0, 0.0, 0.0, 0.0, 0.0, 0.0, 0.0], "parents": [2147483647, 0, 0, 2, 2, 3, 3, 4, 4, 5, 5, 6, 6, 7, 7, 8, 8, 9, 9, 10, 10, 14, 14, 16, 16, 19, 19, 20, 20, 22, 22, 23, 23, 24, 24], "right_children": [2, -1, 4, 6, 8, 10, 12, 14, 16, 18, 20, -1, -1, -1, 22, -1, 24, -1, -1, 26, 28, -1, 30, 32, 34, -1, -1, -1, -1, -1, -1, -1, -1, -1, -1], "split_conditions": [2.00001, 1744.2428, 2.00001, 2.00001, 0.574392, 2.00001, -0.5559825, 2.00001, -0.67387086, 0.94426864, 0.6785992, 137.36517, 581.77856, 190.66264, 2.00001, 416.0778, 1.0413791, -134.70146, -37.543312, 2.00001, 0.640507, 207.84233, 0.731093, 0.20720817, 0.82038677, 60.453552, 292.13727, -81.54977, 96.9043, -104.61621, 26.80274, 220.51143, 62.0834, -57.29059, 53.878418], "split_indices": [7, 0, 46, 103, 5, 66, 3, 54, 1, 3, 3, 0, 0, 0, 55, 0, 5, 0, 0, 40, 0, 0, 1, 1, 0, 0, 0, 0, 0, 0, 0, 0, 0, 0, 0], "split_type": [0, 0, 0, 0, 0, 0, 0, 0, 0, 0, 0, 0, 0, 0, 0, 0, 0, 0, 0, 0, 0, 0, 0, 0, 0, 0, 0, 0, 0, 0, 0, 0, 0, 0, 0], "sum_hessian": [104.0, 1.0, 103.0, 19.0, 84.0, 14.0, 5.0, 74.0, 10.0, 4.0, 10.0, 2.0, 3.0, 2.0, 72.0, 2.0, 8.0, 3.0, 1.0, 6.0, 4.0, 1.0, 71.0, 4.0, 4.0, 3.0, 3.0, 3.0, 1.0, 59.0, 12.0, 2.0, 2.0, 3.0, 1.0], "tree_param": {"num_deleted": "0", "num_feature": "120", "num_nodes": "35", "size_leaf_vector": "1"}}, {"base_weights": [371.47372, 1657.0306, 56.385857, -92.29504, 3796.482, 2150.7468, -282.21036, 444.82486, 92.05908, -1293.326, 3514.3257, -1072.8289, 69.45855, -154.36273, -39.63618, 454.19702, 97.26911, -1139.6829, 39.954174, -640.2727, 609.2677, -9.771515, -126.08105, 177.95177, -88.54245, -141.54723, 95.89396], "categories": [], "categories_nodes": [], "categories_segments": [], "categories_sizes": [], "default_left": [0, 0, 0, 0, 0, 0, 0, 0, 0, 0, 0, 0, 1, 0, 0, 0, 0, 0, 0, 0, 0, 0, 0, 0, 0, 0, 0], "id": 18, "left_children": [1, -1, 3, 5, 7, 9, 11, -1, -1, 13, 15, 17, 19, -1, -1, -1, -1, 21, -1, 23, 25, -1, -1, -1, -1, -1, -1], "loss_changes": [534991520.0, 0.0, 58182804.0, 43631756.0, 3402628.0, 42115284.0, 26209900.0, 0.0, 0.0, 61699.0, 11253448.0, 3309934.0, 25675980.0, 0.0, 0.0, 0.0, 0.0, 3410704.0, 0.0, 18778892.0, 28261144.0, 0.0, 0.0, 0.0, 0.0, 0.0, 0.0], "parents": [2147483647, 0, 0, 2, 2, 3, 3, 4, 4, 5, 5, 6, 6, 9, 9, 10, 10, 11, 11, 12, 12, 17, 17, 19, 19, 20, 20], "right_children": [2, -1, 4, 6, 8, 10, 12, -1, -1, 14, 16, 18, 20, -1, -1, -1, -1, 22, -1, 24, 26, -1, -1, -1, -1, -1, -1], "split_conditions": [2.00001, 1657.0306, 1.6874998, 2.00001, 6.945525, 2.00001, -0.3880366, 444.82486, 92.05908, -0.24966751, 0.7787189, 0.34664243, -0.6976838, -154.36273, -39.63618, 454.19702, 97.26911, 2.00001, 39.954174, 2.00001, 2.00001, -9.771515, -126.08105, 177.95177, -88.54245, -141.54723, 95.89396], "split_indices": [7, 0, 0, 74, 0, 47, 0, 0, 0, 0, 1, 5, 1, 0, 0, 0, 0, 59, 0, 54, 66, 0, 0, 0, 0, 0, 0], "split_type": [0, 0, 0, 0, 0, 0, 0, 0, 0, 0, 0, 0, 0, 0, 0, 0, 0, 0, 0, 0, 0, 0, 0, 0, 0, 0, 0], "sum_hessian": [104.0, 1.0, 103.0, 100.0, 3.0, 7.0, 93.0, 2.0, 1.0, 2.0, 5.0, 28.0, 65.0, 1.0, 1.0, 3.0, 2.0, 27.0, 1.0, 28.0, 37.0, 3.0, 24.0, 2.0, 26.0, 5.0, 32.0], "tree_param": {"num_deleted": "0", "num_feature": "120", "num_nodes": "27", "size_leaf_vector": "1"}}, {"base_weights": [358.12866, 1574.1791, 58.845455, 1536.8922, -289.62256, 436.92624, 4030.6584, -559.5772, 1577.3065, -1036.8186, 1067.0897, 469.53024, 35.371925, 166.08829, -643.1635, 370.3153, 693.4348, -115.30794, -28.588795, 1814.72, -193.01062, 192.65552, -705.61176, 199.41774, 36.911552, 58.887794, 258.6882, -67.854385, 87.45611, 42.50606, -87.388336, -56.797596, 63.25712], "categories": [], "categories_nodes": [], "categories_segments": [], "categories_sizes": [], "default_left": [0, 0, 0, 0, 0, 0, 0, 0, 0, 0, 0, 0, 0, 0, 0, 0, 0, 0, 0, 0, 0, 0, 0, 0, 0, 0, 0, 0, 0, 0, 0, 0, 0], "id": 19, "left_children": [1, -1, 3, 5, 7, 9, 11, 13, 15, 17, 19, -1, -1, -1, 21, -1, 23, -1, -1, 25, 27, -1, 29, -1, 31, -1, -1, -1, -1, -1, -1, -1, -1], "loss_changes": [482501220.0, 0.0, 54010530.0, 53100056.0, 43721450.0, 15036882.0, 13002320.0, 14988228.0, 18100840.0, 106867.0, 10713243.0, 0.0, 0.0, 0.0, 13074032.0, 0.0, 7612102.0, 0.0, 0.0, 5102482.0, 3185135.2, 0.0, 14070180.0, 0.0, 2881434.8, 0.0, 0.0, 0.0, 0.0, 0.0, 0.0, 0.0, 0.0], "parents": [2147483647, 0, 0, 2, 2, 3, 3, 4, 4, 5, 5, 6, 6, 7, 7, 8, 8, 9, 9, 10, 10, 14, 14, 16, 16, 19, 19, 20, 20, 22, 22, 24, 24], "right_children": [2, -1, 4, 6, 8, 10, 12, 14, 16, 18, 20, -1, -1, -1, 22, -1, 24, -1, -1, 26, 28, -1, 30, -1, 32, -1, -1, -1, -1, -1, -1, -1, -1], "split_conditions": [2.00001, 1574.1791, 2.00001, 2.00001, 0.574392, 2.00001, -0.2452378, 2.00001, -0.67387086, 0.94426864, 0.6785992, 469.53024, 35.371925, 166.08829, 2.00001, 370.3153, 2.00001, -115.30794, -28.588795, 2.00001, 0.640507, 192.65552, 2.00001, 199.41774, 0.23102112, 58.887794, 258.6882, -67.854385, 87.45611, 42.50606, -87.388336, -56.797596, 63.25712], "split_indices": [7, 0, 46, 103, 5, 66, 1, 54, 1, 3, 3, 0, 0, 0, 55, 0, 116, 0, 0, 40, 0, 0, 81, 0, 1, 0, 0, 0, 0, 0, 0, 0, 0], "split_type": [0, 0, 0, 0, 0, 0, 0, 0, 0, 0, 0, 0, 0, 0, 0, 0, 0, 0, 0, 0, 0, 0, 0, 0, 0, 0, 0, 0, 0, 0, 0, 0, 0], "sum_hessian": [104.0, 1.0, 103.0, 19.0, 84.0, 14.0, 5.0, 74.0, 10.0, 4.0, 10.0, 4.0, 1.0, 2.0, 72.0, 2.0, 8.0, 3.0, 1.0, 6.0, 4.0, 1.0, 71.0, 2.0, 6.0, 3.0, 3.0, 3.0, 1.0, 9.0, 62.0, 3.0, 3.0], "tree_param": {"num_deleted": "0", "num_feature": "120", "num_nodes": "33", "size_leaf_vector": "1"}}, {"base_weights": [352.43408, 1495.4701, 68.23248, 1418.1122, -250.18901, 406.11902, 3711.743, -499.43457, 1471.957, -961.91614, 991.03326, 104.93864, 478.05746, 495.73544, -678.2253, 345.62766, 646.9665, -117.834984, -42.484375, 1678.616, -169.78914, -728.657, 1199.0138, 386.8053, -859.5358, 186.12321, 34.143135, 27.513218, 218.49829, -62.765297, 83.083305, -98.43113, 14.697998, 34.800507, 196.30212, 137.2047, -3.1011016, 183.02275, -94.32394, -52.537792, 58.512844], "categories": [], "categories_nodes": [], "categories_segments": [], "categories_sizes": [], "default_left": [0, 0, 0, 0, 0, 0, 0, 0, 0, 0, 0, 0, 0, 0, 0, 0, 0, 0, 0, 0, 0, 1, 0, 0, 0, 0, 0, 0, 0, 0, 0, 0, 0, 0, 0, 0, 0, 0, 0, 0, 0], "id": 20, "left_children": [1, -1, 3, 5, 7, 9, 11, 13, 15, 17, 19, -1, -1, 21, 23, -1, 25, -1, -1, 27, 29, 31, 33, 35, 37, -1, 39, -1, -1, -1, -1, -1, -1, -1, -1, -1, -1, -1, -1, -1, -1], "loss_changes": [434728350.0, 0.0, 45057188.0, 44915370.0, 37220310.0, 12956039.0, 12056992.0, 13680758.0, 15771400.0, 80588.5, 9064786.0, 0.0, 0.0, 11206734.0, 12690958.0, 0.0, 6633624.0, 0.0, 0.0, 4373588.0, 2812218.0, 1263975.5, 4518275.0, 4159049.5, 14109188.0, 0.0, 2465428.8, 0.0, 0.0, 0.0, 0.0, 0.0, 0.0, 0.0, 0.0, 0.0, 0.0, 0.0, 0.0, 0.0, 0.0], "parents": [2147483647, 0, 0, 2, 2, 3, 3, 4, 4, 5, 5, 6, 6, 7, 7, 8, 8, 9, 9, 10, 10, 13, 13, 14, 14, 16, 16, 19, 19, 20, 20, 21, 21, 22, 22, 23, 23, 24, 24, 26, 26], "right_children": [2, -1, 4, 6, 8, 10, 12, 14, 16, 18, 20, -1, -1, 22, 24, -1, 26, -1, -1, 28, 30, 32, 34, 36, 38, -1, 40, -1, -1, -1, -1, -1, -1, -1, -1, -1, -1, -1, -1, -1, -1], "split_conditions": [2.00001, 1495.4701, 2.00001, 2.00001, 0.574392, 2.00001, -0.5559825, 2.00001, -0.67387086, 0.45981255, 0.6785992, 104.93864, 478.05746, 2.00001, 2.00001, 345.62766, 2.00001, -117.834984, -42.484375, 2.00001, 0.640507, 0.04051755, 2.00001, 2.00001, 2.00001, 186.12321, 0.23102112, 27.513218, 218.49829, -62.765297, 83.083305, -98.43113, 14.697998, 34.800507, 196.30212, 137.2047, -3.1011016, 183.02275, -94.32394, -52.537792, 58.512844], "split_indices": [7, 0, 46, 103, 5, 66, 3, 80, 1, 3, 3, 0, 0, 42, 81, 0, 116, 0, 0, 30, 0, 1, 31, 41, 55, 0, 1, 0, 0, 0, 0, 0, 0, 0, 0, 0, 0, 0, 0, 0, 0], "split_type": [0, 0, 0, 0, 0, 0, 0, 0, 0, 0, 0, 0, 0, 0, 0, 0, 0, 0, 0, 0, 0, 0, 0, 0, 0, 0, 0, 0, 0, 0, 0, 0, 0, 0, 0, 0, 0, 0, 0, 0, 0], "sum_hessian": [104.0, 1.0, 103.0, 19.0, 84.0, 14.0, 5.0, 74.0, 10.0, 4.0, 10.0, 2.0, 3.0, 11.0, 63.0, 2.0, 8.0, 2.0, 2.0, 6.0, 4.0, 4.0, 7.0, 9.0, 54.0, 2.0, 6.0, 2.0, 4.0, 3.0, 1.0, 3.0, 1.0, 4.0, 3.0, 2.0, 7.0, 1.0, 53.0, 3.0, 3.0], "tree_param": {"num_deleted": "0", "num_feature": "120", "num_nodes": "41", "size_leaf_vector": "1"}}, {"base_weights": [346.64194, 1420.6967, 76.76413, -43.432476, 3092.5374, 1866.529, -205.52034, 359.71887, 78.92915, -1131.6442, 3054.5273, -837.61096, 75.33039, -137.559, -32.187622, 355.20074, 28.356398, 43.198742, -898.3819, -276.98425, 746.0484, -9.744702, -102.78108, 175.92871, -41.583736, 250.46837, 45.92887], "categories": [], "categories_nodes": [], "categories_segments": [], "categories_sizes": [], "default_left": [0, 0, 0, 0, 0, 0, 0, 0, 0, 0, 0, 0, 0, 0, 0, 0, 0, 0, 0, 0, 0, 0, 0, 0, 0, 0, 0], "id": 21, "left_children": [1, -1, 3, 5, 7, 9, 11, -1, -1, 13, 15, 17, 19, -1, -1, -1, -1, -1, 21, 23, 25, -1, -1, -1, -1, -1, -1], "loss_changes": [391671780.0, 0.0, 37832828.0, 31651350.0, 1810116.0, 31951240.0, 16750270.0, 0.0, 0.0, 149848.75, 7263772.0, 2625576.0, 15802693.0, 0.0, 0.0, 0.0, 0.0, 0.0, 2802436.0, 13172250.0, 10448659.0, 0.0, 0.0, 0.0, 0.0, 0.0, 0.0], "parents": [2147483647, 0, 0, 2, 2, 3, 3, 4, 4, 5, 5, 6, 6, 9, 9, 10, 10, 11, 11, 12, 12, 18, 18, 19, 19, 20, 20], "right_children": [2, -1, 4, 6, 8, 10, 12, -1, -1, 14, 16, 18, 20, -1, -1, -1, -1, -1, 22, 24, 26, -1, -1, -1, -1, -1, -1], "split_conditions": [2.00001, 1420.6967, 1.6874998, 2.00001, 6.945525, 2.00001, -0.3880366, 359.71887, 78.92915, -0.24966751, -0.04672618, -1.0786909, 2.00001, -137.559, -32.187622, 355.20074, 28.356398, 43.198742, 2.00001, 2.00001, -0.3741997, -9.744702, -102.78108, 175.92871, -41.583736, 250.46837, 45.92887], "split_indices": [7, 0, 0, 74, 0, 47, 0, 0, 0, 0, 0, 1, 106, 0, 0, 0, 0, 0, 44, 73, 0, 0, 0, 0, 0, 0, 0], "split_type": [0, 0, 0, 0, 0, 0, 0, 0, 0, 0, 0, 0, 0, 0, 0, 0, 0, 0, 0, 0, 0, 0, 0, 0, 0, 0, 0], "sum_hessian": [104.0, 1.0, 103.0, 100.0, 3.0, 7.0, 93.0, 2.0, 1.0, 2.0, 5.0, 28.0, 65.0, 1.0, 1.0, 4.0, 1.0, 1.0, 27.0, 43.0, 22.0, 4.0, 23.0, 2.0, 41.0, 2.0, 20.0], "tree_param": {"num_deleted": "0", "num_feature": "120", "num_nodes": "27", "size_leaf_vector": "1"}}, {"base_weights": [335.16415, 1349.662, 78.8365, -153.15944, 1465.5564, 1102.3243, -398.93704, 3854.3848, 246.49292, -690.8937, 2068.0227, 1471.6752, -469.38162, 444.30673, 74.98272, 1253.7009, -508.1547, -97.0416, -30.852848, 847.1898, 274.07132, 44.367725, 176.38354, 935.61554, -563.03314, 166.31976, 42.630405, -71.953026, 38.004932, 113.808365, 27.389942, 33.216846, 122.71908, 175.95084, -62.219326], "categories": [], "categories_nodes": [], "categories_segments": [], "categories_sizes": [], "default_left": [0, 0, 0, 0, 0, 0, 0, 0, 0, 0, 0, 0, 0, 0, 0, 0, 0, 0, 0, 0, 0, 0, 0, 0, 0, 0, 0, 0, 0, 0, 0, 0, 0, 0, 0], "id": 22, "left_children": [1, -1, 3, 5, 7, 9, 11, 13, 15, 17, 19, 21, 23, -1, -1, 25, 27, -1, -1, 29, -1, -1, -1, 31, 33, -1, -1, -1, -1, -1, -1, -1, -1, -1, -1], "loss_changes": [353168670.0, 0.0, 33682656.0, 28211040.0, 42731920.0, 27404398.0, 10705640.0, 5806464.0, 8998033.0, 341876.75, 5890524.0, 118446.5, 10263708.0, 0.0, 0.0, 985053.5, 1587669.5, 0.0, 0.0, 522112.75, 0.0, 0.0, 0.0, 472117.0, 10712888.0, 0.0, 0.0, 0.0, 0.0, 0.0, 0.0, 0.0, 0.0, 0.0, 0.0], "parents": [2147483647, 0, 0, 2, 2, 3, 3, 4, 4, 5, 5, 6, 6, 7, 7, 8, 8, 9, 9, 10, 10, 11, 11, 12, 12, 15, 15, 16, 16, 19, 19, 23, 23, 24, 24], "right_children": [2, -1, 4, 6, 8, 10, 12, 14, 16, 18, 20, 22, 24, -1, -1, 26, 28, -1, -1, 30, -1, -1, -1, 32, 34, -1, -1, -1, -1, -1, -1, -1, -1, -1, -1], "split_conditions": [2.00001, 1349.662, 0.70346045, 2.00001, -0.67387086, 2.00001, 2.00001, 6.945525, 1.0413791, 0.6942268, 2.00001, -0.35113817, 2.00001, 444.30673, 74.98272, 0.20720817, 0.23102112, -97.0416, -30.852848, -0.53099316, 274.07132, 44.367725, 176.38354, -0.6928482, 2.00001, 166.31976, 42.630405, -71.953026, 38.004932, 113.808365, 27.389942, 33.216846, 122.71908, 175.95084, -62.219326], "split_indices": [7, 0, 5, 46, 1, 27, 54, 0, 5, 3, 40, 0, 58, 0, 0, 1, 1, 0, 0, 1, 0, 0, 0, 4, 55, 0, 0, 0, 0, 0, 0, 0, 0, 0, 0], "split_type": [0, 0, 0, 0, 0, 0, 0, 0, 0, 0, 0, 0, 0, 0, 0, 0, 0, 0, 0, 0, 0, 0, 0, 0, 0, 0, 0, 0, 0, 0, 0, 0, 0, 0, 0], "sum_hessian": [104.0, 1.0, 103.0, 89.0, 14.0, 14.0, 75.0, 4.0, 10.0, 5.0, 9.0, 2.0, 73.0, 3.0, 1.0, 4.0, 6.0, 2.0, 3.0, 4.0, 5.0, 1.0, 1.0, 4.0, 69.0, 2.0, 2.0, 5.0, 1.0, 2.0, 2.0, 2.0, 2.0, 1.0, 68.0], "tree_param": {"num_deleted": "0", "num_feature": "120", "num_nodes": "35", "size_leaf_vector": "1"}}, {"base_weights": [328.5215, 1282.179, 85.107506, -129.20139, 1365.287, 1011.25024, -352.59048, 3572.8042, 237.75299, -643.12006, 1902.7474, 477.3941, -500.39395, 410.98373, 71.2336, 1170.121, -462.18887, -90.57217, -28.538885, 790.7105, 251.23204, -596.3434, 1088.8058, 167.15327, -560.448, 155.2318, 39.788364, -65.95693, 36.104687, 106.22113, 25.563957, -81.733635, 14.381421, 34.688457, 174.40059, 41.051468, -72.67967], "categories": [], "categories_nodes": [], "categories_segments": [], "categories_sizes": [], "default_left": [0, 0, 0, 0, 0, 0, 0, 0, 0, 0, 0, 0, 0, 0, 0, 0, 0, 0, 0, 0, 0, 1, 0, 0, 0, 0, 0, 0, 0, 0, 0, 0, 0, 0, 0, 0, 0], "id": 23, "left_children": [1, -1, 3, 5, 7, 9, 11, 13, 15, 17, 19, 21, 23, -1, -1, 25, 27, -1, -1, 29, -1, 31, 33, -1, 35, -1, -1, -1, -1, -1, -1, -1, -1, -1, -1, -1, -1], "loss_changes": [318217600.0, 0.0, 28709196.0, 23285360.0, 36486316.0, 23346690.0, 9562154.0, 4753252.0, 7719454.5, 305161.75, 4792160.0, 8527249.0, 9414951.0, 0.0, 0.0, 858092.0, 1375569.9, 0.0, 0.0, 454817.5, 0.0, 935392.5, 3283887.0, 0.0, 10635538.0, 0.0, 0.0, 0.0, 0.0, 0.0, 0.0, 0.0, 0.0, 0.0, 0.0, 0.0, 0.0], "parents": [2147483647, 0, 0, 2, 2, 3, 3, 4, 4, 5, 5, 6, 6, 7, 7, 8, 8, 9, 9, 10, 10, 11, 11, 12, 12, 15, 15, 16, 16, 19, 19, 21, 21, 22, 22, 24, 24], "right_children": [2, -1, 4, 6, 8, 10, 12, 14, 16, 18, 20, 22, 24, -1, -1, 26, 28, -1, -1, 30, -1, 32, 34, -1, 36, -1, -1, -1, -1, -1, -1, -1, -1, -1, -1, -1, -1], "split_conditions": [2.00001, 1282.179, 0.70346045, 2.00001, -0.67387086, 2.00001, 2.00001, 6.945525, 1.0413791, 0.6942268, 2.00001, 2.00001, 2.00001, 410.98373, 71.2336, 0.20720817, 0.23102112, -90.57217, -28.538885, -0.53099316, 251.23204, 0.04051755, 2.00001, 167.15327, 2.00001, 155.2318, 39.788364, -65.95693, 36.104687, 106.22113, 25.563957, -81.733635, 14.381421, 34.688457, 174.40059, 41.051468, -72.67967], "split_indices": [7, 0, 5, 46, 1, 27, 80, 0, 5, 3, 40, 42, 55, 0, 0, 1, 1, 0, 0, 1, 0, 1, 31, 0, 81, 0, 0, 0, 0, 0, 0, 0, 0, 0, 0, 0, 0], "split_type": [0, 0, 0, 0, 0, 0, 0, 0, 0, 0, 0, 0, 0, 0, 0, 0, 0, 0, 0, 0, 0, 0, 0, 0, 0, 0, 0, 0, 0, 0, 0, 0, 0, 0, 0, 0, 0], "sum_hessian": [104.0, 1.0, 103.0, 89.0, 14.0, 14.0, 75.0, 4.0, 10.0, 5.0, 9.0, 11.0, 64.0, 3.0, 1.0, 4.0, 6.0, 2.0, 3.0, 4.0, 5.0, 4.0, 7.0, 1.0, 63.0, 2.0, 2.0, 5.0, 1.0, 2.0, 2.0, 3.0, 1.0, 4.0, 3.0, 9.0, 54.0], "tree_param": {"num_deleted": "0", "num_feature": "120", "num_nodes": "37", "size_leaf_vector": "1"}}, {"base_weights": [319.20016, 1218.07, 88.02518, -110.268234, 1271.9172, 927.71906, -313.68326, 3311.967, 228.9931, -598.6599, 1750.7745, 1328.3949, -376.015, 427.5664, 124.42809, 1092.113, -420.23447, -84.53402, -26.398472, 737.9967, 230.29602, 40.414894, 158.84435, 158.79561, -424.67157, 144.88304, 37.135807, -60.46051, 34.299465, 99.13975, 23.859709, 84.18105, -51.029095], "categories": [], "categories_nodes": [], "categories_segments": [], "categories_sizes": [], "default_left": [0, 0, 0, 0, 0, 0, 0, 0, 0, 0, 0, 0, 0, 0, 0, 0, 0, 0, 0, 0, 0, 0, 0, 0, 0, 0, 0, 0, 0, 0, 0, 0, 0], "id": 24, "left_children": [1, -1, 3, 5, 7, 9, 11, 13, 15, 17, 19, 21, 23, -1, -1, 25, 27, -1, -1, 29, -1, -1, -1, -1, 31, -1, -1, -1, -1, -1, -1, -1, -1], "loss_changes": [286846400.0, 0.0, 24555084.0, 19293808.0, 31155838.0, 19892538.0, 8278372.0, 4642988.0, 6622918.0, 272189.75, 3892836.0, 79078.5, 7745802.0, 0.0, 0.0, 747494.0, 1192395.4, 0.0, 0.0, 396196.75, 0.0, 0.0, 0.0, 0.0, 8345355.0, 0.0, 0.0, 0.0, 0.0, 0.0, 0.0, 0.0, 0.0], "parents": [2147483647, 0, 0, 2, 2, 3, 3, 4, 4, 5, 5, 6, 6, 7, 7, 8, 8, 9, 9, 10, 10, 11, 11, 12, 12, 15, 15, 16, 16, 19, 19, 24, 24], "right_children": [2, -1, 4, 6, 8, 10, 12, 14, 16, 18, 20, 22, 24, -1, -1, 26, 28, -1, -1, 30, -1, -1, -1, -1, 32, -1, -1, -1, -1, -1, -1, -1, -1], "split_conditions": [2.00001, 1218.07, 0.70346045, 2.00001, -0.67387086, 2.00001, 2.00001, 1.8260376, 1.0413791, 0.6942268, 2.00001, -0.35113817, 2.00001, 427.5664, 124.42809, 0.20720817, 0.23102112, -84.53402, -26.398472, -0.53099316, 230.29602, 40.414894, 158.84435, 158.79561, 2.00001, 144.88304, 37.135807, -60.46051, 34.299465, 99.13975, 23.859709, 84.18105, -51.029095], "split_indices": [7, 0, 5, 46, 1, 27, 54, 2, 5, 3, 40, 0, 55, 0, 0, 1, 1, 0, 0, 1, 0, 0, 0, 0, 58, 0, 0, 0, 0, 0, 0, 0, 0], "split_type": [0, 0, 0, 0, 0, 0, 0, 0, 0, 0, 0, 0, 0, 0, 0, 0, 0, 0, 0, 0, 0, 0, 0, 0, 0, 0, 0, 0, 0, 0, 0, 0, 0], "sum_hessian": [104.0, 1.0, 103.0, 89.0, 14.0, 14.0, 75.0, 4.0, 10.0, 5.0, 9.0, 2.0, 73.0, 2.0, 2.0, 4.0, 6.0, 2.0, 3.0, 4.0, 5.0, 1.0, 1.0, 1.0, 72.0, 2.0, 2.0, 5.0, 1.0, 2.0, 2.0, 4.0, 68.0], "tree_param": {"num_deleted": "0", "num_feature": "120", "num_nodes": "33", "size_leaf_vector": "1"}}, {"base_weights": [311.65625, 1157.1664, 92.12096, -92.20174, 1191.9158, 851.1046, -277.16745, 3091.1694, 220.26268, -557.28265, 1611.0266, 1261.975, -335.8196, 399.06198, 116.13291, 1019.30566, -381.94843, -78.89842, -24.418589, 688.79706, 211.10466, 38.394142, 150.9021, 521.1709, -447.59378, 135.22418, 34.66009, -55.42214, 32.584473, 92.53044, 22.269075, -72.4848, 126.49884, 121.60195, -51.858196], "categories": [], "categories_nodes": [], "categories_segments": [], "categories_sizes": [], "default_left": [0, 0, 0, 0, 0, 0, 0, 0, 0, 0, 0, 0, 0, 0, 0, 0, 0, 0, 0, 0, 0, 0, 0, 0, 0, 0, 0, 0, 0, 0, 0, 0, 0, 0, 0], "id": 25, "left_children": [1, -1, 3, 5, 7, 9, 11, 13, 15, 17, 19, 21, 23, -1, -1, 25, 27, -1, -1, 29, -1, -1, -1, 31, 33, -1, -1, -1, -1, -1, -1, -1, -1, -1, -1], "loss_changes": [258490770.0, 0.0, 21192480.0, 15939038.0, 27000364.0, 16951764.0, 7284621.5, 4044556.0, 5682440.0, 242611.12, 3157250.0, 71368.0, 7321688.0, 0.0, 0.0, 651150.5, 1034125.6, 0.0, 0.0, 345131.0, 0.0, 0.0, 0.0, 9258220.0, 8425004.0, 0.0, 0.0, 0.0, 0.0, 0.0, 0.0, 0.0, 0.0, 0.0, 0.0], "parents": [2147483647, 0, 0, 2, 2, 3, 3, 4, 4, 5, 5, 6, 6, 7, 7, 8, 8, 9, 9, 10, 10, 11, 11, 12, 12, 15, 15, 16, 16, 19, 19, 23, 23, 24, 24], "right_children": [2, -1, 4, 6, 8, 10, 12, 14, 16, 18, 20, 22, 24, -1, -1, 26, 28, -1, -1, 30, -1, -1, -1, 32, 34, -1, -1, -1, -1, -1, -1, -1, -1, -1, -1], "split_conditions": [2.00001, 1157.1664, 0.70346045, 2.00001, -0.67387086, 2.00001, 2.00001, 1.8260376, 1.0413791, 0.6942268, 2.00001, -0.35113817, 2.00001, 399.06198, 116.13291, 0.20720817, 0.23102112, -78.89842, -24.418589, -0.53099316, 211.10466, 38.394142, 150.9021, 2.00001, 2.00001, 135.22418, 34.66009, -55.42214, 32.584473, 92.53044, 22.269075, -72.4848, 126.49884, 121.60195, -51.858196], "split_indices": [7, 0, 5, 46, 1, 27, 54, 2, 5, 3, 40, 0, 37, 0, 0, 1, 1, 0, 0, 1, 0, 0, 0, 47, 82, 0, 0, 0, 0, 0, 0, 0, 0, 0, 0], "split_type": [0, 0, 0, 0, 0, 0, 0, 0, 0, 0, 0, 0, 0, 0, 0, 0, 0, 0, 0, 0, 0, 0, 0, 0, 0, 0, 0, 0, 0, 0, 0, 0, 0, 0, 0], "sum_hessian": [104.0, 1.0, 103.0, 89.0, 14.0, 14.0, 75.0, 4.0, 10.0, 5.0, 9.0, 2.0, 73.0, 2.0, 2.0, 4.0, 6.0, 2.0, 3.0, 4.0, 5.0, 1.0, 1.0, 8.0, 65.0, 2.0, 2.0, 5.0, 1.0, 2.0, 2.0, 3.0, 5.0, 2.0, 63.0], "tree_param": {"num_deleted": "0", "num_feature": "120", "num_nodes": "35", "size_leaf_vector": "1"}}, {"base_weights": [302.91968, 1099.3082, 94.42694, -77.03001, 1116.8735, 774.67035, -257.699, 2885.0913, 211.6042, -183.08412, 1226.6573, 160.30138, -330.63654, 372.45782, 108.390724, 951.35175, -347.01608, -67.88708, 538.9927, 333.5582, 1689.3485, 519.63293, -489.87198, 126.20922, 32.349415, -508.03616, 30.955225, 12.046216, 68.80269, 40.816227, 14.776807, 11.304053, 193.32265, -26.411726, 81.022934, 88.21342, -59.970226, -30.963224, -75.0028], "categories": [], "categories_nodes": [], "categories_segments": [], "categories_sizes": [], "default_left": [0, 0, 0, 0, 0, 0, 0, 0, 0, 1, 0, 0, 0, 0, 0, 0, 0, 0, 0, 0, 0, 0, 0, 0, 0, 0, 0, 0, 0, 0, 0, 0, 0, 0, 0, 0, 0, 0, 0], "id": 26, "left_children": [1, -1, 3, 5, 7, 9, 11, 13, 15, 17, 19, -1, 21, -1, -1, 23, 25, -1, 27, 29, 31, 33, 35, -1, -1, 37, -1, -1, -1, -1, -1, -1, -1, -1, -1, -1, -1, -1, -1], "loss_changes": [232988200.0, 0.0, 18317812.0, 14048460.0, 23400200.0, 7150861.0, 10708697.0, 3523252.0, 4875752.5, 2513882.2, 3982027.0, 0.0, 10138244.0, 0.0, 0.0, 567224.0, 897308.6, 0.0, 104244.875, 8990.1875, 2472452.0, 2947055.2, 9871666.0, 0.0, 0.0, 55840.0, 0.0, 0.0, 0.0, 0.0, 0.0, 0.0, 0.0, 0.0, 0.0, 0.0, 0.0, 0.0, 0.0], "parents": [2147483647, 0, 0, 2, 2, 3, 3, 4, 4, 5, 5, 6, 6, 7, 7, 8, 8, 9, 9, 10, 10, 12, 12, 15, 15, 16, 16, 18, 18, 19, 19, 20, 20, 21, 21, 22, 22, 25, 25], "right_children": [2, -1, 4, 6, 8, 10, 12, 14, 16, 18, 20, -1, 22, -1, -1, 24, 26, -1, 28, 30, 32, 34, 36, -1, -1, 38, -1, -1, -1, -1, -1, -1, -1, -1, -1, -1, -1, -1, -1], "split_conditions": [2.00001, 1099.3082, 0.70346045, 2.00001, -0.67387086, 2.00001, 2.00001, 1.8260376, 1.0413791, 0.04051755, 2.00001, 160.30138, 2.00001, 372.45782, 108.390724, 0.20720817, 0.23102112, -67.88708, -0.3760446, -0.2312183, 2.00001, 2.00001, 2.00001, 126.20922, 32.349415, 0.7314675, 30.955225, 12.046216, 68.80269, 40.816227, 14.776807, 11.304053, 193.32265, -26.411726, 81.022934, 88.21342, -59.970226, -30.963224, -75.0028], "split_indices": [7, 0, 5, 80, 1, 27, 55, 2, 5, 1, 31, 0, 81, 0, 0, 1, 1, 0, 0, 0, 13, 40, 74, 0, 0, 2, 0, 0, 0, 0, 0, 0, 0, 0, 0, 0, 0, 0, 0], "split_type": [0, 0, 0, 0, 0, 0, 0, 0, 0, 0, 0, 0, 0, 0, 0, 0, 0, 0, 0, 0, 0, 0, 0, 0, 0, 0, 0, 0, 0, 0, 0, 0, 0, 0, 0, 0, 0, 0, 0], "sum_hessian": [104.0, 1.0, 103.0, 89.0, 14.0, 15.0, 74.0, 4.0, 10.0, 5.0, 10.0, 2.0, 72.0, 2.0, 2.0, 4.0, 6.0, 3.0, 2.0, 4.0, 6.0, 11.0, 61.0, 2.0, 2.0, 5.0, 1.0, 1.0, 1.0, 2.0, 2.0, 1.0, 5.0, 3.0, 8.0, 4.0, 57.0, 4.0, 1.0], "tree_param": {"num_deleted": "0", "num_feature": "120", "num_nodes": "39", "size_leaf_vector": "1"}}, {"base_weights": [293.39005, 1044.343, 95.37593, -59.285645, 1093.8636, -186.25717, 716.871, 2408.956, 95.59493, 705.53906, -282.75873, 194.51933, 153.85495, 282.0306, 17.610352, -61.56687, 553.8382, -240.65482, 171.18967, 917.33624, -366.8428, 489.24478, -79.18029, -37.3654, 858.7814, 33.591946, -73.70108, 143.54366, 9.345719, -1.8325776, -73.592674, 6.718657, 89.45064, 11.970069, -17.574879, 104.500725, 15.0052], "categories": [], "categories_nodes": [], "categories_segments": [], "categories_sizes": [], "default_left": [0, 0, 0, 0, 0, 0, 0, 0, 0, 0, 0, 0, 0, 0, 0, 0, 0, 0, 0, 0, 0, 0, 0, 0, 0, 0, 0, 0, 0, 0, 0, 0, 0, 0, 0, 0, 0], "id": 27, "left_children": [1, -1, 3, 5, 7, 9, 11, 13, 15, 17, 19, -1, 21, -1, -1, -1, 23, 25, -1, 27, 29, 31, -1, 33, 35, -1, -1, -1, -1, -1, -1, -1, -1, -1, -1, -1, -1], "loss_changes": [210038340.0, 0.0, 16125329.0, 9101553.0, 18149132.0, 6998216.0, 8691070.0, 5014236.0, 3274367.0, 8029651.0, 7601956.0, 0.0, 3559025.8, 0.0, 0.0, 0.0, 1113789.6, 1678506.5, 0.0, 2000107.5, 8733493.0, 1308253.1, 0.0, 86243.26, 371129.5, 0.0, 0.0, 0.0, 0.0, 0.0, 0.0, 0.0, 0.0, 0.0, 0.0, 0.0, 0.0], "parents": [2147483647, 0, 0, 2, 2, 3, 3, 4, 4, 5, 5, 6, 6, 7, 7, 8, 8, 9, 9, 10, 10, 12, 12, 16, 16, 17, 17, 19, 19, 20, 20, 21, 21, 23, 23, 24, 24], "right_children": [2, -1, 4, 6, 8, 10, 12, 14, 16, 18, 20, -1, 22, -1, -1, -1, 24, 26, -1, 28, 30, 32, -1, 34, 36, -1, -1, -1, -1, -1, -1, -1, -1, -1, -1, -1, -1], "split_conditions": [2.00001, 1044.343, 2.00001, 0.3167233, 2.00001, 2.00001, 2.00001, -0.2452378, -0.49227464, -0.6611093, 2.00001, 194.51933, 2.3733227, 282.0306, 17.610352, -61.56687, 2.00001, 2.00001, 171.18967, 2.00001, -0.33872625, 2.00001, -79.18029, -0.16664605, 0.3167233, 33.591946, -73.70108, 143.54366, 9.345719, -1.8325776, -73.592674, 6.718657, 89.45064, 11.970069, -17.574879, 104.500725, 15.0052], "split_indices": [7, 0, 103, 0, 46, 37, 115, 1, 0, 4, 82, 0, 2, 0, 0, 0, 80, 80, 0, 116, 5, 16, 0, 0, 0, 0, 0, 0, 0, 0, 0, 0, 0, 0, 0, 0, 0], "split_type": [0, 0, 0, 0, 0, 0, 0, 0, 0, 0, 0, 0, 0, 0, 0, 0, 0, 0, 0, 0, 0, 0, 0, 0, 0, 0, 0, 0, 0, 0, 0, 0, 0, 0, 0, 0, 0], "sum_hessian": [104.0, 1.0, 103.0, 90.0, 13.0, 78.0, 12.0, 5.0, 8.0, 7.0, 71.0, 3.0, 9.0, 4.0, 1.0, 3.0, 5.0, 4.0, 3.0, 4.0, 67.0, 7.0, 2.0, 2.0, 3.0, 2.0, 2.0, 2.0, 2.0, 35.0, 32.0, 4.0, 3.0, 1.0, 1.0, 2.0, 1.0], "tree_param": {"num_deleted": "0", "num_feature": "120", "num_nodes": "37", "size_leaf_vector": "1"}}, {"base_weights": [281.34982, 992.1258, 93.2617, -57.09409, 989.179, 683.10364, -214.24168, 2558.6519, 185.85683, -137.16823, 1068.4243, 135.42877, -275.76697, 331.7423, 94.69968, 831.08905, -301.5743, -59.070095, 513.26483, 31.729364, 1452.3142, 455.88837, -412.92984, 110.02881, 28.486036, -448.74182, 29.071533, 11.535522, 65.4542, 14.418506, 164.63048, -24.293415, 71.58219, 77.25246, -50.800472, -26.931559, -67.293655], "categories": [], "categories_nodes": [], "categories_segments": [], "categories_sizes": [], "default_left": [0, 0, 0, 0, 0, 0, 0, 0, 0, 1, 0, 0, 0, 0, 0, 0, 0, 0, 0, 0, 0, 0, 0, 0, 0, 0, 0, 0, 0, 0, 0, 0, 0, 0, 0, 0, 0], "id": 28, "left_children": [1, -1, 3, 5, 7, 9, 11, 13, 15, 17, 19, -1, 21, -1, -1, 23, 25, -1, 27, -1, 29, 31, 33, -1, -1, 35, -1, -1, -1, -1, -1, -1, -1, -1, -1, -1, -1], "loss_changes": [189455710.0, 0.0, 14065937.0, 10615175.0, 18436342.0, 5203638.0, 7611286.0, 2972802.0, 3710204.5, 2073142.0, 2711055.0, 0.0, 7514234.0, 0.0, 0.0, 421792.75, 740616.75, 0.0, 93141.81, 0.0, 1538981.0, 2353666.5, 7380275.0, 0.0, 0.0, 60126.125, 0.0, 0.0, 0.0, 0.0, 0.0, 0.0, 0.0, 0.0, 0.0, 0.0, 0.0], "parents": [2147483647, 0, 0, 2, 2, 3, 3, 4, 4, 5, 5, 6, 6, 7, 7, 8, 8, 9, 9, 10, 10, 12, 12, 15, 15, 16, 16, 18, 18, 20, 20, 21, 21, 22, 22, 25, 25], "right_children": [2, -1, 4, 6, 8, 10, 12, 14, 16, 18, 20, -1, 22, -1, -1, 24, 26, -1, 28, -1, 30, 32, 34, -1, -1, 36, -1, -1, -1, -1, -1, -1, -1, -1, -1, -1, -1], "split_conditions": [2.00001, 992.1258, 0.70346045, 2.00001, -0.67387086, 2.00001, 2.00001, 1.8260376, 1.0413791, 0.04051755, 2.00001, 135.42877, 2.00001, 331.7423, 94.69968, 0.20720817, 0.23102112, -59.070095, -0.3760446, 31.729364, 2.00001, 2.00001, 2.00001, 110.02881, 28.486036, 0.7314675, 29.071533, 11.535522, 65.4542, 14.418506, 164.63048, -24.293415, 71.58219, 77.25246, -50.800472, -26.931559, -67.293655], "split_indices": [7, 0, 5, 80, 1, 27, 55, 2, 5, 1, 31, 0, 81, 0, 0, 1, 1, 0, 0, 0, 13, 40, 74, 0, 0, 2, 0, 0, 0, 0, 0, 0, 0, 0, 0, 0, 0], "split_type": [0, 0, 0, 0, 0, 0, 0, 0, 0, 0, 0, 0, 0, 0, 0, 0, 0, 0, 0, 0, 0, 0, 0, 0, 0, 0, 0, 0, 0, 0, 0, 0, 0, 0, 0, 0, 0], "sum_hessian": [104.0, 1.0, 103.0, 89.0, 14.0, 15.0, 74.0, 4.0, 10.0, 5.0, 10.0, 2.0, 72.0, 2.0, 2.0, 4.0, 6.0, 3.0, 2.0, 4.0, 6.0, 11.0, 61.0, 2.0, 2.0, 5.0, 1.0, 1.0, 1.0, 1.0, 5.0, 3.0, 8.0, 4.0, 57.0, 4.0, 1.0], "tree_param": {"num_deleted": "0", "num_feature": "120", "num_nodes": "37", "size_leaf_vector": "1"}}, {"base_weights": [271.59387, 942.51953, 92.9516, -46.519497, 923.5814, 660.1233, -185.37636, 2388.0754, 173.94038, -423.92056, 1244.5372, -110.93834, -103.533035, 278.00098, 41.016895, 775.6831, -280.72446, -63.553387, -15.923044, 488.19574, 166.7399, 99.114746, -157.24731, 102.69356, 26.586964, -419.57178, 27.61797, 19.838575, 61.527386, -27.103617, 35.3769, -24.777027, -63.928967], "categories": [], "categories_nodes": [], "categories_segments": [], "categories_sizes": [], "default_left": [0, 0, 0, 0, 0, 0, 0, 0, 0, 0, 0, 0, 0, 0, 0, 0, 0, 0, 0, 0, 0, 0, 0, 0, 0, 0, 0, 0, 0, 0, 0, 0, 0], "id": 29, "left_children": [1, -1, 3, 5, 7, 9, 11, 13, 15, 17, 19, 21, -1, -1, -1, 23, 25, -1, -1, 27, -1, -1, 29, -1, -1, 31, -1, -1, -1, -1, -1, -1, -1], "loss_changes": [170822030.0, 0.0, 12091245.0, 8953369.0, 16052291.0, 10030541.0, 4693578.0, 2735774.0, 3227257.2, 234875.38, 2384260.0, 3779444.2, 0.0, 0.0, 0.0, 367428.5, 657149.6, 0.0, 0.0, 62081.0, 0.0, 0.0, 4108093.0, 0.0, 0.0, 68090.25, 0.0, 0.0, 0.0, 0.0, 0.0, 0.0, 0.0], "parents": [2147483647, 0, 0, 2, 2, 3, 3, 4, 4, 5, 5, 6, 6, 7, 7, 8, 8, 9, 9, 10, 10, 11, 11, 15, 15, 16, 16, 19, 19, 22, 22, 25, 25], "right_children": [2, -1, 4, 6, 8, 10, 12, 14, 16, 18, 20, 22, -1, -1, -1, 24, 26, -1, -1, 28, -1, -1, 30, -1, -1, 32, -1, -1, -1, -1, -1, -1, -1], "split_conditions": [2.00001, 942.51953, 0.70346045, 2.00001, -0.67387086, 2.00001, 2.00001, 6.945525, 1.0413791, 0.6942268, 2.00001, 2.00001, -103.533035, 278.00098, 41.016895, 0.20720817, 0.23102112, -63.553387, -15.923044, 2.00001, 166.7399, 99.114746, 2.00001, 102.69356, 26.586964, 0.7314675, 27.61797, 19.838575, 61.527386, -27.103617, 35.3769, -24.777027, -63.928967], "split_indices": [7, 0, 5, 46, 1, 27, 111, 0, 5, 3, 40, 54, 0, 0, 0, 1, 1, 0, 0, 42, 0, 0, 109, 0, 0, 2, 0, 0, 0, 0, 0, 0, 0], "split_type": [0, 0, 0, 0, 0, 0, 0, 0, 0, 0, 0, 0, 0, 0, 0, 0, 0, 0, 0, 0, 0, 0, 0, 0, 0, 0, 0, 0, 0, 0, 0, 0, 0], "sum_hessian": [104.0, 1.0, 103.0, 89.0, 14.0, 14.0, 75.0, 4.0, 10.0, 5.0, 9.0, 70.0, 5.0, 3.0, 1.0, 4.0, 6.0, 2.0, 3.0, 4.0, 5.0, 2.0, 68.0, 2.0, 2.0, 5.0, 1.0, 2.0, 2.0, 56.0, 12.0, 4.0, 1.0], "tree_param": {"num_deleted": "0", "num_feature": "120", "num_nodes": "33", "size_leaf_vector": "1"}}, {"base_weights": [258.7413, 895.39374, 89.038086, -35.485966, 892.08453, -136.12029, 578.7908, 274.15808, 355.37012, 637.47687, -220.18497, 155.19463, 131.64946, -51.106552, 700.96704, -217.88528, 154.73103, 808.4005, -292.57825, 410.99582, -65.71573, 901.6278, -0.89697266, -85.880905, 15.704791, -11.578101, 106.83911, 0.943556, -61.318184, 4.9765334, 75.9785, 19.526922, 114.51174, -14.110718, 13.976172], "categories": [], "categories_nodes": [], "categories_segments": [], "categories_sizes": [], "default_left": [0, 0, 0, 0, 0, 0, 0, 0, 0, 0, 0, 0, 0, 0, 0, 0, 0, 0, 0, 0, 0, 0, 0, 0, 0, 0, 0, 0, 0, 0, 0, 0, 0, 0, 0], "id": 30, "left_children": [1, -1, 3, 5, 7, 9, 11, -1, 13, 15, 17, -1, 19, -1, 21, 23, -1, 25, 27, 29, -1, 31, 33, -1, -1, -1, -1, -1, -1, -1, -1, -1, -1, -1, -1], "loss_changes": [154141060.0, 0.0, 10431511.0, 5704161.5, 12922842.0, 5277906.0, 5452481.5, 0.0, 3951490.5, 6563033.0, 5597832.0, 0.0, 2473591.8, 0.0, 1268337.5, 1336392.0, 0.0, 1325092.2, 6590001.5, 970135.25, 0.0, 980330.5, 78886.734, 0.0, 0.0, 0.0, 0.0, 0.0, 0.0, 0.0, 0.0, 0.0, 0.0, 0.0, 0.0], "parents": [2147483647, 0, 0, 2, 2, 3, 3, 4, 4, 5, 5, 6, 6, 8, 8, 9, 9, 10, 10, 12, 12, 14, 14, 15, 15, 17, 17, 18, 18, 19, 19, 21, 21, 22, 22], "right_children": [2, -1, 4, 6, 8, 10, 12, -1, 14, 16, 18, -1, 20, -1, 22, 24, -1, 26, 28, 30, -1, 32, 34, -1, -1, -1, -1, -1, -1, -1, -1, -1, -1, -1, -1], "split_conditions": [2.00001, 895.39374, 2.00001, 0.3167233, 2.00001, 2.00001, 2.00001, 274.15808, -0.49227464, -0.6611093, 2.00001, 155.19463, 2.3733227, -51.106552, 0.8955213, 0.731093, 154.73103, -0.3881155, -0.33872625, 2.00001, -65.71573, 2.00001, 0.159905, -85.880905, 15.704791, -11.578101, 106.83911, 0.943556, -61.318184, 4.9765334, 75.9785, 19.526922, 114.51174, -14.110718, 13.976172], "split_indices": [7, 0, 103, 0, 16, 37, 115, 0, 0, 4, 82, 0, 2, 0, 5, 1, 0, 1, 5, 16, 0, 14, 0, 0, 0, 0, 0, 0, 0, 0, 0, 0, 0, 0, 0], "split_type": [0, 0, 0, 0, 0, 0, 0, 0, 0, 0, 0, 0, 0, 0, 0, 0, 0, 0, 0, 0, 0, 0, 0, 0, 0, 0, 0, 0, 0, 0, 0, 0, 0, 0, 0], "sum_hessian": [104.0, 1.0, 103.0, 90.0, 13.0, 78.0, 12.0, 2.0, 11.0, 7.0, 71.0, 3.0, 9.0, 3.0, 8.0, 4.0, 3.0, 4.0, 67.0, 7.0, 2.0, 6.0, 2.0, 1.0, 3.0, 1.0, 3.0, 35.0, 32.0, 4.0, 3.0, 2.0, 4.0, 1.0, 1.0], "tree_param": {"num_deleted": "0", "num_feature": "120", "num_nodes": "35", "size_leaf_vector": "1"}}, {"base_weights": [247.55508, 850.6242, 86.35384, -35.20702, 809.9621, 579.5933, -165.895, 2089.1025, 154.90172, -88.32432, 891.22174, 115.7917, -218.0257, 276.78094, 71.40283, 681.4713, -243.34822, -49.564762, 484.21484, 28.088194, 1199.8613, -1044.3835, -128.43568, 89.75342, 23.82513, -370.5337, 25.988234, 12.266748, 60.36548, 15.021192, 134.97676, -5.789795, -119.91482, 141.51605, -22.290365, -21.485352, -57.446728], "categories": [], "categories_nodes": [], "categories_segments": [], "categories_sizes": [], "default_left": [0, 0, 0, 0, 0, 0, 0, 0, 0, 1, 0, 0, 0, 0, 0, 0, 0, 0, 0, 0, 0, 0, 0, 0, 0, 0, 0, 0, 0, 0, 0, 0, 0, 0, 0, 0, 0], "id": 31, "left_children": [1, -1, 3, 5, 7, 9, 11, 13, 15, 17, 19, -1, 21, -1, -1, 23, 25, -1, 27, -1, 29, 31, 33, -1, -1, 35, -1, -1, -1, -1, -1, -1, -1, -1, -1, -1, -1], "loss_changes": [139053070.0, 0.0, 9176610.0, 7327383.0, 12245109.0, 3408990.5, 5428298.5, 2690066.0, 2472604.0, 1639251.1, 1735106.0, 0.0, 5270303.0, 0.0, 0.0, 264978.25, 544320.5, 0.0, 55500.75, 0.0, 898691.0, 999283.5, 10085409.0, 0.0, 0.0, 67064.19, 0.0, 0.0, 0.0, 0.0, 0.0, 0.0, 0.0, 0.0, 0.0, 0.0, 0.0], "parents": [2147483647, 0, 0, 2, 2, 3, 3, 4, 4, 5, 5, 6, 6, 7, 7, 8, 8, 9, 9, 10, 10, 12, 12, 15, 15, 16, 16, 18, 18, 20, 20, 21, 21, 22, 22, 25, 25], "right_children": [2, -1, 4, 6, 8, 10, 12, 14, 16, 18, 20, -1, 22, -1, -1, 24, 26, -1, 28, -1, 30, 32, 34, -1, -1, 36, -1, -1, -1, -1, -1, -1, -1, -1, -1, -1, -1], "split_conditions": [2.00001, 850.6242, 0.70346045, 2.00001, -0.67387086, 2.00001, 2.00001, 1.8260376, 1.0413791, 0.04051755, 2.00001, 115.7917, 2.00001, 276.78094, 71.40283, 0.20720817, 0.23102112, -49.564762, -0.3760446, 28.088194, -0.67387086, 2.00001, 2.00001, 89.75342, 23.82513, 0.7314675, 25.988234, 12.266748, 60.36548, 15.021192, 134.97676, -5.789795, -119.91482, 141.51605, -22.290365, -21.485352, -57.446728], "split_indices": [7, 0, 5, 80, 1, 27, 55, 2, 5, 1, 31, 0, 35, 0, 0, 1, 1, 0, 0, 0, 1, 14, 74, 0, 0, 2, 0, 0, 0, 0, 0, 0, 0, 0, 0, 0, 0], "split_type": [0, 0, 0, 0, 0, 0, 0, 0, 0, 0, 0, 0, 0, 0, 0, 0, 0, 0, 0, 0, 0, 0, 0, 0, 0, 0, 0, 0, 0, 0, 0, 0, 0, 0, 0, 0, 0], "sum_hessian": [104.0, 1.0, 103.0, 89.0, 14.0, 15.0, 74.0, 4.0, 10.0, 5.0, 10.0, 2.0, 72.0, 2.0, 2.0, 4.0, 6.0, 3.0, 2.0, 4.0, 6.0, 6.0, 66.0, 2.0, 2.0, 5.0, 1.0, 1.0, 1.0, 1.0, 5.0, 1.0, 5.0, 3.0, 63.0, 4.0, 1.0], "tree_param": {"num_deleted": "0", "num_feature": "120", "num_nodes": "37", "size_leaf_vector": "1"}}, {"base_weights": [237.7511, 808.09296, 84.634674, -28.236681, 756.22046, 534.2061, -147.84799, 1949.8291, 144.92378, -75.64728, 818.28925, 108.07223, -196.31187, 258.32883, 66.64268, 636.03986, -226.5768, -45.84741, 460.00424, 25.841139, 1101.3036, 391.5253, -306.92047, 83.76986, 22.236784, -346.63565, 24.688818, 11.653419, 57.347218, 9.022705, 125.477844, -19.117151, 60.699886, 88.32917, -36.131577, -19.766523, -54.57439], "categories": [], "categories_nodes": [], "categories_segments": [], "categories_sizes": [], "default_left": [0, 0, 0, 0, 0, 0, 0, 0, 0, 1, 0, 0, 0, 0, 0, 0, 0, 0, 0, 0, 0, 0, 0, 0, 0, 0, 0, 0, 0, 0, 0, 0, 0, 0, 0, 0, 0], "id": 32, "left_children": [1, -1, 3, 5, 7, 9, 11, 13, 15, 17, 19, -1, 21, -1, -1, 23, 25, -1, 27, -1, 29, 31, 33, -1, -1, 35, -1, -1, -1, -1, -1, -1, -1, -1, -1, -1, -1], "loss_changes": [125412616.0, 0.0, 7904844.0, 6133688.0, 10662159.0, 2833886.0, 4677755.0, 2343344.0, 2151060.8, 1441270.5, 1458399.0, 0.0, 4866617.0, 0.0, 0.0, 230825.62, 483485.94, 0.0, 50089.375, 0.0, 973009.0, 1622709.9, 4333145.5, 0.0, 0.0, 70092.81, 0.0, 0.0, 0.0, 0.0, 0.0, 0.0, 0.0, 0.0, 0.0, 0.0, 0.0], "parents": [2147483647, 0, 0, 2, 2, 3, 3, 4, 4, 5, 5, 6, 6, 7, 7, 8, 8, 9, 9, 10, 10, 12, 12, 15, 15, 16, 16, 18, 18, 20, 20, 21, 21, 22, 22, 25, 25], "right_children": [2, -1, 4, 6, 8, 10, 12, 14, 16, 18, 20, -1, 22, -1, -1, 24, 26, -1, 28, -1, 30, 32, 34, -1, -1, 36, -1, -1, -1, -1, -1, -1, -1, -1, -1, -1, -1], "split_conditions": [2.00001, 808.09296, 0.70346045, 2.00001, -0.67387086, 2.00001, 2.00001, 1.8260376, 1.0413791, 0.04051755, 2.00001, 108.07223, 2.00001, 258.32883, 66.64268, 0.20720817, 0.23102112, -45.84741, -0.3760446, 25.841139, 2.00001, 2.00001, -0.36310259, 83.76986, 22.236784, 0.7314675, 24.688818, 11.653419, 57.347218, 9.022705, 125.477844, -19.117151, 60.699886, 88.32917, -36.131577, -19.766523, -54.57439], "split_indices": [7, 0, 5, 80, 1, 27, 55, 2, 5, 1, 31, 0, 81, 0, 0, 1, 1, 0, 0, 0, 13, 40, 2, 0, 0, 2, 0, 0, 0, 0, 0, 0, 0, 0, 0, 0, 0], "split_type": [0, 0, 0, 0, 0, 0, 0, 0, 0, 0, 0, 0, 0, 0, 0, 0, 0, 0, 0, 0, 0, 0, 0, 0, 0, 0, 0, 0, 0, 0, 0, 0, 0, 0, 0, 0, 0], "sum_hessian": [104.0, 1.0, 103.0, 89.0, 14.0, 15.0, 74.0, 4.0, 10.0, 5.0, 10.0, 2.0, 72.0, 2.0, 2.0, 4.0, 6.0, 3.0, 2.0, 4.0, 6.0, 11.0, 61.0, 2.0, 2.0, 5.0, 1.0, 1.0, 1.0, 1.0, 5.0, 3.0, 8.0, 2.0, 59.0, 4.0, 1.0], "tree_param": {"num_deleted": "0", "num_feature": "120", "num_nodes": "37", "size_leaf_vector": "1"}}, {"base_weights": [228.9738, 767.6883, 83.54311, 1008.3501, 6.4090996, -774.05865, 1731.4962, -44.242165, 1195.1116, -111.16195, -4.946851, 224.0396, 475.79785, -363.64474, 96.77173, 140.50494, 28.264893, 60.395412, 10.974268, -118.89834, -655.7251, -722.9691, 190.7953, 3.3112385, -62.12113, -29.681843, -78.22594, -92.35934, -14.760564, 52.27785, -18.211012], "categories": [], "categories_nodes": [], "categories_segments": [], "categories_sizes": [], "default_left": [0, 0, 0, 0, 0, 0, 0, 0, 0, 0, 0, 0, 0, 1, 0, 0, 0, 0, 0, 0, 0, 0, 0, 0, 0, 0, 0, 0, 0, 0, 0], "id": 33, "left_children": [1, -1, 3, 5, 7, 9, 11, 13, 15, -1, -1, -1, 17, 19, 21, -1, -1, -1, -1, 23, 25, 27, 29, -1, -1, -1, -1, -1, -1, -1, -1], "loss_changes": [113089870.0, 0.0, 7412281.5, 11651814.0, 5893174.5, 678789.5, 2768170.0, 4268969.5, 369106.5, 0.0, 0.0, 0.0, 74457.25, 1995118.5, 5224886.5, 0.0, 0.0, 0.0, 0.0, 1318637.9, 358192.5, 671696.0, 7523103.0, 0.0, 0.0, 0.0, 0.0, 0.0, 0.0, 0.0, 0.0], "parents": [2147483647, 0, 0, 2, 2, 3, 3, 4, 4, 5, 5, 6, 6, 7, 7, 8, 8, 12, 12, 13, 13, 14, 14, 19, 19, 20, 20, 21, 21, 22, 22], "right_children": [2, -1, 4, 6, 8, 10, 12, 14, 16, -1, -1, -1, 18, 20, 22, -1, -1, -1, -1, 24, 26, 28, 30, -1, -1, -1, -1, -1, -1, -1, -1], "split_conditions": [2.00001, 767.6883, 2.00001, 2.00001, 1.6874998, -0.24966751, 0.7787189, -0.3880366, 6.945525, -111.16195, -4.946851, 224.0396, -0.13251501, -0.53099316, 2.00001, 140.50494, 28.264893, 60.395412, 10.974268, 2.00001, 2.00001, 0.45981255, 1.0168483, 3.3112385, -62.12113, -29.681843, -78.22594, -92.35934, -14.760564, 52.27785, -18.211012], "split_indices": [7, 0, 74, 47, 0, 0, 1, 0, 0, 0, 0, 0, 0, 1, 66, 0, 0, 0, 0, 111, 52, 3, 1, 0, 0, 0, 0, 0, 0, 0, 0], "split_type": [0, 0, 0, 0, 0, 0, 0, 0, 0, 0, 0, 0, 0, 0, 0, 0, 0, 0, 0, 0, 0, 0, 0, 0, 0, 0, 0, 0, 0, 0, 0], "sum_hessian": [104.0, 1.0, 103.0, 7.0, 96.0, 2.0, 5.0, 93.0, 3.0, 1.0, 1.0, 3.0, 2.0, 28.0, 65.0, 2.0, 1.0, 1.0, 1.0, 16.0, 12.0, 6.0, 59.0, 13.0, 3.0, 4.0, 8.0, 4.0, 2.0, 31.0, 28.0], "tree_param": {"num_deleted": "0", "num_feature": "120", "num_nodes": "31", "size_leaf_vector": "1"}}, {"base_weights": [214.41911, 729.3039, 76.23008, 584.7333, -44.31456, 167.2339, 1531.0262, -134.84627, 735.15826, 698.7084, -168.37418, 364.0316, 202.35156, 667.8886, -187.9809, 69.89197, 1056.1428, 199.99615, 113.07552, -403.34464, 284.91766, 44.1792, 10.425537, -5.890247, 86.431206, 376.39294, -263.23294, 21.1354, -17.724707, 33.889786, 133.00407, 5.382324, 23.077938, -60.79656, -9.788752, -13.324719, 46.87217, 108.2906, -40.539875, 0.67390054, -48.089756], "categories": [], "categories_nodes": [], "categories_segments": [], "categories_sizes": [], "default_left": [0, 0, 0, 0, 0, 0, 0, 0, 0, 0, 0, 0, 0, 0, 0, 0, 0, 0, 0, 0, 0, 0, 0, 0, 0, 0, 0, 0, 0, 0, 0, 0, 0, 0, 0, 0, 0, 0, 0, 0, 0], "id": 34, "left_children": [1, -1, 3, 5, 7, 9, 11, 13, 15, 17, 19, 21, -1, 23, 25, 27, 29, 31, -1, 33, 35, -1, -1, -1, -1, 37, 39, -1, -1, -1, -1, -1, -1, -1, -1, -1, -1, -1, -1, -1, -1], "loss_changes": [102153750.0, 0.0, 6400835.0, 7645496.0, 6097328.0, 2793151.0, 2711771.0, 3409833.0, 1848046.0, 1066655.5, 1180021.9, 14541.75, 0.0, 764704.0, 3199410.5, 177305.05, 727964.0, 5577.4062, 0.0, 378008.25, 369897.38, 0.0, 0.0, 0.0, 0.0, 5410123.0, 3822858.5, 0.0, 0.0, 0.0, 0.0, 0.0, 0.0, 0.0, 0.0, 0.0, 0.0, 0.0, 0.0, 0.0, 0.0], "parents": [2147483647, 0, 0, 2, 2, 3, 3, 4, 4, 5, 5, 6, 6, 7, 7, 8, 8, 9, 9, 10, 10, 11, 11, 13, 13, 14, 14, 15, 15, 16, 16, 17, 17, 19, 19, 20, 20, 25, 25, 26, 26], "right_children": [2, -1, 4, 6, 8, 10, 12, 14, 16, 18, 20, 22, -1, 24, 26, 28, 30, 32, -1, 34, 36, -1, -1, -1, -1, 38, 40, -1, -1, -1, -1, -1, -1, -1, -1, -1, -1, -1, -1, -1, -1], "split_conditions": [2.00001, 729.3039, 2.00001, 2.00001, 0.3167233, 0.27228117, -0.5559825, 2.00001, -0.8372796, 2.00001, 0.640507, -0.12974763, 202.35156, -0.47382542, 2.00001, 0.18418247, 2.00001, -0.67387086, 113.07552, 0.6942268, 0.18418247, 44.1792, 10.425537, -5.890247, 86.431206, 2.00001, -0.33872625, 21.1354, -17.724707, 33.889786, 133.00407, 5.382324, 23.077938, -60.79656, -9.788752, -13.324719, 46.87217, 108.2906, -40.539875, 0.67390054, -48.089756], "split_indices": [7, 0, 46, 103, 0, 3, 3, 82, 3, 40, 0, 0, 0, 0, 37, 2, 44, 1, 0, 3, 2, 0, 0, 0, 0, 45, 5, 0, 0, 0, 0, 0, 0, 0, 0, 0, 0, 0, 0, 0, 0], "split_type": [0, 0, 0, 0, 0, 0, 0, 0, 0, 0, 0, 0, 0, 0, 0, 0, 0, 0, 0, 0, 0, 0, 0, 0, 0, 0, 0, 0, 0, 0, 0, 0, 0, 0, 0, 0, 0, 0, 0, 0, 0], "sum_hessian": [104.0, 1.0, 103.0, 19.0, 84.0, 14.0, 5.0, 76.0, 8.0, 5.0, 9.0, 2.0, 3.0, 4.0, 72.0, 3.0, 5.0, 3.0, 2.0, 6.0, 3.0, 1.0, 1.0, 1.0, 3.0, 8.0, 64.0, 2.0, 1.0, 2.0, 3.0, 1.0, 2.0, 3.0, 3.0, 1.0, 2.0, 4.0, 4.0, 29.0, 35.0], "tree_param": {"num_deleted": "0", "num_feature": "120", "num_nodes": "41", "size_leaf_vector": "1"}}, {"base_weights": [205.94803, 692.8387, 74.690094, -16.669638, 663.19336, 90.018776, -318.2589, 203.72057, 264.42413, -104.475945, 530.2915, 680.8483, -440.0345, -37.68384, 520.04926, 97.57251, -148.21906, 0.45007324, 927.6351, 14.577173, 87.55007, -798.9182, 70.5178, 673.3426, -10.984863, 94.98006, -19.273687, 13.586098, -60.912403, -22.696135, 118.12505, -86.262856, -1.7197144, -7.5905366, 43.747364, 15.536507, 84.94606, -11.551978, 9.904248], "categories": [], "categories_nodes": [], "categories_segments": [], "categories_sizes": [], "default_left": [0, 0, 0, 0, 0, 0, 0, 0, 0, 0, 0, 0, 0, 0, 0, 0, 0, 1, 0, 0, 0, 0, 0, 0, 0, 0, 0, 0, 0, 0, 0, 0, 0, 0, 0, 0, 0, 0, 0], "id": 35, "left_children": [1, -1, 3, 5, 7, 9, 11, -1, 13, 15, 17, 19, 21, -1, 23, -1, 25, 27, 29, -1, -1, 31, 33, 35, 37, -1, -1, -1, -1, -1, -1, -1, -1, -1, -1, -1, -1, -1, -1], "loss_changes": [92131730.0, 0.0, 5602667.5, 2956672.5, 7132106.0, 5878291.5, 3219601.5, 0.0, 2163048.2, 2412685.8, 4420694.0, 184838.62, 4087374.0, 0.0, 740032.5, 0.0, 2480489.8, 908186.0, 3781979.0, 0.0, 0.0, 632612.0, 570514.94, 506599.5, 45946.46, 0.0, 0.0, 0.0, 0.0, 0.0, 0.0, 0.0, 0.0, 0.0, 0.0, 0.0, 0.0, 0.0, 0.0], "parents": [2147483647, 0, 0, 2, 2, 3, 3, 4, 4, 5, 5, 6, 6, 8, 8, 9, 9, 10, 10, 11, 11, 12, 12, 14, 14, 16, 16, 17, 17, 18, 18, 21, 21, 22, 22, 23, 23, 24, 24], "right_children": [2, -1, 4, 6, 8, 10, 12, -1, 14, 16, 18, 20, 22, -1, 24, -1, 26, 28, 30, -1, -1, 32, 34, 36, 38, -1, -1, -1, -1, -1, -1, -1, -1, -1, -1, -1, -1, -1, -1], "split_conditions": [2.00001, 692.8387, 2.00001, 0.18418247, 2.00001, -0.14819685, 2.00001, 203.72057, -0.49227464, 2.00001, 2.00001, -0.43692702, 0.5066954, -37.68384, 0.8955213, 97.57251, 2.00001, 1.0168483, 2.00001, 14.577173, 87.55007, 0.38124552, 0.640507, 2.00001, 0.159905, 94.98006, -19.273687, 13.586098, -60.912403, -22.696135, 118.12505, -86.262856, -1.7197144, -7.5905366, 43.747364, 15.536507, 84.94606, -11.551978, 9.904248], "split_indices": [7, 0, 103, 2, 16, 0, 37, 0, 0, 55, 44, 0, 3, 0, 5, 0, 74, 1, 30, 0, 0, 4, 0, 14, 0, 0, 0, 0, 0, 0, 0, 0, 0, 0, 0, 0, 0, 0, 0], "split_type": [0, 0, 0, 0, 0, 0, 0, 0, 0, 0, 0, 0, 0, 0, 0, 0, 0, 0, 0, 0, 0, 0, 0, 0, 0, 0, 0, 0, 0, 0, 0, 0, 0, 0, 0, 0, 0, 0, 0], "sum_hessian": [104.0, 1.0, 103.0, 90.0, 13.0, 67.0, 23.0, 2.0, 11.0, 47.0, 20.0, 2.0, 21.0, 3.0, 8.0, 1.0, 46.0, 9.0, 11.0, 1.0, 1.0, 12.0, 9.0, 6.0, 2.0, 1.0, 45.0, 8.0, 1.0, 2.0, 9.0, 11.0, 1.0, 7.0, 2.0, 2.0, 4.0, 1.0, 1.0], "tree_param": {"num_deleted": "0", "num_feature": "120", "num_nodes": "39", "size_leaf_vector": "1"}}, {"base_weights": [197.06183, 658.1969, 72.38034, 815.1236, 10.376972, -679.0701, 1426.3666, -286.95258, 135.19118, -98.88621, -2.9743164, 186.22305, 369.75912, 66.46804, -344.67804, -624.16626, 217.41833, 46.054836, 9.409034, 138.5726, -430.99368, -77.36895, -16.69056, 513.4728, -147.38599, 29.482344, -24.321533, -49.29031, 0.17792359, -75.61968, 61.33375, 25.612516, -49.12466], "categories": [], "categories_nodes": [], "categories_segments": [], "categories_sizes": [], "default_left": [0, 0, 0, 0, 0, 0, 0, 0, 0, 0, 0, 0, 0, 0, 0, 0, 0, 0, 0, 1, 0, 0, 0, 0, 0, 0, 0, 0, 0, 0, 0, 0, 0], "id": 36, "left_children": [1, -1, 3, 5, 7, 9, 11, 13, 15, -1, -1, -1, 17, -1, 19, 21, 23, -1, -1, 25, 27, -1, -1, 29, 31, -1, -1, -1, -1, -1, -1, -1, -1], "loss_changes": [83111970.0, 0.0, 4781010.0, 8275126.0, 3638555.5, 574056.75, 2074645.0, 1822171.5, 4444051.5, 0.0, 0.0, 0.0, 31750.094, 0.0, 1227662.8, 349464.25, 6879801.0, 0.0, 0.0, 369978.97, 643902.0, 0.0, 0.0, 4901636.0, 4149616.8, 0.0, 0.0, 0.0, 0.0, 0.0, 0.0, 0.0, 0.0], "parents": [2147483647, 0, 0, 2, 2, 3, 3, 4, 4, 5, 5, 6, 6, 7, 7, 8, 8, 12, 12, 14, 14, 15, 15, 16, 16, 19, 19, 20, 20, 23, 23, 24, 24], "right_children": [2, -1, 4, 6, 8, 10, 12, 14, 16, -1, -1, -1, 18, -1, 20, 22, 24, -1, -1, 26, 28, -1, -1, 30, 32, -1, -1, -1, -1, -1, -1, -1, -1], "split_conditions": [2.00001, 658.1969, 2.00001, 2.00001, -0.3880366, -0.24966751, 0.7787189, -1.0786909, 2.00001, -98.88621, -2.9743164, 186.22305, -0.13251501, 66.46804, 2.00001, 0.45981255, 1.0168483, 46.054836, 9.409034, 1.0644742, 0.5066954, -77.36895, -16.69056, 2.00001, -0.5515127, 29.482344, -24.321533, -49.29031, 0.17792359, -75.61968, 61.33375, 25.612516, -49.12466], "split_indices": [7, 0, 74, 47, 0, 0, 1, 1, 66, 0, 0, 0, 0, 0, 44, 3, 1, 0, 0, 1, 3, 0, 0, 91, 5, 0, 0, 0, 0, 0, 0, 0, 0], "split_type": [0, 0, 0, 0, 0, 0, 0, 0, 0, 0, 0, 0, 0, 0, 0, 0, 0, 0, 0, 0, 0, 0, 0, 0, 0, 0, 0, 0, 0, 0, 0, 0, 0], "sum_hessian": [104.0, 1.0, 103.0, 7.0, 96.0, 2.0, 5.0, 28.0, 68.0, 1.0, 1.0, 3.0, 2.0, 1.0, 27.0, 6.0, 62.0, 1.0, 1.0, 4.0, 23.0, 4.0, 2.0, 34.0, 28.0, 3.0, 1.0, 20.0, 3.0, 2.0, 32.0, 13.0, 15.0], "tree_param": {"num_deleted": "0", "num_feature": "120", "num_nodes": "33", "size_leaf_vector": "1"}}, {"base_weights": [183.9145, 625.2871, 65.435394, -14.037375, 577.3345, 393.59348, -75.00654, 181.8875, 218.83812, 131.30408, 113.66937, 296.21674, -165.23064, -31.160782, 430.27652, 425.7191, -248.25473, -105.90123, 620.74194, 68.85589, -217.64882, 567.7912, -34.0166, 19.043945, 80.10586, -33.820305, -7.555485, 17.091724, -30.617575, 77.72036, 23.086401, 89.6272, -25.06028, 10.4118, 73.24369, -14.041064, 8.938575], "categories": [], "categories_nodes": [], "categories_segments": [], "categories_sizes": [], "default_left": [0, 0, 0, 0, 0, 0, 0, 0, 0, 0, 0, 0, 0, 0, 0, 0, 0, 0, 0, 0, 0, 0, 0, 0, 0, 0, 0, 0, 0, 0, 0, 0, 0, 0, 0, 0, 0], "id": 37, "left_children": [1, -1, 3, 5, 7, 9, 11, -1, 13, 15, -1, 17, 19, -1, 21, 23, 25, 27, 29, -1, 31, 33, 35, -1, -1, -1, -1, -1, -1, -1, -1, -1, -1, -1, -1, -1, -1], "loss_changes": [75090520.0, 0.0, 4239036.0, 2291137.2, 5833189.0, 2189635.2, 2728406.8, 0.0, 1479957.2, 1223164.9, 0.0, 2153696.0, 3058880.0, 0.0, 593938.75, 377305.25, 52117.438, 495848.2, 369580.25, 0.0, 2500511.8, 458132.75, 51938.53, 0.0, 0.0, 0.0, 0.0, 0.0, 0.0, 0.0, 0.0, 0.0, 0.0, 0.0, 0.0, 0.0, 0.0], "parents": [2147483647, 0, 0, 2, 2, 3, 3, 4, 4, 5, 5, 6, 6, 8, 8, 9, 9, 11, 11, 12, 12, 14, 14, 15, 15, 16, 16, 17, 17, 18, 18, 20, 20, 21, 21, 22, 22], "right_children": [2, -1, 4, 6, 8, 10, 12, -1, 14, 16, -1, 18, 20, -1, 22, 24, 26, 28, 30, -1, 32, 34, 36, -1, -1, -1, -1, -1, -1, -1, -1, -1, -1, -1, -1, -1, -1], "split_conditions": [2.00001, 625.2871, 2.00001, 2.00001, 2.00001, 0.5919327, 2.00001, 181.8875, -0.49227464, -0.71225864, 113.66937, 2.00001, -0.36310259, -31.160782, 0.8955213, 0.18418247, 0.18418247, 2.00001, 2.00001, 68.85589, 2.00001, 2.00001, 0.159905, 19.043945, 80.10586, -33.820305, -7.555485, 17.091724, -30.617575, 77.72036, 23.086401, 89.6272, -25.06028, 10.4118, 73.24369, -14.041064, 8.938575], "split_indices": [7, 0, 103, 81, 16, 4, 80, 0, 0, 3, 0, 42, 2, 0, 5, 2, 2, 46, 115, 0, 55, 14, 0, 0, 0, 0, 0, 0, 0, 0, 0, 0, 0, 0, 0, 0, 0], "split_type": [0, 0, 0, 0, 0, 0, 0, 0, 0, 0, 0, 0, 0, 0, 0, 0, 0, 0, 0, 0, 0, 0, 0, 0, 0, 0, 0, 0, 0, 0, 0, 0, 0, 0, 0, 0, 0], "sum_hessian": [104.0, 1.0, 103.0, 90.0, 13.0, 11.0, 79.0, 2.0, 11.0, 9.0, 2.0, 15.0, 64.0, 3.0, 8.0, 5.0, 4.0, 7.0, 8.0, 3.0, 61.0, 6.0, 2.0, 4.0, 1.0, 2.0, 2.0, 3.0, 4.0, 5.0, 3.0, 1.0, 60.0, 2.0, 4.0, 1.0, 1.0], "tree_param": {"num_deleted": "0", "num_feature": "120", "num_nodes": "37", "size_leaf_vector": "1"}}, {"base_weights": [177.39651, 594.02264, 64.86713, 731.15967, 9.246433, -628.4099, 1289.0845, -24.785118, 806.6763, -92.68888, -1.5726074, 168.96219, 325.33984, 77.4266, -50.571728, 95.29056, 18.399414, 40.309326, 8.491651, 273.56827, -127.69103, 44.021378, -24.775284, 26.846823, -19.997572], "categories": [], "categories_nodes": [], "categories_segments": [], "categories_sizes": [], "default_left": [0, 0, 0, 0, 0, 0, 0, 0, 0, 0, 0, 0, 0, 0, 0, 0, 0, 0, 0, 0, 0, 0, 0, 0, 0], "id": 38, "left_children": [1, -1, 3, 5, 7, 9, 11, 13, 15, -1, -1, -1, 17, -1, 19, -1, -1, -1, -1, 21, 23, -1, -1, -1, -1], "loss_changes": [67705890.0, 0.0, 3847443.0, 6878374.5, 2652357.8, 534043.1, 1766393.0, 1976009.0, 188888.5, 0.0, 0.0, 0.0, 21851.938, 0.0, 2334697.5, 0.0, 0.0, 0.0, 0.0, 1672828.9, 2201406.0, 0.0, 0.0, 0.0, 0.0], "parents": [2147483647, 0, 0, 2, 2, 3, 3, 4, 4, 5, 5, 6, 6, 7, 7, 8, 8, 12, 12, 14, 14, 19, 19, 20, 20], "right_children": [2, -1, 4, 6, 8, 10, 12, 14, 16, -1, -1, -1, 18, -1, 20, -1, -1, -1, -1, 22, 24, -1, -1, -1, -1], "split_conditions": [2.00001, 594.02264, 2.00001, 2.00001, 1.6874998, -0.24966751, 0.7787189, 2.00001, 6.945525, -92.68888, -1.5726074, 168.96219, -0.13251501, 77.4266, 2.00001, 95.29056, 18.399414, 40.309326, 8.491651, -0.16122897, 2.00001, 44.021378, -24.775284, 26.846823, -19.997572], "split_indices": [7, 0, 74, 47, 0, 0, 1, 55, 0, 0, 0, 0, 0, 0, 80, 0, 0, 0, 0, 4, 81, 0, 0, 0, 0], "split_type": [0, 0, 0, 0, 0, 0, 0, 0, 0, 0, 0, 0, 0, 0, 0, 0, 0, 0, 0, 0, 0, 0, 0, 0, 0], "sum_hessian": [104.0, 1.0, 103.0, 7.0, 96.0, 2.0, 5.0, 93.0, 3.0, 1.0, 1.0, 3.0, 2.0, 2.0, 91.0, 2.0, 1.0, 1.0, 1.0, 17.0, 74.0, 13.0, 4.0, 11.0, 63.0], "tree_param": {"num_deleted": "0", "num_feature": "120", "num_nodes": "25", "size_leaf_vector": "1"}}, {"base_weights": [168.55916, 564.3215, 61.65655, -13.118949, 506.19913, 345.42874, -83.71232, 1370.1342, 67.48327, -245.77777, 665.60974, -32.99279, -66.99413, 162.52705, 17.479445, 404.94092, -183.19838, -39.899303, -69.421906, 260.4162, 89.23361, -433.79987, 32.185654, 55.29492, 12.195231, 70.33773, -29.868036, -1.1172546, -8.511417, 8.171973, 35.23073, 19.712255, -52.580486, 33.992912, -14.557147, -1.4939698, 12.044629], "categories": [], "categories_nodes": [], "categories_segments": [], "categories_sizes": [], "default_left": [0, 0, 0, 0, 0, 0, 0, 0, 0, 0, 0, 0, 0, 0, 0, 0, 0, 0, 0, 0, 0, 0, 0, 0, 0, 0, 0, 0, 0, 0, 0, 0, 0, 0, 0, 0, 0], "id": 39, "left_children": [1, -1, 3, 5, 7, 9, 11, 13, 15, 17, 19, 21, -1, -1, -1, 23, 25, -1, 27, 29, -1, 31, 33, -1, -1, 35, -1, -1, -1, -1, -1, 