{"model_name": "pipeline_Outre-Mer_inf30m2_elec", "feature_order": {"numerical": ["surface_habitable_logement", "annee_construction", "hauteur_sous_plafond", "ubat_w_par_m2_k", "besoin_chauffage", "apport_solaire_saison_chauffe"], "categorical": ["type_batiment", "zone_climatique", "classe_altitude", "chauffage_simplifie", "logement_traversant_clean", "isolation_toiture_clean", "qualite_isolation_enveloppe", "periode_construction", "qualite_isolation_murs", "qualite_isolation_menuiseries", "qualite_isolation_plancher_bas", "type_emetteur_installation_chauffage_n1", "type_installation_ecs", "type_generateur_n1_ecs_n1", "presence_brasseur_air", "protection_solaire_exterieure", "presence_climatisation", "ventilation_simplifiee", "etiquette_dpe"]}, "scaler": {"mean": [21.90752032520325, 1980.5922330097087, 2.589227642276423, 1.045691056910569, 9881.928861788618, 1424283.9916666667], "scale": [4.696491982388961, 31.33308999557218, 0.9823781772506672, 0.6617322442580177, 29106.262412136788, 5751142.5410882365]}, "ohe_categories": {"0": ["appartement", "maison"], "1": ["H1a", "H1b", "H1c", "H2a", "H2b", "H2c", "H2d", "H3"], "2": ["400-800m", "inf\u00e9rieur \u00e0 400m", "sup\u00e9rieur \u00e0 800m"], "3": ["Autre/Inconnu", "Inconnu"], "4": ["Inconnu", "Non", "Oui"], "5": ["Inconnu", "Isol\u00e9", "Non Isol\u00e9"], "6": ["bonne", "insuffisante", "moyenne", "tr\u00e8s bonne"], "7": ["1948-1974", "1975-1977", "1978-1982", "1983-1988", "1989-2000", "2001-2005", "2006-2012", "2013-2021", "apr\u00e8s 2021", "avant 1948"], "8": ["bonne", "insuffisante", "moyenne", "tr\u00e8s bonne", "nan"], "9": ["bonne", "insuffisante", "moyenne", "tr\u00e8s bonne"], "10": ["bonne", "insuffisante", "moyenne", "tr\u00e8s bonne", "nan"], "11": ["Autres \u00e9metteurs \u00e0 effet joule", "Convecteur \u00e9lectrique NFC, NF** et NF***", "Panneau rayonnant NFC, NF** et NF***", "Plancher chauffant sur r\u00e9seau collectif eau chaude basse ou moyenne temp\u00e9rature(inf 65\u00b0C)", "Plancher chauffant sur r\u00e9seau collectif eau chaude haute temp\u00e9rature(sup ou egal 65\u00b0C)", "Plancher chauffant sur r\u00e9seau individuel eau chaude haute temp\u00e9rature(sup ou egal 65\u00b0C)", "Plancher rayonnant \u00e9lectrique avec r\u00e9gulation terminale", "Plancher rayonnant \u00e9lectrique sans r\u00e9gulation", "Radiateur avec distribution par fluide frigorig\u00e8ne (\u00e0 d\u00e9tente directe)", "Radiateur bitube avec robinet thermostatique sur r\u00e9seau collectif eau chaude basse ou moyenne temp\u00e9rature(inf 65\u00b0C)", "Radiateur bitube avec robinet thermostatique sur r\u00e9seau collectif eau chaude haute temp\u00e9rature(sup ou egal 65\u00b0C)", "Radiateur bitube avec robinet thermostatique sur r\u00e9seau individuel eau chaude basse ou moyenne temp\u00e9rature(inf 65\u00b0C)", "Radiateur bitube sans robinet thermostatique sur r\u00e9seau collectif eau chaude basse ou moyenne temp\u00e9rature(inf 65\u00b0C)", "Radiateur bitube sans robinet thermostatique sur r\u00e9seau collectif eau chaude haute temp\u00e9rature(sup ou egal 65\u00b0C)", "Radiateur bitube sans robinet thermostatique sur r\u00e9seau individuel eau chaude basse ou moyenne temp\u00e9rature(inf 65\u00b0C)", "Radiateur bitube sans robinet thermostatique sur r\u00e9seau individuel eau chaude haute temp\u00e9rature(sup ou egal 65\u00b0C)", "Radiateur monotube avec robinet thermostatique sur r\u00e9seau collectif eau chaude basse ou moyenne temp\u00e9rature(inf 65\u00b0C)", "Radiateur monotube sans robinet thermostatique sur r\u00e9seau individuel eau chaude basse ou moyenne temp\u00e9rature(inf 65\u00b0C)", "Radiateur \u00e9lectrique \u00e0 accumulation", "Soufflage d'air chaud (air souffl\u00e9) avec distribution par fluide frigorig\u00e8ne", "Soufflage d'air chaud (air souffl\u00e9) avec distribution par r\u00e9seau a\u00e9raulique", "radiateur \u00e9lectrique NFC, NF** et NF***", "nan"], "12": ["collectif", "individuel", "nan"], "13": ["Accumulateur gaz classique apr\u00e8s 2000", "Ballon \u00e9lectrique \u00e0 accumulation horizontal", "Ballon \u00e9lectrique \u00e0 accumulation vertical Autres ou inconnue", "Ballon \u00e9lectrique \u00e0 accumulation vertical Cat\u00e9gorie B ou 2 \u00e9toiles", "Ballon \u00e9lectrique \u00e0 accumulation vertical Cat\u00e9gorie C ou 3 \u00e9toiles", "CET sur air ambiant (sur local non chauff\u00e9) apr\u00e8s 2014", "CET sur air ext\u00e9rieur apr\u00e8s 2014", "Chaudi\u00e8re fioul \u00e0 condensation apr\u00e8s 2015", "Chaudi\u00e8re gaz basse temp\u00e9rature 2001-2015", "Chaudi\u00e8re gaz basse temp\u00e9rature apr\u00e8s 2015", "Chaudi\u00e8re gaz classique avant 1981", "Chaudi\u00e8re gaz standard 1991-2000", "Chaudi\u00e8re gaz standard 2001-2015", "Chaudi\u00e8re gaz standard apr\u00e8s 2015", "Chaudi\u00e8re gaz \u00e0 condensation 2001-2015", "Chaudi\u00e8re gaz \u00e0 condensation apr\u00e8s 2015", "Chaudi\u00e8re gpl/propane/butane standard 2001-2015", "Chaudi\u00e8re \u00e9lectrique", "Chauffe-eau gaz \u00e0 production instantan\u00e9e 1990-2000", "Chauffe-eau gaz \u00e0 production instantan\u00e9e 2001-2015", "Chauffe-eau gaz \u00e0 production instantan\u00e9e apr\u00e8s 2015", "Chauffe-eau gaz \u00e0 production instantan\u00e9e avant 1980", "PAC double service apr\u00e8s 2014", "Pompe(s) \u00e0 chaleur multi b\u00e2timent mod\u00e9lis\u00e9e comme un r\u00e9seau de chaleur", "R\u00e9seau de chaleur isol\u00e9", "R\u00e9seau de chaleur non isol\u00e9", "chauffe-eau \u00e9lectrique instantan\u00e9", "nan"], "14": ["0.0", "1.0", "nan"], "15": ["0.0", "1.0", "nan"], "16": ["0", "1"], "17": ["Autre / Inconnu", "Naturelle"], "18": ["A", "B", "C", "D", "E", "F", "G"]}, "xgboost": {"learner": {"attributes": {}, "feature_names": [], "feature_types": [], "gradient_booster": {"model": {"gbtree_model_param": {"num_parallel_tree": "1", "num_trees": "100"}, "iteration_indptr": [0, 1, 2, 3, 4, 5, 6, 7, 8, 9, 10, 11, 12, 13, 14, 15, 16, 17, 18, 19, 20, 21, 22, 23, 24, 25, 26, 27, 28, 29, 30, 31, 32, 33, 34, 35, 36, 37, 38, 39, 40, 41, 42, 43, 44, 45, 46, 47, 48, 49, 50, 51, 52, 53, 54, 55, 56, 57, 58, 59, 60, 61, 62, 63, 64, 65, 66, 67, 68, 69, 70, 71, 72, 73, 74, 75, 76, 77, 78, 79, 80, 81, 82, 83, 84, 85, 86, 87, 88, 89, 90, 91, 92, 93, 94, 95, 96, 97, 98, 99, 100], "tree_info": [0, 0, 0, 0, 0, 0, 0, 0, 0, 0, 0, 0, 0, 0, 0, 0, 0, 0, 0, 0, 0, 0, 0, 0, 0, 0, 0, 0, 0, 0, 0, 0, 0, 0, 0, 0, 0, 0, 0, 0, 0, 0, 0, 0, 0, 0, 0, 0, 0, 0, 0, 0, 0, 0, 0, 0, 0, 0, 0, 0, 0, 0, 0, 0, 0, 0, 0, 0, 0, 0, 0, 0, 0, 0, 0, 0, 0, 0, 0, 0, 0, 0, 0, 0, 0, 0, 0, 0, 0, 0, 0, 0, 0, 0, 0, 0, 0, 0, 0, 0], "trees": [{"base_weights": [1.250416e-05, -1100.9248, 913.35986, 2417.4973, -1192.293, 701.1197, 1987.5684, 59.508846, 266.29614, 107.52045, -1261.5499, -100.055084, 775.9618, -96.71423, 2227.3555, 352.21918, -74.39822, 65.81512, -1283.3828, 328.01135, 1181.7411, 2402.4775, -79.168205, 55.460144, 124.864075, -10.586158, -1288.6104, 35.409313, 583.4058, 14.037231, 1350.3281, 2685.5217, 398.14734, 18.060152, -7.691156, -123.22642, -147.22343, -26.563414, 8.249783, -83.83822, 65.15902, -84.15154, 140.47574, 167.51286, 323.1235, 179.38884, -23.977858], "categories": [], "categories_nodes": [], "categories_segments": [], "categories_sizes": [], "default_left": [0, 0, 0, 0, 0, 0, 0, 0, 0, 0, 0, 0, 0, 0, 0, 0, 0, 0, 0, 0, 0, 0, 0, 0, 0, 0, 0, 0, 0, 0, 0, 0, 0, 0, 0, 0, 0, 0, 0, 0, 0, 0, 0, 0, 0, 0, 0], "id": 0, "left_children": [1, 3, 5, 7, 9, 11, 13, -1, -1, 15, 17, -1, 19, -1, 21, 23, -1, -1, 25, 27, 29, 31, -1, -1, 33, -1, 35, 37, 39, -1, 41, 43, 45, -1, -1, -1, -1, -1, -1, -1, -1, -1, -1, -1, -1, -1, -1], "loss_changes": [496737100.0, 74891970.0, 60163824.0, 1099316.0, 19850272.0, 29686344.0, 33328256.0, 0.0, 0.0, 2762384.2, 9562464.0, 0.0, 39238010.0, 0.0, 23578704.0, 390876.62, 0.0, 0.0, 1131616.0, 7825880.0, 19824448.0, 21056000.0, 0.0, 0.0, 81369.09, 0.0, 306848.0, 730698.7, 5975134.0, 0.0, 12873568.0, 13334352.0, 5772412.5, 0.0, 0.0, 0.0, 0.0, 0.0, 0.0, 0.0, 0.0, 0.0, 0.0, 0.0, 0.0, 0.0, 0.0], "parents": [2147483647, 0, 0, 1, 1, 2, 2, 3, 3, 4, 4, 5, 5, 6, 6, 9, 9, 10, 10, 12, 12, 14, 14, 15, 15, 18, 18, 19, 19, 20, 20, 21, 21, 24, 24, 26, 26, 27, 27, 28, 28, 30, 30, 31, 31, 32, 32], "right_children": [2, 4, 6, 8, 10, 12, 14, -1, -1, 16, 18, -1, 20, -1, 22, 24, -1, -1, 26, 28, 30, 32, -1, -1, 34, -1, 36, 38, 40, -1, 42, 44, 46, -1, -1, -1, -1, -1, -1, -1, -1, -1, -1, -1, -1, -1, -1], "split_conditions": [2.00001, 2.00001, -0.2433335, -0.27995107, -0.24762253, 2.00001, 2.00001, 59.508846, 266.29614, 2.00001, 2.00001, -100.055084, -0.29777196, -96.71423, -0.09001255, -0.23581864, -74.39822, 65.81512, 2.00001, -0.324773, 2.00001, 1.7594864, -79.168205, 55.460144, 0.9352682, -10.586158, -0.113272145, -0.2476027, 2.00001, 14.037231, 2.00001, -0.2285463, 0.67975837, 18.060152, -7.691156, -123.22642, -147.22343, -26.563414, 8.249783, -83.83822, 65.15902, -84.15154, 140.47574, 167.51286, 323.1235, 179.38884, -23.977858], "split_indices": [78, 18, 4, 4, 5, 66, 89, 0, 0, 121, 84, 0, 4, 0, 4, 0, 0, 0, 103, 4, 65, 3, 0, 0, 0, 0, 4, 5, 70, 0, 93, 4, 0, 0, 0, 0, 0, 0, 0, 0, 0, 0, 0, 0, 0, 0, 0], "split_type": [0, 0, 0, 0, 0, 0, 0, 0, 0, 0, 0, 0, 0, 0, 0, 0, 0, 0, 0, 0, 0, 0, 0, 0, 0, 0, 0, 0, 0, 0, 0, 0, 0, 0, 0, 0, 0, 0, 0, 0, 0, 0, 0, 0, 0, 0, 0], "sum_hessian": [492.0, 223.0, 269.0, 5.0, 218.0, 226.0, 43.0, 1.0, 4.0, 11.0, 207.0, 9.0, 217.0, 3.0, 40.0, 9.0, 2.0, 2.0, 205.0, 104.0, 113.0, 38.0, 2.0, 4.0, 5.0, 1.0, 204.0, 49.0, 55.0, 16.0, 97.0, 33.0, 5.0, 4.0, 1.0, 162.0, 42.0, 6.0, 43.0, 2.0, 53.0, 2.0, 95.0, 13.0, 20.0, 1.0, 4.0], "tree_param": {"num_deleted": "0", "num_feature": "126", "num_nodes": "47", "size_leaf_vector": "1"}}, {"base_weights": [1.0253552, -990.37695, 823.51825, 2230.0483, -1074.0854, 630.7139, 1799.4971, 56.533405, 244.99243, 96.05432, -1136.4297, -91.05013, 698.5187, -89.46067, 2018.4463, 323.5802, -69.43834, 61.42745, -1156.4087, 294.85788, 1064.1842, 2178.795, -73.89033, 51.023342, 114.10581, -10.056849, -1161.0686, 31.502123, 524.7316, 12.716082, 1215.87, 2431.4, 384.23447, 26.895838, 2.934363, -110.97937, -132.84348, 6.881677, -31.809309, -78.24899, 58.763783, -78.54144, 126.574486, 92.07804, 272.22192, 170.4194, -22.059624], "categories": [], "categories_nodes": [], "categories_segments": [], "categories_sizes": [], "default_left": [0, 0, 0, 0, 0, 0, 0, 0, 0, 0, 0, 0, 0, 0, 0, 0, 0, 0, 0, 0, 0, 0, 0, 0, 0, 0, 0, 0, 0, 0, 0, 0, 0, 0, 0, 0, 0, 0, 0, 0, 0, 0, 0, 0, 0, 0, 0], "id": 1, "left_children": [1, 3, 5, 7, 9, 11, 13, -1, -1, 15, 17, -1, 19, -1, 21, 23, -1, -1, 25, 27, 29, 31, -1, -1, 33, -1, 35, 37, 39, -1, 41, 43, 45, -1, -1, -1, -1, -1, -1, -1, -1, -1, -1, -1, -1, -1, -1], "loss_changes": [402818300.0, 62780544.0, 49671744.0, 811160.0, 16085504.0, 24357896.0, 27760080.0, 0.0, 0.0, 2382828.8, 7985664.0, 0.0, 31864064.0, 0.0, 19737568.0, 332770.12, 0.0, 0.0, 896768.0, 6340021.0, 16048560.0, 16745056.0, 0.0, 0.0, 70861.65, 0.0, 284960.0, 674141.3, 5064831.0, 0.0, 10775872.0, 12430224.0, 5166051.0, 0.0, 0.0, 0.0, 0.0, 0.0, 0.0, 0.0, 0.0, 0.0, 0.0, 0.0, 0.0, 0.0, 0.0], "parents": [2147483647, 0, 0, 1, 1, 2, 2, 3, 3, 4, 4, 5, 5, 6, 6, 9, 9, 10, 10, 12, 12, 14, 14, 15, 15, 18, 18, 19, 19, 20, 20, 21, 21, 24, 24, 26, 26, 27, 27, 28, 28, 30, 30, 31, 31, 32, 32], "right_children": [2, 4, 6, 8, 10, 12, 14, -1, -1, 16, 18, -1, 20, -1, 22, 24, -1, -1, 26, 28, 30, 32, -1, -1, 34, -1, 36, 38, 40, -1, 42, 44, 46, -1, -1, -1, -1, -1, -1, -1, -1, -1, -1, -1, -1, -1, -1], "split_conditions": [2.00001, 2.00001, -0.2433335, -0.27995107, -0.24762253, 2.00001, 2.00001, 56.533405, 244.99243, 2.00001, 2.00001, -91.05013, -0.29777196, -89.46067, -0.09001255, -0.23581864, -69.43834, 61.42745, 2.00001, -0.324773, 2.00001, 1.7594864, -73.89033, 51.023342, 2.00001, -10.056849, -0.113272145, 2.00001, 2.00001, 12.716082, 2.00001, 2.00001, 0.67975837, 26.895838, 2.934363, -110.97937, -132.84348, 6.881677, -31.809309, -78.24899, 58.763783, -78.54144, 126.574486, 92.07804, 272.22192, 170.4194, -22.059624], "split_indices": [78, 18, 4, 4, 5, 66, 89, 0, 0, 121, 84, 0, 4, 0, 4, 0, 0, 0, 103, 4, 65, 3, 0, 0, 87, 0, 4, 121, 70, 0, 93, 75, 0, 0, 0, 0, 0, 0, 0, 0, 0, 0, 0, 0, 0, 0, 0], "split_type": [0, 0, 0, 0, 0, 0, 0, 0, 0, 0, 0, 0, 0, 0, 0, 0, 0, 0, 0, 0, 0, 0, 0, 0, 0, 0, 0, 0, 0, 0, 0, 0, 0, 0, 0, 0, 0, 0, 0, 0, 0, 0, 0, 0, 0, 0, 0], "sum_hessian": [492.0, 223.0, 269.0, 5.0, 218.0, 226.0, 43.0, 1.0, 4.0, 11.0, 207.0, 9.0, 217.0, 3.0, 40.0, 9.0, 2.0, 2.0, 205.0, 104.0, 113.0, 38.0, 2.0, 4.0, 5.0, 1.0, 204.0, 49.0, 55.0, 16.0, 97.0, 33.0, 5.0, 1.0, 4.0, 162.0, 42.0, 45.0, 4.0, 2.0, 53.0, 2.0, 95.0, 6.0, 27.0, 1.0, 4.0], "tree_param": {"num_deleted": "0", "num_feature": "126", "num_nodes": "47", "size_leaf_vector": "1"}}, {"base_weights": [1.724206, -890.80133, 742.1835, 2057.2979, -967.5036, 567.3134, 1627.4861, 84.25743, 245.40161, 87.40018, -1023.712, -82.85561, 628.74176, -82.75112, 1827.3032, 299.30756, -64.80911, 57.332283, -1042.0002, 264.9491, 958.29865, 1974.0605, -68.9643, 46.941475, 107.666954, -9.554004, -1046.1511, 64.13159, 521.12524, 11.519275, 1094.7732, 2198.9746, 370.5376, 15.90136, -7.4533143, -99.94952, -119.86806, -73.032394, 10.41184, -16.232288, 64.79575, -73.30534, 114.04889, 131.82732, 268.1396, 161.89842, -20.294859], "categories": [], "categories_nodes": [], "categories_segments": [], "categories_sizes": [], "default_left": [0, 0, 0, 0, 0, 0, 0, 0, 0, 0, 0, 0, 0, 0, 0, 0, 0, 0, 0, 0, 0, 0, 0, 0, 0, 0, 0, 0, 0, 0, 0, 0, 0, 0, 0, 0, 0, 0, 0, 0, 0, 0, 0, 0, 0, 0, 0], "id": 2, "left_children": [1, 3, 5, 7, 9, 11, 13, -1, -1, 15, 17, -1, 19, -1, 21, 23, -1, -1, 25, 27, 29, 31, -1, -1, 33, -1, 35, 37, 39, -1, 41, 43, 45, -1, -1, -1, -1, -1, -1, -1, -1, -1, -1, -1, -1, -1, -1], "loss_changes": [326474370.0, 52642640.0, 40876190.0, 823726.0, 13074944.0, 19985280.0, 23096352.0, 0.0, 0.0, 2064251.0, 6672464.0, 0.0, 25882208.0, 0.0, 16505984.0, 275453.88, 0.0, 0.0, 709344.0, 5368268.0, 12991008.0, 13250736.0, 0.0, 0.0, 67983.96, 0.0, 260784.0, 1982104.9, 4092611.0, 0.0, 9024960.0, 10910720.0, 4624372.0, 0.0, 0.0, 0.0, 0.0, 0.0, 0.0, 0.0, 0.0, 0.0, 0.0, 0.0, 0.0, 0.0, 0.0], "parents": [2147483647, 0, 0, 1, 1, 2, 2, 3, 3, 4, 4, 5, 5, 6, 6, 9, 9, 10, 10, 12, 12, 14, 14, 15, 15, 18, 18, 19, 19, 20, 20, 21, 21, 24, 24, 26, 26, 27, 27, 28, 28, 30, 30, 31, 31, 32, 32], "right_children": [2, 4, 6, 8, 10, 12, 14, -1, -1, 16, 18, -1, 20, -1, 22, 24, -1, -1, 26, 28, 30, 32, -1, -1, 34, -1, 36, 38, 40, -1, 42, 44, 46, -1, -1, -1, -1, -1, -1, -1, -1, -1, -1, -1, -1, -1, -1], "split_conditions": [2.00001, 2.00001, -0.2433335, -0.25143486, -0.24762253, 2.00001, 2.00001, 84.25743, 245.40161, 2.00001, 2.00001, -82.85561, -0.29777196, -82.75112, -0.09001255, -0.23581864, -64.80911, 57.332283, 2.00001, -0.17194118, 2.00001, 1.7594864, -68.9643, 46.941475, 0.9352682, -9.554004, -0.113272145, 2.00001, -0.32663515, 11.519275, 2.00001, -0.2285463, 0.67975837, 15.90136, -7.4533143, -99.94952, -119.86806, -73.032394, 10.41184, -16.232288, 64.79575, -73.30534, 114.04889, 131.82732, 268.1396, 161.89842, -20.294859], "split_indices": [78, 18, 4, 4, 5, 66, 89, 0, 0, 121, 84, 0, 4, 0, 4, 0, 0, 0, 103, 0, 65, 3, 0, 0, 0, 0, 4, 70, 4, 0, 93, 4, 0, 0, 0, 0, 0, 0, 0, 0, 0, 0, 0, 0, 0, 0, 0], "split_type": [0, 0, 0, 0, 0, 0, 0, 0, 0, 0, 0, 0, 0, 0, 0, 0, 0, 0, 0, 0, 0, 0, 0, 0, 0, 0, 0, 0, 0, 0, 0, 0, 0, 0, 0, 0, 0, 0, 0, 0, 0, 0, 0, 0, 0, 0, 0], "sum_hessian": [492.0, 223.0, 269.0, 5.0, 218.0, 226.0, 43.0, 2.0, 3.0, 11.0, 207.0, 9.0, 217.0, 3.0, 40.0, 9.0, 2.0, 2.0, 205.0, 104.0, 113.0, 38.0, 2.0, 4.0, 5.0, 1.0, 204.0, 59.0, 45.0, 16.0, 97.0, 33.0, 5.0, 4.0, 1.0, 162.0, 42.0, 2.0, 57.0, 7.0, 38.0, 2.0, 95.0, 13.0, 20.0, 1.0, 4.0], "tree_param": {"num_deleted": "0", "num_feature": "126", "num_nodes": "47", "size_leaf_vector": "1"}}, {"base_weights": [2.552588, -801.05963, 669.24365, 1906.5112, -871.58185, 510.38538, 1473.5978, 78.64027, 226.99649, 77.875175, -922.1679, -753.98615, 566.04285, -76.54479, 1656.0999, 274.9157, -60.488506, 535.1013, -938.91376, -22.548117, -78.76555, 238.3203, 862.9273, 1790.5409, -64.366684, 43.186153, 98.308266, 16.625097, 63.640102, -9.076306, -942.60834, 56.674732, 470.06842, 10.435107, 985.7117, -30.83254, 1912.3262, 24.755976, 1.8946021, -90.01589, -108.16001, -68.16357, 9.388606, -12.48022, 59.858864, -68.41833, 102.76281, 203.50714, -15.714404], "categories": [], "categories_nodes": [], "categories_segments": [], "categories_sizes": [], "default_left": [0, 0, 0, 0, 0, 0, 0, 0, 0, 0, 0, 0, 0, 0, 0, 0, 0, 0, 0, 0, 0, 0, 0, 0, 0, 0, 0, 0, 0, 0, 0, 0, 0, 0, 0, 0, 0, 0, 0, 0, 0, 0, 0, 0, 0, 0, 0, 0, 0], "id": 3, "left_children": [1, 3, 5, 7, 9, 11, 13, -1, -1, 15, 17, 19, 21, -1, 23, 25, -1, 27, 29, -1, -1, 31, 33, 35, -1, -1, 37, -1, -1, -1, 39, 41, 43, -1, 45, -1, 47, -1, -1, -1, -1, -1, -1, -1, -1, -1, -1, -1, -1], "loss_changes": [264666290.0, 44433120.0, 33748040.0, 657538.0, 10590224.0, 16401172.0, 19247400.0, 0.0, 0.0, 1780669.8, 5578272.0, 342.5, 21004816.0, 0.0, 13829016.0, 234722.44, 0.0, 6290.9375, 559968.0, 0.0, 0.0, 4393441.0, 10515248.0, 10558456.0, 0.0, 0.0, 66379.33, 0.0, 0.0, 0.0, 235904.0, 1712406.4, 3591538.0, 0.0, 7562688.0, 0.0, 9718448.0, 0.0, 0.0, 0.0, 0.0, 0.0, 0.0, 0.0, 0.0, 0.0, 0.0, 0.0, 0.0], "parents": [2147483647, 0, 0, 1, 1, 2, 2, 3, 3, 4, 4, 5, 5, 6, 6, 9, 9, 10, 10, 11, 11, 12, 12, 14, 14, 15, 15, 17, 17, 18, 18, 21, 21, 22, 22, 23, 23, 26, 26, 30, 30, 31, 31, 32, 32, 34, 34, 36, 36], "right_children": [2, 4, 6, 8, 10, 12, 14, -1, -1, 16, 18, 20, 22, -1, 24, 26, -1, 28, 30, -1, -1, 32, 34, 36, -1, -1, 38, -1, -1, -1, 40, 42, 44, -1, 46, -1, 48, -1, -1, -1, -1, -1, -1, -1, -1, -1, -1, -1, -1], "split_conditions": [2.00001, 2.00001, -0.2433335, -0.25143486, -0.24762253, 2.00001, 2.00001, 78.64027, 226.99649, 2.00001, 2.00001, -0.854864, -0.29777196, -76.54479, -0.09001255, -0.23581864, -60.488506, -0.40615854, 2.00001, -22.548117, -78.76555, -0.17194118, 2.00001, 2.00001, -64.366684, 43.186153, 2.00001, 16.625097, 63.640102, -9.076306, -0.113272145, 2.00001, 2.00001, 10.435107, 2.00001, -30.83254, 0.62172836, 24.755976, 1.8946021, -90.01589, -108.16001, -68.16357, 9.388606, -12.48022, 59.858864, -68.41833, 102.76281, 203.50714, -15.714404], "split_indices": [78, 18, 4, 4, 5, 66, 89, 0, 0, 121, 84, 3, 4, 0, 4, 0, 0, 0, 103, 0, 0, 0, 65, 67, 0, 0, 87, 0, 0, 0, 4, 70, 74, 0, 93, 0, 2, 0, 0, 0, 0, 0, 0, 0, 0, 0, 0, 0, 0], "split_type": [0, 0, 0, 0, 0, 0, 0, 0, 0, 0, 0, 0, 0, 0, 0, 0, 0, 0, 0, 0, 0, 0, 0, 0, 0, 0, 0, 0, 0, 0, 0, 0, 0, 0, 0, 0, 0, 0, 0, 0, 0, 0, 0, 0, 0, 0, 0, 0, 0], "sum_hessian": [492.0, 223.0, 269.0, 5.0, 218.0, 226.0, 43.0, 2.0, 3.0, 11.0, 207.0, 9.0, 217.0, 3.0, 40.0, 9.0, 2.0, 2.0, 205.0, 1.0, 8.0, 104.0, 113.0, 38.0, 2.0, 4.0, 5.0, 1.0, 1.0, 1.0, 204.0, 59.0, 45.0, 16.0, 97.0, 2.0, 36.0, 1.0, 4.0, 162.0, 42.0, 2.0, 57.0, 8.0, 37.0, 2.0, 95.0, 34.0, 2.0], "tree_param": {"num_deleted": "0", "num_feature": "126", "num_nodes": "49", "size_leaf_vector": "1"}}, {"base_weights": [2.5734289, -720.1144, 602.12714, 1766.7994, -784.9608, 504.63315, 1734.0972, 73.397575, 209.97173, 70.86666, -830.56165, -71.36401, 558.36804, 2269.5547, -433.27817, 254.4078, -56.45594, 508.34622, -846.02844, 214.37975, 819.84155, -13.31792, 2428.0493, 25.651428, -66.98549, 39.73126, 92.91917, 15.793841, 60.458096, -8.622492, -849.3142, 34.644146, 419.08484, 1084.0905, 486.96237, 42.206432, 253.36441, 23.518177, 1.7430298, -81.06953, -97.59554, 6.634501, -30.831385, -63.61933, 47.752636, 82.78127, 150.90358, 19.745342, 93.71243], "categories": [], "categories_nodes": [], "categories_segments": [], "categories_sizes": [], "default_left": [0, 0, 0, 0, 0, 0, 0, 0, 0, 0, 0, 0, 0, 0, 0, 0, 0, 0, 0, 0, 0, 0, 0, 0, 0, 0, 0, 0, 0, 0, 0, 0, 0, 0, 1, 0, 0, 0, 0, 0, 0, 0, 0, 0, 0, 0, 0, 0, 0], "id": 4, "left_children": [1, 3, 5, 7, 9, 11, 13, -1, -1, 15, 17, -1, 19, 21, 23, 25, -1, 27, 29, 31, 33, -1, 35, -1, -1, -1, 37, -1, -1, -1, 39, 41, 43, 45, 47, -1, -1, -1, -1, -1, -1, -1, -1, -1, -1, -1, -1, -1, -1], "loss_changes": [214045650.0, 37510790.0, 28922200.0, 521932.0, 8605664.0, 16764420.0, 25354640.0, 0.0, 0.0, 1543150.1, 4737456.0, 0.0, 21410760.0, 6797304.0, 987771.3, 193857.0, 0.0, 5677.5625, 441056.0, 3848725.0, 11435056.0, 0.0, 2319792.0, 0.0, 0.0, 0.0, 60336.168, 0.0, 0.0, 0.0, 211392.0, 640162.7, 3325727.0, 6918600.0, 7895169.0, 0.0, 0.0, 0.0, 0.0, 0.0, 0.0, 0.0, 0.0, 0.0, 0.0, 0.0, 0.0, 0.0, 0.0], "parents": [2147483647, 0, 0, 1, 1, 2, 2, 3, 3, 4, 4, 5, 5, 6, 6, 9, 9, 10, 10, 12, 12, 13, 13, 14, 14, 15, 15, 17, 17, 18, 18, 19, 19, 20, 20, 22, 22, 26, 26, 30, 30, 31, 31, 32, 32, 33, 33, 34, 34], "right_children": [2, 4, 6, 8, 10, 12, 14, -1, -1, 16, 18, -1, 20, 22, 24, 26, -1, 28, 30, 32, 34, -1, 36, -1, -1, -1, 38, -1, -1, -1, 40, 42, 44, 46, 48, -1, -1, -1, -1, -1, -1, -1, -1, -1, -1, -1, -1, -1, -1], "split_conditions": [2.00001, 2.00001, -0.22023882, -0.25143486, -0.24762253, 2.00001, -0.11225175, 73.397575, 209.97173, 2.00001, 2.00001, -71.36401, -0.29777196, 2.00001, 0.445541, -0.23581864, -56.45594, -0.40615854, 2.00001, -0.31869873, 0.2634131, -13.31792, 2.00001, 25.651428, -66.98549, 39.73126, 2.00001, 15.793841, 60.458096, -8.622492, -0.113272145, 2.00001, 2.00001, -0.26414, -1.0721009, 42.206432, 253.36441, 23.518177, 1.7430298, -81.06953, -97.59554, 6.634501, -30.831385, -63.61933, 47.752636, 82.78127, 150.90358, 19.745342, 93.71243], "split_indices": [78, 18, 4, 4, 5, 66, 4, 0, 0, 121, 84, 0, 4, 67, 0, 0, 0, 0, 103, 4, 3, 0, 75, 0, 0, 0, 87, 0, 0, 0, 4, 121, 70, 4, 1, 0, 0, 0, 0, 0, 0, 0, 0, 0, 0, 0, 0, 0, 0], "split_type": [0, 0, 0, 0, 0, 0, 0, 0, 0, 0, 0, 0, 0, 0, 0, 0, 0, 0, 0, 0, 0, 0, 0, 0, 0, 0, 0, 0, 0, 0, 0, 0, 0, 0, 0, 0, 0, 0, 0, 0, 0, 0, 0, 0, 0, 0, 0, 0, 0], "sum_hessian": [492.0, 223.0, 269.0, 5.0, 218.0, 249.0, 20.0, 2.0, 3.0, 11.0, 207.0, 10.0, 239.0, 16.0, 4.0, 9.0, 2.0, 2.0, 205.0, 104.0, 135.0, 1.0, 15.0, 1.0, 3.0, 4.0, 5.0, 1.0, 1.0, 1.0, 204.0, 56.0, 48.0, 74.0, 61.0, 1.0, 14.0, 1.0, 4.0, 162.0, 42.0, 52.0, 4.0, 2.0, 46.0, 48.0, 26.0, 38.0, 23.0], "tree_param": {"num_deleted": "0", "num_feature": "126", "num_nodes": "49", "size_leaf_vector": "1"}}, {"base_weights": [3.6497538, -647.2955, 543.6797, 1637.3478, -706.93274, 455.11264, 1572.1597, 84.351265, 215.0012, 64.49139, -748.03925, -648.76373, 503.81067, 2059.2024, -398.21716, 235.46628, -52.692207, 482.92892, -762.3347, -17.852512, -67.79351, 192.56018, 740.40985, -12.652026, 2203.7175, 24.36886, -61.961575, 36.552765, 87.83744, 15.00415, 57.43519, -8.19137, -765.2543, 38.24638, 389.65298, 978.7971, 440.09607, 40.096107, 229.71704, 22.342268, 1.6035864, -73.01231, -88.06296, -59.37804, 7.0278, 111.53174, 29.398691, 74.67207, 136.37212, 17.821436, 84.73165], "categories": [], "categories_nodes": [], "categories_segments": [], "categories_sizes": [], "default_left": [0, 0, 0, 0, 0, 0, 0, 0, 0, 0, 0, 0, 0, 0, 0, 0, 0, 0, 0, 0, 0, 0, 0, 0, 0, 0, 0, 0, 0, 0, 0, 0, 0, 0, 0, 0, 1, 0, 0, 0, 0, 0, 0, 0, 0, 0, 0, 0, 0, 0, 0], "id": 5, "left_children": [1, 3, 5, 7, 9, 11, 13, -1, -1, 15, 17, 19, 21, 23, 25, 27, -1, 29, 31, -1, -1, 33, 35, -1, 37, -1, -1, -1, 39, -1, -1, -1, 41, 43, 45, 47, 49, -1, -1, -1, -1, -1, -1, -1, -1, -1, -1, -1, -1, -1, -1], "loss_changes": [173656160.0, 31677472.0, 23878632.0, 628263.0, 6992856.0, 13766008.0, 20972816.0, 0.0, 0.0, 1337474.8, 4028392.0, 29864.0, 17531412.0, 5648616.0, 861578.4, 159901.06, 0.0, 5124.0, 346536.0, 0.0, 0.0, 3178581.8, 9305608.0, 0.0, 1774488.0, 0.0, 0.0, 0.0, 54828.617, 0.0, 0.0, 0.0, 187952.0, 1256420.1, 2865498.5, 5681568.0, 6460899.0, 0.0, 0.0, 0.0, 0.0, 0.0, 0.0, 0.0, 0.0, 0.0, 0.0, 0.0, 0.0, 0.0, 0.0], "parents": [2147483647, 0, 0, 1, 1, 2, 2, 3, 3, 4, 4, 5, 5, 6, 6, 9, 9, 10, 10, 11, 11, 12, 12, 13, 13, 14, 14, 15, 15, 17, 17, 18, 18, 21, 21, 22, 22, 24, 24, 28, 28, 32, 32, 33, 33, 34, 34, 35, 35, 36, 36], "right_children": [2, 4, 6, 8, 10, 12, 14, -1, -1, 16, 18, 20, 22, 24, 26, 28, -1, 30, 32, -1, -1, 34, 36, -1, 38, -1, -1, -1, 40, -1, -1, -1, 42, 44, 46, 48, 50, -1, -1, -1, -1, -1, -1, -1, -1, -1, -1, -1, -1, -1, -1], "split_conditions": [2.00001, 2.00001, -0.22023882, 0.8288058, -0.24762253, 2.00001, -0.11225175, 84.351265, 215.0012, 2.00001, 2.00001, -0.854864, -0.29777196, 2.00001, 0.445541, -0.23581864, -52.692207, -0.40615854, 2.00001, -17.852512, -67.79351, -0.17194118, 0.2634131, -12.652026, 2.00001, 24.36886, -61.961575, 36.552765, 2.00001, 15.00415, 57.43519, -8.19137, -0.113272145, 2.00001, 2.00001, -0.26414, -1.0721009, 40.096107, 229.71704, 22.342268, 1.6035864, -73.01231, -88.06296, -59.37804, 7.0278, 111.53174, 29.398691, 74.67207, 136.37212, 17.821436, 84.73165], "split_indices": [78, 18, 4, 0, 5, 66, 4, 0, 0, 121, 84, 3, 4, 67, 0, 0, 0, 0, 103, 0, 0, 0, 3, 0, 75, 0, 0, 0, 87, 0, 0, 0, 4, 70, 122, 4, 1, 0, 0, 0, 0, 0, 0, 0, 0, 0, 0, 0, 0, 0, 0], "split_type": [0, 0, 0, 0, 0, 0, 0, 0, 0, 0, 0, 0, 0, 0, 0, 0, 0, 0, 0, 0, 0, 0, 0, 0, 0, 0, 0, 0, 0, 0, 0, 0, 0, 0, 0, 0, 0, 0, 0, 0, 0, 0, 0, 0, 0, 0, 0, 0, 0, 0, 0], "sum_hessian": [492.0, 223.0, 269.0, 5.0, 218.0, 249.0, 20.0, 3.0, 2.0, 11.0, 207.0, 10.0, 239.0, 16.0, 4.0, 9.0, 2.0, 2.0, 205.0, 1.0, 9.0, 104.0, 135.0, 1.0, 15.0, 1.0, 3.0, 4.0, 5.0, 1.0, 1.0, 1.0, 204.0, 59.0, 45.0, 74.0, 61.0, 1.0, 14.0, 1.0, 4.0, 162.0, 42.0, 2.0, 57.0, 4.0, 41.0, 48.0, 26.0, 38.0, 23.0], "tree_param": {"num_deleted": "0", "num_feature": "126", "num_nodes": "51", "size_leaf_vector": "1"}}, {"base_weights": [4.798836, -581.62695, 491.29724, 1523.505, -636.64594, 410.8675, 1425.3994, 78.02492, 200.66779, 58.69278, -673.70087, -591.6734, 455.10535, 1868.4092, -365.914, 217.96951, -49.179394, 458.78247, -686.9229, -16.959885, -61.692104, 174.14777, 668.67474, -12.019427, 2000.2091, 23.150415, -57.31446, 258.5055, -7.3427124, 14.253943, 54.563427, -7.7817993, -689.5146, -3.7210853, 329.8495, 894.5399, 408.19833, 38.091297, 208.27678, 35.09884, 5.5154757, -65.75587, -79.461464, 2.8856807, -30.269348, -55.419502, 37.285473, -36.17539, 95.44042, 91.55959, 25.095984], "categories": [], "categories_nodes": [], "categories_segments": [], "categories_sizes": [], "default_left": [0, 0, 0, 0, 0, 0, 0, 0, 0, 0, 0, 0, 0, 0, 0, 0, 0, 0, 0, 0, 0, 0, 0, 0, 0, 0, 0, 0, 0, 0, 0, 0, 0, 0, 0, 0, 0, 0, 0, 0, 0, 0, 0, 0, 0, 0, 0, 0, 0, 0, 0], "id": 6, "left_children": [1, 3, 5, 7, 9, 11, 13, -1, -1, 15, 17, 19, 21, 23, 25, 27, -1, 29, 31, -1, -1, 33, 35, -1, 37, -1, -1, 39, -1, -1, -1, -1, 41, 43, 45, 47, 49, -1, -1, -1, -1, -1, -1, -1, -1, -1, -1, -1, -1, -1, -1], "loss_changes": [140936290.0, 26914128.0, 19699344.0, 589018.0, 5682232.0, 11356840.0, 17348636.0, 0.0, 0.0, 1159352.6, 3429696.0, 12590.75, 14284492.0, 4696072.0, 751701.94, 137101.75, 0.0, 4624.4375, 271536.0, 0.0, 0.0, 2909148.2, 7636080.0, 0.0, 1345644.0, 0.0, 0.0, 149899.5, 0.0, 0.0, 0.0, 0.0, 166000.0, 495729.28, 2335674.5, 5760176.0, 4956080.0, 0.0, 0.0, 0.0, 0.0, 0.0, 0.0, 0.0, 0.0, 0.0, 0.0, 0.0, 0.0, 0.0, 0.0], "parents": [2147483647, 0, 0, 1, 1, 2, 2, 3, 3, 4, 4, 5, 5, 6, 6, 9, 9, 10, 10, 11, 11, 12, 12, 13, 13, 14, 14, 15, 15, 17, 17, 18, 18, 21, 21, 22, 22, 24, 24, 27, 27, 32, 32, 33, 33, 34, 34, 35, 35, 36, 36], "right_children": [2, 4, 6, 8, 10, 12, 14, -1, -1, 16, 18, 20, 22, 24, 26, 28, -1, 30, 32, -1, -1, 34, 36, -1, 38, -1, -1, 40, -1, -1, -1, -1, 42, 44, 46, 48, 50, -1, -1, -1, -1, -1, -1, -1, -1, -1, -1, -1, -1, -1, -1], "split_conditions": [2.00001, 2.00001, -0.22023882, 0.8288058, -0.24762253, 2.00001, -0.11225175, 78.02492, 200.66779, 2.00001, 2.00001, -0.854864, -0.29777196, 2.00001, 0.445541, 0.9352682, -49.179394, -0.40615854, 2.00001, -16.959885, -61.692104, -0.324773, 0.24830125, -12.019427, 2.00001, 23.150415, -57.31446, -0.28244537, -7.3427124, 14.253943, 54.563427, -7.7817993, -0.113272145, 2.00001, 2.00001, 2.00001, 2.00001, 38.091297, 208.27678, 35.09884, 5.5154757, -65.75587, -79.461464, 2.8856807, -30.269348, -55.419502, 37.285473, -36.17539, 95.44042, 91.55959, 25.095984], "split_indices": [78, 18, 4, 0, 5, 66, 4, 0, 0, 121, 84, 3, 4, 67, 0, 0, 0, 0, 103, 0, 0, 4, 3, 0, 75, 0, 0, 4, 0, 0, 0, 0, 4, 121, 70, 54, 56, 0, 0, 0, 0, 0, 0, 0, 0, 0, 0, 0, 0, 0, 0], "split_type": [0, 0, 0, 0, 0, 0, 0, 0, 0, 0, 0, 0, 0, 0, 0, 0, 0, 0, 0, 0, 0, 0, 0, 0, 0, 0, 0, 0, 0, 0, 0, 0, 0, 0, 0, 0, 0, 0, 0, 0, 0, 0, 0, 0, 0, 0, 0, 0, 0, 0, 0], "sum_hessian": [492.0, 223.0, 269.0, 5.0, 218.0, 249.0, 20.0, 3.0, 2.0, 11.0, 207.0, 10.0, 239.0, 16.0, 4.0, 9.0, 2.0, 2.0, 205.0, 1.0, 9.0, 104.0, 135.0, 1.0, 15.0, 1.0, 3.0, 8.0, 1.0, 1.0, 1.0, 1.0, 204.0, 49.0, 55.0, 71.0, 64.0, 1.0, 14.0, 5.0, 3.0, 162.0, 42.0, 45.0, 4.0, 2.0, 53.0, 3.0, 68.0, 14.0, 50.0], "tree_param": {"num_deleted": "0", "num_feature": "126", "num_nodes": "51", "size_leaf_vector": "1"}}, {"base_weights": [5.1922593, -522.6669, 443.10062, 1417.6034, -573.43835, 369.98776, 1292.392, 72.17305, 187.28995, 51.497845, -606.7355, -539.65625, 410.13815, 1695.3535, -336.1554, 199.4997, -45.90076, 435.84335, -618.9733, -16.111893, -56.139812, 216.89754, 665.06116, -11.418457, 1815.5862, 21.992895, -53.015877, 237.1676, -6.975574, 13.541247, 51.835255, -7.3927064, -621.2715, 14.800609, 354.73447, 836.2146, 126.0215, 36.186733, 188.83763, 32.17393, 5.101813, -59.22062, -71.70011, -11.133568, 8.079864, 38.089615, -88.21816, 95.27328, 11.597044, 60.950825, -4.949994], "categories": [], "categories_nodes": [], "categories_segments": [], "categories_sizes": [], "default_left": [0, 0, 0, 0, 0, 0, 0, 0, 0, 0, 0, 0, 0, 0, 0, 0, 0, 0, 0, 0, 0, 0, 0, 0, 0, 0, 0, 0, 0, 0, 0, 0, 0, 0, 0, 0, 0, 0, 0, 0, 0, 0, 0, 0, 0, 0, 0, 0, 0, 0, 0], "id": 7, "left_children": [1, 3, 5, 7, 9, 11, 13, -1, -1, 15, 17, 19, 21, 23, 25, 27, -1, 29, 31, -1, -1, 33, 35, -1, 37, -1, -1, 39, -1, -1, -1, -1, 41, 43, 45, 47, 49, -1, -1, -1, -1, -1, -1, -1, -1, -1, -1, -1, -1, -1, -1], "loss_changes": [114190490.0, 22879236.0, 16287248.0, 549240.0, 4588328.0, 9351976.0, 14350980.0, 0.0, 0.0, 998240.94, 2923632.0, 79.25, 11678508.0, 3905928.0, 656008.3, 117966.66, 0.0, 4173.5, 212104.0, 0.0, 0.0, 3838935.5, 9397240.0, 0.0, 1009720.0, 0.0, 0.0, 125272.28, 0.0, 0.0, 0.0, 0.0, 145784.0, 483506.3, 2989526.0, 6435388.0, 2236590.5, 0.0, 0.0, 0.0, 0.0, 0.0, 0.0, 0.0, 0.0, 0.0, 0.0, 0.0, 0.0, 0.0, 0.0], "parents": [2147483647, 0, 0, 1, 1, 2, 2, 3, 3, 4, 4, 5, 5, 6, 6, 9, 9, 10, 10, 11, 11, 12, 12, 13, 13, 14, 14, 15, 15, 17, 17, 18, 18, 21, 21, 22, 22, 24, 24, 27, 27, 32, 32, 33, 33, 34, 34, 35, 35, 36, 36], "right_children": [2, 4, 6, 8, 10, 12, 14, -1, -1, 16, 18, 20, 22, 24, 26, 28, -1, 30, 32, -1, -1, 34, 36, -1, 38, -1, -1, 40, -1, -1, -1, -1, 42, 44, 46, 48, 50, -1, -1, -1, -1, -1, -1, -1, -1, -1, -1, -1, -1, -1, -1], "split_conditions": [2.00001, 2.00001, -0.22023882, 0.8288058, -0.24762253, 2.00001, -0.11225175, 72.17305, 187.28995, 2.00001, 2.00001, -0.854864, -0.2856371, 2.00001, 0.445541, 0.9352682, -45.90076, -0.40615854, 2.00001, -16.111893, -56.139812, -0.31869873, 2.00001, -11.418457, 2.00001, 21.992895, -53.015877, -0.28244537, -6.975574, 13.541247, 51.835255, -7.3927064, -0.113272145, -0.20316893, -0.2858295, 2.00001, 2.00001, 36.186733, 188.83763, 32.17393, 5.101813, -59.22062, -71.70011, -11.133568, 8.079864, 38.089615, -88.21816, 95.27328, 11.597044, 60.950825, -4.949994], "split_indices": [78, 18, 4, 0, 5, 66, 4, 0, 0, 121, 84, 3, 4, 67, 0, 0, 0, 0, 103, 0, 0, 4, 117, 0, 75, 0, 0, 4, 0, 0, 0, 0, 4, 5, 4, 115, 40, 0, 0, 0, 0, 0, 0, 0, 0, 0, 0, 0, 0, 0, 0], "split_type": [0, 0, 0, 0, 0, 0, 0, 0, 0, 0, 0, 0, 0, 0, 0, 0, 0, 0, 0, 0, 0, 0, 0, 0, 0, 0, 0, 0, 0, 0, 0, 0, 0, 0, 0, 0, 0, 0, 0, 0, 0, 0, 0, 0, 0, 0, 0, 0, 0, 0, 0], "sum_hessian": [492.0, 223.0, 269.0, 5.0, 218.0, 249.0, 20.0, 3.0, 2.0, 11.0, 207.0, 10.0, 239.0, 16.0, 4.0, 9.0, 2.0, 2.0, 205.0, 1.0, 9.0, 137.0, 102.0, 1.0, 15.0, 1.0, 3.0, 8.0, 1.0, 1.0, 1.0, 1.0, 204.0, 56.0, 81.0, 77.0, 25.0, 1.0, 14.0, 5.0, 3.0, 162.0, 42.0, 19.0, 37.0, 80.0, 1.0, 66.0, 11.0, 6.0, 19.0], "tree_param": {"num_deleted": "0", "num_feature": "126", "num_nodes": "51", "size_leaf_vector": "1"}}, {"base_weights": [5.466042, -469.63715, 399.60547, 1319.0868, -516.49884, 202.43208, 655.7174, 66.76006, 174.80394, 45.048004, -546.4126, 13.266986, 310.39105, -48.060375, 743.52637, 182.57974, -428.4071, 414.05118, -557.74744, -45.82512, 29.87001, -66.879196, 348.3525, 40.211937, 864.0943, 217.59259, -6.6267943, -51.703033, -12.558032, 12.864184, 49.243496, -7.0230713, -559.78296, -57.82494, 72.931435, 385.72632, -270.31314, 5.5433116, 1.0548376, 920.2752, -308.74448, 29.492771, 4.7191772, -53.33489, -64.69684, -12.168844, -0.03161732, 4.5574217, 21.12409, -36.766342, 40.70268, 4.9865723, -60.711395, 76.372574, 153.83832, 20.89325, -49.039684], "categories": [], "categories_nodes": [], "categories_segments": [], "categories_sizes": [], "default_left": [0, 0, 0, 0, 0, 0, 0, 0, 0, 0, 0, 0, 0, 0, 0, 0, 0, 0, 0, 0, 0, 0, 0, 0, 0, 0, 0, 0, 0, 0, 0, 0, 0, 0, 0, 0, 0, 0, 0, 0, 0, 0, 0, 0, 0, 0, 0, 0, 0, 0, 0, 0, 0, 0, 0, 0, 0], "id": 8, "left_children": [1, 3, 5, 7, 9, 11, 13, -1, -1, 15, 17, 19, 21, -1, 23, 25, 27, 29, 31, -1, 33, -1, 35, 37, 39, 41, -1, -1, -1, -1, -1, -1, 43, 45, 47, 49, 51, -1, -1, 53, 55, -1, -1, -1, -1, -1, -1, -1, -1, -1, -1, -1, -1, -1, -1, -1, -1], "loss_changes": [92505320.0, 19457576.0, 13501848.0, 509748.0, 3703368.0, 3140881.0, 12031500.0, 0.0, 0.0, 859599.6, 2495372.0, 459919.75, 3875756.0, 0.0, 9208144.0, 101548.09, 15583.625, 3766.625, 165112.0, 0.0, 215688.31, 0.0, 2300847.0, 7091.0156, 6412008.0, 104683.56, 0.0, 0.0, 0.0, 0.0, 0.0, 0.0, 127400.0, 69743.04, 134155.83, 1593930.0, 677293.1, 0.0, 0.0, 7437136.0, 572646.1, 0.0, 0.0, 0.0, 0.0, 0.0, 0.0, 0.0, 0.0, 0.0, 0.0, 0.0, 0.0, 0.0, 0.0, 0.0, 0.0], "parents": [2147483647, 0, 0, 1, 1, 2, 2, 3, 3, 4, 4, 5, 5, 6, 6, 9, 9, 10, 10, 11, 11, 12, 12, 14, 14, 15, 15, 16, 16, 17, 17, 18, 18, 20, 20, 22, 22, 23, 23, 24, 24, 25, 25, 32, 32, 33, 33, 34, 34, 35, 35, 36, 36, 39, 39, 40, 40], "right_children": [2, 4, 6, 8, 10, 12, 14, -1, -1, 16, 18, 20, 22, -1, 24, 26, 28, 30, 32, -1, 34, -1, 36, 38, 40, 42, -1, -1, -1, -1, -1, -1, 44, 46, 48, 50, 52, -1, -1, 54, 56, -1, -1, -1, -1, -1, -1, -1, -1, -1, -1, -1, -1, -1, -1, -1, -1], "split_conditions": [2.00001, 2.00001, -0.27995107, 0.8288058, -0.24762253, -0.31869873, 2.00001, 66.76006, 174.80394, 2.00001, 2.00001, 2.00001, 2.00001, -48.060375, 2.00001, 0.9352682, -1.7050003, -0.40615854, 2.00001, -45.82512, -0.20316893, -66.879196, 2.8928754, 2.00001, -0.11225175, -0.28244537, -6.6267943, -51.703033, -12.558032, 12.864184, 49.243496, -7.0230713, -0.113272145, -0.8320083, -0.32987845, 2.00001, 0.74363583, 5.5433116, 1.0548376, -0.22023882, 0.445541, 29.492771, 4.7191772, -53.33489, -64.69684, -12.168844, -0.03161732, 4.5574217, 21.12409, -36.766342, 40.70268, 4.9865723, -60.711395, 76.372574, 153.83832, 20.89325, -49.039684], "split_indices": [78, 18, 4, 0, 5, 4, 66, 0, 0, 121, 84, 86, 70, 0, 65, 0, 0, 0, 103, 0, 5, 0, 3, 28, 4, 4, 0, 0, 0, 0, 0, 0, 4, 0, 4, 120, 0, 0, 0, 4, 0, 0, 0, 0, 0, 0, 0, 0, 0, 0, 0, 0, 0, 0, 0, 0, 0], "split_type": [0, 0, 0, 0, 0, 0, 0, 0, 0, 0, 0, 0, 0, 0, 0, 0, 0, 0, 0, 0, 0, 0, 0, 0, 0, 0, 0, 0, 0, 0, 0, 0, 0, 0, 0, 0, 0, 0, 0, 0, 0, 0, 0, 0, 0, 0, 0, 0, 0, 0, 0, 0, 0, 0, 0, 0, 0], "sum_hessian": [492.0, 223.0, 269.0, 5.0, 218.0, 153.0, 116.0, 3.0, 2.0, 11.0, 207.0, 56.0, 97.0, 8.0, 108.0, 9.0, 2.0, 2.0, 205.0, 1.0, 55.0, 3.0, 94.0, 16.0, 92.0, 8.0, 1.0, 1.0, 1.0, 1.0, 1.0, 1.0, 204.0, 18.0, 37.0, 89.0, 5.0, 10.0, 6.0, 88.0, 4.0, 5.0, 3.0, 162.0, 42.0, 8.0, 10.0, 32.0, 5.0, 2.0, 87.0, 3.0, 2.0, 72.0, 16.0, 1.0, 3.0], "tree_param": {"num_deleted": "0", "num_feature": "126", "num_nodes": "57", "size_leaf_vector": "1"}}, {"base_weights": [5.226819, -422.03973, 359.68045, 1227.4388, -465.30383, 299.3605, 1060.6477, 61.753063, 163.15034, 37.48685, -492.07394, -464.70645, 333.1329, 1393.5941, -283.49933, 167.08025, -406.98676, 393.34866, -502.57974, -12.903275, -48.537056, 191.2954, 571.62915, -18.539448, 1503.868, 19.848585, -45.36171, 199.63461, -6.295453, -49.11788, -11.930133, 12.220978, 46.781322, -144.87248, -505.3765, 11.372866, 296.1317, 756.0555, 69.255585, 26.685474, 156.85454, 27.035038, 4.3652344, -32.79794, 11.067065, -6.671918, -50.72087, -43.533867, 2.7123764, -61.86325, 33.22922, 88.41314, 4.6943226, -70.070816, 16.667454], "categories": [], "categories_nodes": [], "categories_segments": [], "categories_sizes": [], "default_left": [0, 0, 0, 0, 0, 0, 0, 0, 0, 0, 0, 0, 0, 0, 0, 0, 0, 0, 0, 0, 0, 0, 0, 0, 0, 0, 0, 0, 0, 0, 0, 0, 0, 0, 0, 0, 0, 0, 0, 0, 0, 0, 0, 0, 0, 0, 0, 0, 0, 0, 0, 0, 0, 0, 0], "id": 9, "left_children": [1, 3, 5, 7, 9, 11, 13, -1, -1, 15, 17, 19, 21, 23, 25, 27, 29, 31, 33, -1, -1, 35, 37, -1, 39, -1, -1, 41, -1, -1, -1, -1, -1, 43, 45, 47, 49, 51, 53, -1, -1, -1, -1, -1, -1, -1, -1, -1, -1, -1, -1, -1, -1, -1, -1], "loss_changes": [74814770.0, 16556480.0, 11098712.0, 471150.0, 2966132.0, 6605900.0, 9793192.0, 0.0, 0.0, 759209.56, 2132520.0, 13671.5, 8009300.0, 3238870.0, 500007.75, 87454.28, 14064.1875, 3399.375, 132876.0, 0.0, 0.0, 2863719.5, 8193568.0, 0.0, 861536.0, 0.0, 0.0, 87472.16, 0.0, 0.0, 0.0, 0.0, 0.0, 176672.81, 130116.0, 412866.12, 3381086.0, 5861816.0, 1992016.4, 0.0, 0.0, 0.0, 0.0, 0.0, 0.0, 0.0, 0.0, 0.0, 0.0, 0.0, 0.0, 0.0, 0.0, 0.0, 0.0], "parents": [2147483647, 0, 0, 1, 1, 2, 2, 3, 3, 4, 4, 5, 5, 6, 6, 9, 9, 10, 10, 11, 11, 12, 12, 13, 13, 14, 14, 15, 15, 16, 16, 17, 17, 18, 18, 21, 21, 22, 22, 24, 24, 27, 27, 33, 33, 34, 34, 35, 35, 36, 36, 37, 37, 38, 38], "right_children": [2, 4, 6, 8, 10, 12, 14, -1, -1, 16, 18, 20, 22, 24, 26, 28, 30, 32, 34, -1, -1, 36, 38, -1, 40, -1, -1, 42, -1, -1, -1, -1, -1, 44, 46, 48, 50, 52, 54, -1, -1, -1, -1, -1, -1, -1, -1, -1, -1, -1, -1, -1, -1, -1, -1], "split_conditions": [2.00001, 2.00001, -0.22023882, 0.8288058, -0.24762253, 2.00001, -0.11225175, 61.753063, 163.15034, 2.00001, 2.00001, -0.854864, -0.27995107, 2.00001, 0.445541, 0.9352682, -1.7050003, -0.40615854, 2.00001, -12.903275, -48.537056, -0.31869873, 2.00001, -18.539448, 2.00001, 19.848585, -45.36171, -0.28244537, -6.295453, -49.11788, -11.930133, 12.220978, 46.781322, -0.9384707, 2.00001, 2.00001, 2.00001, 2.00001, 2.00001, 26.685474, 156.85454, 27.035038, 4.3652344, -32.79794, 11.067065, -6.671918, -50.72087, -43.533867, 2.7123764, -61.86325, 33.22922, 88.41314, 4.6943226, -70.070816, 16.667454], "split_indices": [78, 18, 4, 0, 5, 66, 4, 0, 0, 121, 84, 3, 4, 67, 0, 0, 0, 0, 77, 0, 0, 4, 117, 0, 75, 0, 0, 4, 0, 0, 0, 0, 0, 0, 103, 86, 70, 115, 54, 0, 0, 0, 0, 0, 0, 0, 0, 0, 0, 0, 0, 0, 0, 0, 0], "split_type": [0, 0, 0, 0, 0, 0, 0, 0, 0, 0, 0, 0, 0, 0, 0, 0, 0, 0, 0, 0, 0, 0, 0, 0, 0, 0, 0, 0, 0, 0, 0, 0, 0, 0, 0, 0, 0, 0, 0, 0, 0, 0, 0, 0, 0, 0, 0, 0, 0, 0, 0, 0, 0, 0, 0], "sum_hessian": [492.0, 223.0, 269.0, 5.0, 218.0, 249.0, 20.0, 3.0, 2.0, 11.0, 207.0, 10.0, 239.0, 16.0, 4.0, 9.0, 2.0, 2.0, 205.0, 1.0, 9.0, 151.0, 88.0, 1.0, 15.0, 1.0, 3.0, 8.0, 1.0, 1.0, 1.0, 1.0, 1.0, 2.0, 203.0, 56.0, 95.0, 64.0, 24.0, 1.0, 14.0, 5.0, 3.0, 1.0, 1.0, 1.0, 202.0, 1.0, 55.0, 3.0, 92.0, 54.0, 10.0, 2.0, 22.0], "tree_param": {"num_deleted": "0", "num_feature": "126", "num_nodes": "55", "size_leaf_vector": "1"}}, {"base_weights": [5.1445746, -379.08203, 323.8913, 1142.1787, -419.02942, 269.05966, 961.2252, 57.12158, 152.27365, 181.4122, -436.79498, 240.37369, 110.676384, 1263.9407, -260.25204, 23.640387, -7.4268923, 44.44226, -443.048, -423.8213, 270.69888, -17.612476, 1364.9525, 18.856153, -41.959583, 92.443214, -453.79034, -12.258109, -44.168724, 539.5271, 178.51852, 25.351196, 142.21477, 15.03512, 4.037842, -42.717003, -54.33031, -71.72802, 59.62095, 11.225997, 47.110336], "categories": [], "categories_nodes": [], "categories_segments": [], "categories_sizes": [], "default_left": [0, 0, 0, 0, 0, 0, 0, 0, 0, 0, 0, 0, 0, 0, 0, 0, 0, 0, 0, 0, 0, 0, 0, 0, 0, 0, 0, 0, 0, 0, 0, 0, 0, 0, 0, 0, 0, 0, 0, 0, 0], "id": 10, "left_children": [1, 3, 5, 7, 9, 11, 13, -1, -1, 15, 17, 19, -1, 21, 23, -1, -1, -1, 25, 27, 29, -1, 31, -1, -1, 33, 35, -1, -1, 37, 39, -1, -1, -1, -1, -1, -1, -1, -1, -1, -1], "loss_changes": [60500964.0, 14091186.0, 9176810.0, 433895.0, 2415352.0, 5741556.0, 8093902.0, 0.0, 0.0, 115979.766, 1370588.0, 5009197.0, 0.0, 2713286.0, 436697.88, 0.0, 0.0, 0.0, 1261464.0, 5058.75, 5677582.0, 0.0, 656574.0, 0.0, 0.0, 9003.895, 263548.0, 0.0, 0.0, 4630738.0, 3339707.5, 0.0, 0.0, 0.0, 0.0, 0.0, 0.0, 0.0, 0.0, 0.0, 0.0], "parents": [2147483647, 0, 0, 1, 1, 2, 2, 3, 3, 4, 4, 5, 5, 6, 6, 9, 9, 10, 10, 11, 11, 13, 13, 14, 14, 18, 18, 19, 19, 20, 20, 22, 22, 25, 25, 26, 26, 29, 29, 30, 30], "right_children": [2, 4, 6, 8, 10, 12, 14, -1, -1, 16, 18, 20, -1, 22, 24, -1, -1, -1, 26, 28, 30, -1, 32, -1, -1, 34, 36, -1, -1, 38, 40, -1, -1, -1, -1, -1, -1, -1, -1, -1, -1], "split_conditions": [2.00001, 2.00001, -0.22023882, 0.8288058, -1.262884, 2.00001, -0.11225175, 57.12158, 152.27365, -0.23581864, 2.00001, 2.00001, 110.676384, 2.00001, 0.445541, 23.640387, -7.4268923, 44.44226, 2.00001, -0.854864, 0.1406745, -17.612476, 2.00001, 18.856153, -41.959583, -0.28244537, 2.00001, -12.258109, -44.168724, 2.00001, 0.9139757, 25.351196, 142.21477, 15.03512, 4.037842, -42.717003, -54.33031, -71.72802, 59.62095, 11.225997, 47.110336], "split_indices": [78, 18, 4, 0, 3, 17, 4, 0, 0, 0, 84, 66, 0, 67, 0, 0, 0, 0, 57, 3, 1, 0, 75, 0, 0, 4, 109, 0, 0, 69, 0, 0, 0, 0, 0, 0, 0, 0, 0, 0, 0], "split_type": [0, 0, 0, 0, 0, 0, 0, 0, 0, 0, 0, 0, 0, 0, 0, 0, 0, 0, 0, 0, 0, 0, 0, 0, 0, 0, 0, 0, 0, 0, 0, 0, 0, 0, 0, 0, 0, 0, 0, 0, 0], "sum_hessian": [492.0, 223.0, 269.0, 5.0, 218.0, 249.0, 20.0, 3.0, 2.0, 6.0, 212.0, 242.0, 7.0, 16.0, 4.0, 5.0, 1.0, 1.0, 211.0, 10.0, 232.0, 1.0, 15.0, 1.0, 3.0, 4.0, 207.0, 1.0, 9.0, 58.0, 174.0, 1.0, 14.0, 1.0, 3.0, 164.0, 43.0, 2.0, 56.0, 143.0, 31.0], "tree_param": {"num_deleted": "0", "num_feature": "126", "num_nodes": "41", "size_leaf_vector": "1"}}, {"base_weights": [5.480839, -340.31635, 292.34412, 1062.8601, -377.20557, 137.54631, 493.59644, 20.882765, 119.1901, 165.58719, -393.27292, -60.48521, 156.30159, -36.29832, 559.7948, 21.670355, -7.055548, 42.220142, -399.11102, 1.860644, 260.95755, 10.326222, 654.216, 87.01347, -408.8779, -108.51114, 61.039146, 297.74295, -303.66187, 2.5036056, -1.4264405, -62.018093, 689.03986, 14.283362, 3.7350037, -38.471195, -49.02076, -7.2047205, -43.712692, 2.914243, 24.224627, -34.513798, 31.739237, 0.068566896, -60.8238, 78.05261, 8.008181], "categories": [], "categories_nodes": [], "categories_segments": [], "categories_sizes": [], "default_left": [0, 0, 0, 0, 0, 0, 0, 0, 0, 0, 0, 0, 0, 0, 0, 0, 0, 0, 0, 0, 0, 0, 0, 0, 0, 0, 0, 0, 0, 0, 0, 0, 0, 0, 0, 0, 0, 0, 0, 0, 0, 0, 0, 0, 0, 0, 0], "id": 11, "left_children": [1, 3, 5, 7, 9, 11, 13, -1, -1, 15, 17, -1, 19, -1, 21, -1, -1, -1, 23, 25, 27, 29, 31, 33, 35, 37, 39, 41, 43, -1, -1, -1, 45, -1, -1, -1, -1, -1, -1, -1, -1, -1, -1, -1, -1, -1, -1], "loss_changes": [49003376.0, 11995628.0, 8343530.0, 412328.5, 1975070.0, 2238818.5, 6837584.0, 0.0, 0.0, 99784.92, 1182560.0, 0.0, 2440152.2, 0.0, 5648324.0, 0.0, 0.0, 0.0, 1042136.0, 411584.9, 1959691.0, 6506.4326, 4554620.0, 8526.262, 220216.0, 232124.0, 229916.77, 1183283.0, 556598.94, 0.0, 0.0, 0.0, 5007224.0, 0.0, 0.0, 0.0, 0.0, 0.0, 0.0, 0.0, 0.0, 0.0, 0.0, 0.0, 0.0, 0.0, 0.0], "parents": [2147483647, 0, 0, 1, 1, 2, 2, 3, 3, 4, 4, 5, 5, 6, 6, 9, 9, 10, 10, 12, 12, 14, 14, 18, 18, 19, 19, 20, 20, 21, 21, 22, 22, 23, 23, 24, 24, 25, 25, 26, 26, 27, 27, 28, 28, 32, 32], "right_children": [2, 4, 6, 8, 10, 12, 14, -1, -1, 16, 18, -1, 20, -1, 22, -1, -1, -1, 24, 26, 28, 30, 32, 34, 36, 38, 40, 42, 44, -1, -1, -1, 46, -1, -1, -1, -1, -1, -1, -1, -1, -1, -1, -1, -1, -1, -1], "split_conditions": [2.00001, 2.00001, -0.27995107, -0.27995107, -1.262884, 2.00001, 2.00001, 20.882765, 119.1901, -0.23581864, 2.00001, -60.48521, -0.3156444, -36.29832, 2.00001, 21.670355, -7.055548, 42.220142, 2.00001, -0.20316893, 2.8928754, 2.00001, 2.00001, -0.28244537, 2.00001, 1.318533, 0.402956, 2.00001, 0.74363583, 2.5036056, -1.4264405, -62.018093, 2.00001, 14.283362, 3.7350037, -38.471195, -49.02076, -7.2047205, -43.712692, 2.914243, 24.224627, -34.513798, 31.739237, 0.068566896, -60.8238, 78.05261, 8.008181], "split_indices": [78, 18, 4, 4, 3, 70, 66, 0, 0, 0, 84, 0, 4, 0, 65, 0, 0, 0, 57, 5, 3, 28, 69, 4, 109, 0, 0, 120, 0, 0, 0, 0, 115, 0, 0, 0, 0, 0, 0, 0, 0, 0, 0, 0, 0, 0, 0], "split_type": [0, 0, 0, 0, 0, 0, 0, 0, 0, 0, 0, 0, 0, 0, 0, 0, 0, 0, 0, 0, 0, 0, 0, 0, 0, 0, 0, 0, 0, 0, 0, 0, 0, 0, 0, 0, 0, 0, 0, 0, 0, 0, 0, 0, 0, 0, 0], "sum_hessian": [492.0, 223.0, 269.0, 5.0, 218.0, 153.0, 116.0, 1.0, 4.0, 6.0, 212.0, 3.0, 150.0, 8.0, 108.0, 5.0, 1.0, 1.0, 211.0, 61.0, 89.0, 16.0, 92.0, 4.0, 207.0, 21.0, 40.0, 84.0, 5.0, 10.0, 6.0, 2.0, 90.0, 1.0, 3.0, 164.0, 43.0, 20.0, 1.0, 35.0, 5.0, 2.0, 82.0, 3.0, 2.0, 78.0, 12.0], "tree_param": {"num_deleted": "0", "num_feature": "126", "num_nodes": "47", "size_leaf_vector": "1"}}, {"base_weights": [4.8687735, -305.71582, 262.5209, 979.9195, -339.54272, 122.83198, 444.1412, 46.355877, 134.17607, 33.396847, -359.42606, 598.1911, 96.1265, -330.71805, 504.04575, 137.61351, -325.12433, 329.69016, -367.71695, 312.49728, 129.90239, -55.94882, 113.67048, -9.830289, -34.748207, 626.0679, 145.84439, 20.09963, 61.858948, -41.494434, -7.2742157, 9.344391, 40.10913, -210.54874, -374.6615, -4.236731, 37.870262, -5.6672854, 226.63414, 713.6972, -67.47015, 569.0323, -106.83513, 13.569196, 1.9953955, -26.074986, 14.57312, -18.454256, -37.969402, -22.147291, 5.122309, 33.37693, 5.8376956, -47.38809, 75.43978, 42.31027, -46.503582, 81.04065, -5.5974183, 0.9356912, -72.9645], "categories": [], "categories_nodes": [], "categories_segments": [], "categories_sizes": [], "default_left": [0, 0, 0, 0, 0, 0, 0, 0, 0, 0, 0, 1, 0, 0, 0, 0, 0, 0, 0, 0, 0, 0, 0, 0, 0, 0, 0, 0, 0, 0, 0, 0, 0, 0, 0, 0, 0, 0, 0, 0, 0, 0, 0, 0, 0, 0, 0, 0, 0, 0, 0, 0, 0, 0, 0, 0, 0, 0, 0, 0, 0], "id": 12, "left_children": [1, 3, 5, 7, 9, 11, 13, -1, -1, 15, 17, 19, 21, 23, 25, 27, 29, 31, 33, 35, -1, -1, 37, -1, -1, 39, 41, -1, 43, -1, -1, -1, -1, 45, 47, -1, -1, 49, 51, 53, 55, 57, 59, -1, -1, -1, -1, -1, -1, -1, -1, -1, -1, -1, -1, -1, -1, -1, -1, -1, -1], "loss_changes": [39531490.0, 10074280.0, 6795440.0, 499058.0, 1635950.0, 1897480.5, 5597554.0, 0.0, 0.0, 493108.06, 1309616.0, 1195847.2, 1754404.2, 907.5, 4672916.0, 35581.92, 37822.97, 13125.219, 145956.0, 180502.06, 0.0, 0.0, 1942524.2, 0.0, 0.0, 4970874.0, 3161789.2, 0.0, 15856.236, 0.0, 0.0, 0.0, 0.0, 234741.56, 117458.0, 0.0, 0.0, 883030.2, 1314458.5, 3837616.0, 2147107.0, 1704826.5, 1381772.6, 0.0, 0.0, 0.0, 0.0, 0.0, 0.0, 0.0, 0.0, 0.0, 0.0, 0.0, 0.0, 0.0, 0.0, 0.0, 0.0, 0.0, 0.0], "parents": [2147483647, 0, 0, 1, 1, 2, 2, 3, 3, 4, 4, 5, 5, 6, 6, 9, 9, 10, 10, 11, 11, 12, 12, 13, 13, 14, 14, 15, 15, 16, 16, 17, 17, 18, 18, 19, 19, 22, 22, 25, 25, 26, 26, 28, 28, 33, 33, 34, 34, 37, 37, 38, 38, 39, 39, 40, 40, 41, 41, 42, 42], "right_children": [2, 4, 6, 8, 10, 12, 14, -1, -1, 16, 18, 20, 22, 24, 26, 28, 30, 32, 34, 36, -1, -1, 38, -1, -1, 40, 42, -1, 44, -1, -1, -1, -1, 46, 48, -1, -1, 50, 52, 54, 56, 58, 60, -1, -1, -1, -1, -1, -1, -1, -1, -1, -1, -1, -1, -1, -1, -1, -1, -1, -1], "split_conditions": [2.00001, 2.00001, -0.27995107, 0.8288058, -0.24762253, 2.00001, 2.00001, 46.355877, 134.17607, 2.00001, 2.00001, 0.044929083, 2.00001, -0.854864, 2.00001, -0.23581864, -1.7050003, -0.40615854, 2.00001, 2.00001, 129.90239, -55.94882, -0.3075774, -9.830289, -34.748207, 0.41814077, -0.24738684, 20.09963, 2.00001, -41.494434, -7.2742157, 9.344391, 40.10913, -0.13376428, 2.00001, -4.236731, 37.870262, 2.00001, -0.17483062, 2.00001, 2.00001, 2.00001, 2.00001, 13.569196, 1.9953955, -26.074986, 14.57312, -18.454256, -37.969402, -22.147291, 5.122309, 33.37693, 5.8376956, -47.38809, 75.43978, 42.31027, -46.503582, 81.04065, -5.5974183, 0.9356912, -72.9645], "split_indices": [78, 18, 4, 0, 5, 82, 66, 0, 0, 121, 84, 1, 70, 3, 117, 0, 0, 0, 47, 33, 0, 0, 4, 0, 0, 2, 5, 0, 87, 0, 0, 0, 0, 5, 92, 0, 0, 15, 3, 67, 122, 40, 25, 0, 0, 0, 0, 0, 0, 0, 0, 0, 0, 0, 0, 0, 0, 0, 0, 0, 0], "split_type": [0, 0, 0, 0, 0, 0, 0, 0, 0, 0, 0, 0, 0, 0, 0, 0, 0, 0, 0, 0, 0, 0, 0, 0, 0, 0, 0, 0, 0, 0, 0, 0, 0, 0, 0, 0, 0, 0, 0, 0, 0, 0, 0, 0, 0, 0, 0, 0, 0, 0, 0, 0, 0, 0, 0, 0, 0, 0, 0, 0, 0], "sum_hessian": [492.0, 223.0, 269.0, 5.0, 218.0, 153.0, 116.0, 3.0, 2.0, 11.0, 207.0, 7.0, 146.0, 8.0, 108.0, 9.0, 2.0, 2.0, 205.0, 6.0, 1.0, 3.0, 143.0, 1.0, 7.0, 80.0, 28.0, 4.0, 5.0, 1.0, 1.0, 1.0, 1.0, 10.0, 195.0, 1.0, 5.0, 70.0, 73.0, 71.0, 9.0, 10.0, 18.0, 1.0, 4.0, 9.0, 1.0, 6.0, 189.0, 14.0, 56.0, 44.0, 29.0, 2.0, 69.0, 4.0, 5.0, 7.0, 3.0, 16.0, 2.0], "tree_param": {"num_deleted": "0", "num_feature": "126", "num_nodes": "61", "size_leaf_vector": "1"}}, {"base_weights": [4.9121933, -274.47925, 236.68541, 912.0162, -305.73264, 192.23444, 754.593, 42.87918, 125.230995, 143.72006, -319.06802, 168.10446, 90.11529, 1017.0278, -288.60388, 18.368774, -4.8043, 38.103676, -324.16772, -62.851746, 184.06683, -18.265081, 1103.4233, 15.397412, -43.774193, 78.00476, -332.27686, -346.4997, 208.74876, 132.93315, 711.3488, 12.890735, 3.3052278, -31.083973, -40.511436, -9.338776, -36.24721, 44.27024, 13.045916, 19.6312, 75.688095], "categories": [], "categories_nodes": [], "categories_segments": [], "categories_sizes": [], "default_left": [0, 0, 0, 0, 0, 0, 0, 0, 0, 0, 0, 0, 0, 0, 0, 0, 0, 0, 0, 0, 0, 0, 0, 0, 0, 0, 0, 0, 0, 0, 0, 0, 0, 0, 0, 0, 0, 0, 0, 0, 0], "id": 13, "left_children": [1, 3, 5, 7, 9, 11, 13, -1, -1, 15, 17, 19, -1, 21, 23, -1, -1, -1, 25, -1, 27, -1, 29, -1, -1, 31, 33, 35, 37, -1, 39, -1, -1, -1, -1, -1, -1, -1, -1, -1, -1], "loss_changes": [31989400.0, 8585202.0, 6070745.0, 449649.5, 1358460.0, 4125057.0, 6042712.0, 0.0, 0.0, 62475.188, 884002.0, 3205669.0, 0.0, 1963538.0, 397426.97, 0.0, 0.0, 0.0, 717308.0, 0.0, 3202135.5, 0.0, 471546.0, 0.0, 0.0, 7180.3105, 198850.0, 10620.375, 4136642.0, 0.0, 39021.0, 0.0, 0.0, 0.0, 0.0, 0.0, 0.0, 0.0, 0.0, 0.0, 0.0], "parents": [2147483647, 0, 0, 1, 1, 2, 2, 3, 3, 4, 4, 5, 5, 6, 6, 9, 9, 10, 10, 11, 11, 13, 13, 14, 14, 18, 18, 20, 20, 22, 22, 25, 25, 26, 26, 27, 27, 28, 28, 30, 30], "right_children": [2, 4, 6, 8, 10, 12, 14, -1, -1, 16, 18, 20, -1, 22, 24, -1, -1, -1, 26, -1, 28, -1, 30, -1, -1, 32, 34, 36, 38, -1, 40, -1, -1, -1, -1, -1, -1, -1, -1, -1, -1], "split_conditions": [2.00001, 2.00001, -0.22023882, 0.8288058, -1.262884, 2.00001, -0.11225175, 42.87918, 125.230995, -0.23581864, 2.00001, 2.00001, 90.11529, 2.00001, 0.445541, 18.368774, -4.8043, 38.103676, 2.00001, -62.851746, 2.00001, -18.265081, 1.1269006, 15.397412, -43.774193, -0.28244537, 2.00001, -0.854864, 0.1406745, 132.93315, 1.2546555, 12.890735, 3.3052278, -31.083973, -40.511436, -9.338776, -36.24721, 44.27024, 13.045916, 19.6312, 75.688095], "split_indices": [78, 18, 4, 0, 3, 17, 4, 0, 0, 0, 84, 70, 0, 67, 0, 0, 0, 0, 57, 0, 66, 0, 0, 0, 0, 4, 109, 3, 1, 0, 0, 0, 0, 0, 0, 0, 0, 0, 0, 0, 0], "split_type": [0, 0, 0, 0, 0, 0, 0, 0, 0, 0, 0, 0, 0, 0, 0, 0, 0, 0, 0, 0, 0, 0, 0, 0, 0, 0, 0, 0, 0, 0, 0, 0, 0, 0, 0, 0, 0, 0, 0, 0, 0], "sum_hessian": [492.0, 223.0, 269.0, 5.0, 218.0, 249.0, 20.0, 3.0, 2.0, 6.0, 212.0, 242.0, 7.0, 16.0, 4.0, 5.0, 1.0, 1.0, 211.0, 4.0, 238.0, 1.0, 15.0, 1.0, 3.0, 4.0, 207.0, 10.0, 228.0, 8.0, 7.0, 1.0, 3.0, 164.0, 43.0, 1.0, 9.0, 56.0, 172.0, 1.0, 6.0], "tree_param": {"num_deleted": "0", "num_feature": "126", "num_nodes": "41", "size_leaf_vector": "1"}}, {"base_weights": [5.201879, -246.29747, 213.83392, 848.83295, -275.1764, 185.96968, 919.7071, 39.663246, 116.88226, 131.28584, -287.2424, 8.838153, 269.98218, 50.176754, 111.47056, 16.838043, -4.564084, 36.198486, -292.01227, 69.56531, -453.57202, 415.93045, 99.68014, 73.443504, -299.39337, 6.3634834, 53.936073, 56.683765, -80.318985, 62.45524, 555.3625, 158.72894, -68.45678, 12.246198, 3.0573394, -27.994413, -36.552364, -42.91754, 3.3067977, 8.829505, -3.4880676, -9.824399, 25.543467, -28.487371, 61.232838, -27.216185, 21.186163], "categories": [], "categories_nodes": [], "categories_segments": [], "categories_sizes": [], "default_left": [0, 0, 0, 0, 0, 0, 0, 0, 0, 0, 0, 0, 0, 0, 0, 0, 0, 0, 0, 0, 0, 0, 0, 0, 0, 0, 0, 0, 0, 0, 0, 0, 0, 0, 0, 0, 0, 0, 0, 0, 0, 0, 0, 0, 0, 0, 0], "id": 14, "left_children": [1, 3, 5, 7, 9, 11, 13, -1, -1, 15, 17, 19, 21, -1, -1, -1, -1, -1, 23, 25, 27, 29, 31, 33, 35, 37, -1, 39, -1, 41, 43, 45, -1, -1, -1, -1, -1, -1, -1, -1, -1, -1, -1, -1, -1, -1, -1], "loss_changes": [25920784.0, 7317845.0, 5139488.0, 404604.0, 1111770.0, 3881623.0, 255653.0, 0.0, 0.0, 53626.188, 765308.0, 2418425.5, 4357926.0, 0.0, 0.0, 0.0, 0.0, 0.0, 593850.0, 2253154.0, 1829472.8, 4647462.0, 3952300.2, 6763.0566, 165200.0, 805089.5, 0.0, 17552.137, 0.0, 893421.0, 3429244.0, 1843422.6, 0.0, 0.0, 0.0, 0.0, 0.0, 0.0, 0.0, 0.0, 0.0, 0.0, 0.0, 0.0, 0.0, 0.0, 0.0], "parents": [2147483647, 0, 0, 1, 1, 2, 2, 3, 3, 4, 4, 5, 5, 6, 6, 9, 9, 10, 10, 11, 11, 12, 12, 18, 18, 19, 19, 20, 20, 21, 21, 22, 22, 23, 23, 24, 24, 25, 25, 27, 27, 29, 29, 30, 30, 31, 31], "right_children": [2, 4, 6, 8, 10, 12, 14, -1, -1, 16, 18, 20, 22, -1, -1, -1, -1, -1, 24, 26, 28, 30, 32, 34, 36, 38, -1, 40, -1, 42, 44, 46, -1, -1, -1, -1, -1, -1, -1, -1, -1, -1, -1, -1, -1, -1, -1], "split_conditions": [2.00001, 2.00001, 2.00001, 0.8288058, -1.262884, -0.19323365, -0.27445397, 39.663246, 116.88226, -0.23581864, 2.00001, -0.38486606, -0.20804292, 50.176754, 111.47056, 16.838043, -4.564084, 36.198486, 2.00001, -0.27445397, -0.3190423, 2.00001, -0.2285463, -0.28244537, 2.00001, -0.24765229, 53.936073, -0.47706768, -80.318985, 0.7649283, 2.00001, 2.00001, -68.45678, 12.246198, 3.0573394, -27.994413, -36.552364, -42.91754, 3.3067977, 8.829505, -3.4880676, -9.824399, 25.543467, -28.487371, 61.232838, -27.216185, 21.186163], "split_indices": [78, 18, 17, 0, 3, 0, 4, 0, 0, 0, 84, 0, 5, 0, 0, 0, 0, 0, 57, 4, 4, 121, 4, 4, 109, 5, 0, 3, 0, 0, 120, 66, 0, 0, 0, 0, 0, 0, 0, 0, 0, 0, 0, 0, 0, 0, 0], "split_type": [0, 0, 0, 0, 0, 0, 0, 0, 0, 0, 0, 0, 0, 0, 0, 0, 0, 0, 0, 0, 0, 0, 0, 0, 0, 0, 0, 0, 0, 0, 0, 0, 0, 0, 0, 0, 0, 0, 0, 0, 0, 0, 0, 0, 0, 0, 0], "sum_hessian": [492.0, 223.0, 269.0, 5.0, 218.0, 260.0, 9.0, 3.0, 2.0, 6.0, 212.0, 84.0, 176.0, 4.0, 5.0, 5.0, 1.0, 1.0, 211.0, 75.0, 9.0, 94.0, 82.0, 4.0, 207.0, 67.0, 8.0, 4.0, 5.0, 27.0, 67.0, 77.0, 5.0, 1.0, 3.0, 164.0, 43.0, 3.0, 64.0, 3.0, 1.0, 15.0, 12.0, 4.0, 63.0, 8.0, 69.0], "tree_param": {"num_deleted": "0", "num_feature": "126", "num_nodes": "47", "size_leaf_vector": "1"}}, {"base_weights": [5.1497145, -220.97232, 192.72818, 790.04047, -247.6623, 167.0406, 843.9011, 36.688496, 109.0901, 246.59296, -255.66858, 134.75447, 571.1716, 46.162613, 102.18134, 9.953353, 34.38856, 18.316961, -269.05777, -547.7993, 148.47002, 1139.2665, 144.84398, -35.566525, 91.2817, -136.83186, -275.10587, -64.719406, -7.511026, -19.382065, 206.10124, 31.716114, 121.14014, 397.55798, -288.46722, 12.16614, -2.015804, -18.411182, 16.798384, -28.800184, -20.268026, -44.13363, -0.5229763, -31.725225, 23.584938, -20.413465, 51.267616, 11.565894, -41.84135], "categories": [], "categories_nodes": [], "categories_segments": [], "categories_sizes": [], "default_left": [0, 0, 0, 0, 0, 0, 0, 0, 0, 0, 0, 0, 0, 0, 0, 0, 0, 0, 0, 0, 0, 0, 0, 0, 0, 0, 0, 0, 0, 0, 0, 0, 0, 0, 0, 0, 0, 0, 0, 0, 0, 0, 0, 0, 0, 0, 0, 0, 0], "id": 15, "left_children": [1, 3, 5, 7, 9, 11, 13, -1, -1, 15, 17, 19, 21, -1, -1, -1, -1, 23, 25, 27, 29, 31, 33, -1, 35, 37, 39, -1, -1, 41, 43, -1, -1, 45, 47, -1, -1, -1, -1, -1, -1, -1, -1, -1, -1, -1, -1, -1, -1], "loss_changes": [20953490.0, 6240057.0, 4375340.0, 363629.75, 929663.0, 3328515.0, 208419.0, 0.0, 0.0, 23003.062, 797312.0, 2356199.0, 4436679.5, 0.0, 0.0, 0.0, 0.0, 332628.38, 127099.0, 186303.12, 2315966.5, 90211.0, 1428728.1, 0.0, 36307.508, 189456.17, 124690.0, 0.0, 0.0, 367932.6, 2846068.0, 0.0, 0.0, 658781.1, 310966.72, 0.0, 0.0, 0.0, 0.0, 0.0, 0.0, 0.0, 0.0, 0.0, 0.0, 0.0, 0.0, 0.0, 0.0], "parents": [2147483647, 0, 0, 1, 1, 2, 2, 3, 3, 4, 4, 5, 5, 6, 6, 9, 9, 10, 10, 11, 11, 12, 12, 17, 17, 18, 18, 19, 19, 20, 20, 21, 21, 22, 22, 24, 24, 25, 25, 26, 26, 29, 29, 30, 30, 33, 33, 34, 34], "right_children": [2, 4, 6, 8, 10, 12, 14, -1, -1, 16, 18, 20, 22, -1, -1, -1, -1, 24, 26, 28, 30, 32, 34, -1, 36, 38, 40, -1, -1, 42, 44, -1, -1, 46, 48, -1, -1, -1, -1, -1, -1, -1, -1, -1, -1, -1, -1, -1, -1], "split_conditions": [2.00001, 2.00001, 2.00001, 0.8288058, 2.00001, -0.22023882, -0.27445397, 36.688496, 109.0901, -0.40615854, -0.24762253, 2.00001, -0.24758384, 46.162613, 102.18134, 9.953353, 34.38856, -1.7050003, 2.00001, -0.19323365, -0.3156444, -0.21039204, -0.17750919, -35.566525, 0.9352682, -0.13376428, 0.7223433, -64.719406, -7.511026, 2.00001, 2.00001, 31.716114, 121.14014, 1.233363, 0.445541, 12.16614, -2.015804, -18.411182, 16.798384, -28.800184, -20.268026, -44.13363, -0.5229763, -31.725225, 23.584938, -20.413465, 51.267616, 11.565894, -41.84135], "split_indices": [78, 18, 17, 0, 84, 4, 4, 0, 0, 0, 5, 93, 5, 0, 0, 0, 0, 0, 47, 0, 4, 1, 4, 0, 0, 5, 0, 0, 0, 86, 66, 0, 0, 0, 0, 0, 0, 0, 0, 0, 0, 0, 0, 0, 0, 0, 0, 0, 0], "split_type": [0, 0, 0, 0, 0, 0, 0, 0, 0, 0, 0, 0, 0, 0, 0, 0, 0, 0, 0, 0, 0, 0, 0, 0, 0, 0, 0, 0, 0, 0, 0, 0, 0, 0, 0, 0, 0, 0, 0, 0, 0, 0, 0, 0, 0, 0, 0, 0, 0], "sum_hessian": [492.0, 223.0, 269.0, 5.0, 218.0, 260.0, 9.0, 3.0, 2.0, 3.0, 215.0, 242.0, 18.0, 4.0, 5.0, 2.0, 1.0, 10.0, 205.0, 4.0, 238.0, 7.0, 11.0, 1.0, 9.0, 10.0, 195.0, 3.0, 1.0, 61.0, 177.0, 1.0, 6.0, 7.0, 4.0, 7.0, 2.0, 9.0, 1.0, 163.0, 32.0, 1.0, 60.0, 9.0, 168.0, 1.0, 6.0, 1.0, 3.0], "tree_param": {"num_deleted": "0", "num_feature": "126", "num_nodes": "49", "size_leaf_vector": "1"}}, {"base_weights": [5.2245336, -198.36607, 174.10997, 735.3328, -223.04108, 70.2297, 309.35318, 33.93686, 101.81741, 233.0191, -230.45404, 495.9461, 46.583702, 675.2664, 226.94563, 9.289795, 32.66913, 14.174699, -242.39803, 232.6445, 116.95287, -136.52777, 94.70226, 284.079, 1005.0659, 459.5615, 55.64396, -33.788197, 83.168564, -123.29529, -247.84564, -5.36521, 28.930262, -402.32684, -42.23942, -3.6653626, 226.5882, -33.88318, 38.025326, 1059.4725, 23.049976, 911.6318, 263.41467, 65.05192, -14.065563, 11.101603, -1.8814188, -16.754175, 15.958463, -25.937729, -18.302643, 13.031038, -60.159096, 1.4977789, -26.266037, -40.459152, 2.106341, -37.735233, 27.316635, 55.41116, 119.68971, 102.326584, 43.25472, -47.903053, 30.553452, 51.200172, -10.727607], "categories": [], "categories_nodes": [], "categories_segments": [], "categories_sizes": [], "default_left": [0, 0, 0, 0, 0, 0, 0, 0, 0, 0, 0, 1, 0, 0, 0, 0, 0, 0, 0, 0, 0, 0, 0, 0, 0, 0, 0, 0, 0, 0, 0, 0, 0, 0, 0, 0, 0, 0, 0, 0, 0, 0, 0, 0, 0, 0, 0, 0, 0, 0, 0, 0, 0, 0, 0, 0, 0, 0, 0, 0, 0, 0, 0, 0, 0, 0, 0], "id": 16, "left_children": [1, 3, 5, 7, 9, 11, 13, -1, -1, 15, 17, 19, 21, 23, 25, -1, -1, 27, 29, 31, -1, 33, 35, 37, 39, 41, 43, -1, 45, 47, 49, -1, -1, 51, 53, 55, 57, -1, -1, 59, -1, 61, 63, -1, 65, -1, -1, -1, -1, -1, -1, -1, -1, -1, -1, -1, -1, -1, -1, -1, -1, -1, -1, -1, -1, -1, -1], "loss_changes": [16985598.0, 5324751.0, 3771530.5, 326434.0, 794087.0, 1527136.1, 3374770.0, 0.0, 0.0, 22152.86, 634553.0, 1146758.6, 1308155.4, 2423764.0, 3839634.0, 0.0, 0.0, 295288.38, 103101.0, 129068.875, 0.0, 759920.25, 1518707.2, 787829.75, 219349.0, 3395421.0, 2372852.8, 0.0, 30488.281, 164417.86, 99031.0, 0.0, 0.0, 927477.75, 306619.0, 682702.06, 1509602.0, 0.0, 0.0, 31275.0, 0.0, 199175.0, 1084510.8, 0.0, 2604745.5, 0.0, 0.0, 0.0, 0.0, 0.0, 0.0, 0.0, 0.0, 0.0, 0.0, 0.0, 0.0, 0.0, 0.0, 0.0, 0.0, 0.0, 0.0, 0.0, 0.0, 0.0, 0.0], "parents": [2147483647, 0, 0, 1, 1, 2, 2, 3, 3, 4, 4, 5, 5, 6, 6, 9, 9, 10, 10, 11, 11, 12, 12, 13, 13, 14, 14, 17, 17, 18, 18, 19, 19, 21, 21, 22, 22, 23, 23, 24, 24, 25, 25, 26, 26, 28, 28, 29, 29, 30, 30, 33, 33, 34, 34, 35, 35, 36, 36, 39, 39, 41, 41, 42, 42, 44, 44], "right_children": [2, 4, 6, 8, 10, 12, 14, -1, -1, 16, 18, 20, 22, 24, 26, -1, -1, 28, 30, 32, -1, 34, 36, 38, 40, 42, 44, -1, 46, 48, 50, -1, -1, 52, 54, 56, 58, -1, -1, 60, -1, 62, 64, -1, 66, -1, -1, -1, -1, -1, -1, -1, -1, -1, -1, -1, -1, -1, -1, -1, -1, -1, -1, -1, -1, -1, -1], "split_conditions": [2.00001, 2.00001, -0.27995107, 0.8288058, 2.00001, 2.00001, 2.00001, 33.93686, 101.81741, -0.40615854, -0.24762253, 0.044929083, 2.00001, -0.26102042, 0.24830125, 9.289795, 32.66913, -1.7050003, 2.00001, 2.00001, 116.95287, -0.24758027, -0.17194118, -1.0449332, 1.4249954, 2.00001, 2.00001, -33.788197, 0.9352682, -0.13376428, 0.7223433, -5.36521, 28.930262, 2.00001, 2.00001, 2.00001, 2.00001, -33.88318, 38.025326, -0.44874352, 23.049976, 2.00001, 2.00001, 65.05192, 2.00001, 11.101603, -1.8814188, -16.754175, 15.958463, -25.937729, -18.302643, 13.031038, -60.159096, 1.4977789, -26.266037, -40.459152, 2.106341, -37.735233, 27.316635, 55.41116, 119.68971, 102.326584, 43.25472, -47.903053, 30.553452, 51.200172, -10.727607], "split_indices": [78, 18, 4, 0, 84, 82, 56, 0, 0, 0, 5, 1, 15, 4, 3, 0, 0, 0, 47, 33, 0, 5, 0, 0, 0, 123, 57, 0, 0, 5, 0, 0, 0, 84, 115, 70, 77, 0, 0, 0, 0, 42, 58, 0, 76, 0, 0, 0, 0, 0, 0, 0, 0, 0, 0, 0, 0, 0, 0, 0, 0, 0, 0, 0, 0, 0, 0], "split_type": [0, 0, 0, 0, 0, 0, 0, 0, 0, 0, 0, 0, 0, 0, 0, 0, 0, 0, 0, 0, 0, 0, 0, 0, 0, 0, 0, 0, 0, 0, 0, 0, 0, 0, 0, 0, 0, 0, 0, 0, 0, 0, 0, 0, 0, 0, 0, 0, 0, 0, 0, 0, 0, 0, 0, 0, 0, 0, 0, 0, 0, 0, 0, 0, 0, 0, 0], "sum_hessian": [492.0, 223.0, 269.0, 5.0, 218.0, 153.0, 116.0, 3.0, 2.0, 3.0, 215.0, 7.0, 146.0, 20.0, 96.0, 2.0, 1.0, 10.0, 205.0, 6.0, 1.0, 30.0, 116.0, 10.0, 10.0, 40.0, 56.0, 1.0, 9.0, 10.0, 195.0, 1.0, 5.0, 7.0, 23.0, 67.0, 49.0, 1.0, 9.0, 9.0, 1.0, 11.0, 29.0, 5.0, 51.0, 7.0, 2.0, 9.0, 1.0, 163.0, 32.0, 2.0, 5.0, 19.0, 4.0, 3.0, 64.0, 3.0, 46.0, 3.0, 6.0, 8.0, 3.0, 1.0, 28.0, 7.0, 44.0], "tree_param": {"num_deleted": "0", "num_feature": "126", "num_nodes": "67", "size_leaf_vector": "1"}}, {"base_weights": [5.846115, -178.04681, 158.38748, 684.4253, -200.86319, 126.121735, 534.96136, 31.391602, 95.029594, 220.20691, -207.73087, 108.54256, 644.3241, 738.87866, -265.34973, 8.670475, 31.03567, 10.52377, -218.37683, -495.24698, 120.719986, 17.873121, 68.53044, -18.85641, 808.629, 11.523974, -38.930706, -32.098785, 75.77372, -163.47324, -230.62184, -16.392357, -66.14881, 266.2157, 68.25134, 112.15755, 564.4193, 13.942212, 2.8578386, 3.7370179, -16.942858, -7.9640994, -23.385817, -64.2957, 30.656492, -11.081912, 12.478304, 13.560999, 59.373928], "categories": [], "categories_nodes": [], "categories_segments": [], "categories_sizes": [], "default_left": [0, 0, 0, 0, 0, 0, 0, 0, 0, 0, 0, 0, 0, 0, 0, 0, 0, 0, 1, 0, 0, 0, 0, 0, 0, 0, 0, 0, 0, 0, 0, 0, 0, 0, 0, 0, 0, 0, 0, 0, 0, 0, 0, 0, 0, 0, 0, 0, 0], "id": 17, "left_children": [1, 3, 5, 7, 9, 11, 13, -1, -1, 15, 17, 19, 21, 23, 25, -1, -1, 27, 29, 31, 33, -1, -1, -1, 35, -1, -1, -1, 37, 39, 41, -1, -1, 43, 45, -1, 47, -1, -1, -1, -1, -1, -1, -1, -1, -1, -1, -1, -1], "loss_changes": [13857483.0, 4545456.5, 3213149.0, 292731.75, 679041.0, 2207457.0, 3623203.5, 0.0, 0.0, 21231.36, 504181.0, 1846468.8, 30155.5, 1252200.0, 280747.8, 0.0, 0.0, 262264.72, 100792.0, 166964.38, 1806347.2, 0.0, 0.0, 0.0, 589754.0, 0.0, 0.0, 0.0, 26054.617, 55371.375, 62486.0, 0.0, 0.0, 2508225.5, 1805627.2, 0.0, 57782.75, 0.0, 0.0, 0.0, 0.0, 0.0, 0.0, 0.0, 0.0, 0.0, 0.0, 0.0, 0.0], "parents": [2147483647, 0, 0, 1, 1, 2, 2, 3, 3, 4, 4, 5, 5, 6, 6, 9, 9, 10, 10, 11, 11, 12, 12, 13, 13, 14, 14, 17, 17, 18, 18, 19, 19, 20, 20, 24, 24, 28, 28, 29, 29, 30, 30, 33, 33, 34, 34, 36, 36], "right_children": [2, 4, 6, 8, 10, 12, 14, -1, -1, 16, 18, 20, 22, 24, 26, -1, -1, 28, 30, 32, 34, -1, -1, -1, 36, -1, -1, -1, 38, 40, 42, -1, -1, 44, 46, -1, 48, -1, -1, -1, -1, -1, -1, -1, -1, -1, -1, -1, -1], "split_conditions": [2.00001, 2.00001, -0.22023882, 0.8288058, 2.00001, 2.00001, -0.11225175, 31.391602, 95.029594, -0.40615854, -0.24762253, 2.00001, -1.0449332, 2.00001, 0.445541, 8.670475, 31.03567, -1.7050003, -1.1359311, 0.6714331, 0.1406745, 17.873121, 68.53044, -18.85641, 0.7223433, 11.523974, -38.930706, -32.098785, -0.23581864, 2.00001, 2.00001, -16.392357, -66.14881, 2.00001, 2.00001, 112.15755, 2.00001, 13.942212, 2.8578386, 3.7370179, -16.942858, -7.9640994, -23.385817, -64.2957, 30.656492, -11.081912, 12.478304, 13.560999, 59.373928], "split_indices": [78, 18, 4, 0, 84, 17, 4, 0, 0, 0, 5, 93, 0, 67, 0, 0, 0, 0, 1, 3, 1, 0, 0, 0, 0, 0, 0, 0, 0, 103, 47, 0, 0, 69, 15, 0, 75, 0, 0, 0, 0, 0, 0, 0, 0, 0, 0, 0, 0], "split_type": [0, 0, 0, 0, 0, 0, 0, 0, 0, 0, 0, 0, 0, 0, 0, 0, 0, 0, 0, 0, 0, 0, 0, 0, 0, 0, 0, 0, 0, 0, 0, 0, 0, 0, 0, 0, 0, 0, 0, 0, 0, 0, 0, 0, 0, 0, 0, 0, 0], "sum_hessian": [492.0, 223.0, 269.0, 5.0, 218.0, 249.0, 20.0, 3.0, 2.0, 3.0, 215.0, 242.0, 7.0, 16.0, 4.0, 2.0, 1.0, 10.0, 205.0, 4.0, 238.0, 1.0, 6.0, 1.0, 15.0, 1.0, 3.0, 1.0, 9.0, 40.0, 165.0, 2.0, 2.0, 62.0, 176.0, 5.0, 10.0, 3.0, 6.0, 1.0, 39.0, 4.0, 161.0, 2.0, 60.0, 42.0, 134.0, 1.0, 9.0], "tree_param": {"num_deleted": "0", "num_feature": "126", "num_nodes": "49", "size_leaf_vector": "1"}}, {"base_weights": [5.7011085, -159.76772, 142.95782, 637.0529, -180.86888, -10.743363, 213.63536, 20.428686, 80.23642, 208.11276, -187.2349, 43.626926, -349.6624, 323.72266, 85.90806, 8.092444, 29.483887, 8.080644, -196.75545, -51.48034, 260.89032, 10.214186, -71.12414, 27.92401, 434.2593, 122.86367, -71.16368, -30.493845, 69.876396, -182.7095, -24.575031, -26.332119, -287.63684, -31.634924, 301.508, 85.9562, -119.42724, -85.12699, 210.378, -343.84033, 473.0729, -56.999706, 240.3635, 9.464492, -1.9465109, -18.63664, 7.566559, -15.871829, 1.1682755, -3.814624, -44.12485, 19.486305, 43.389927, 9.66478, 2.159491, -15.105773, -2.8083131, -26.72698, 8.731423, -5.6397786, 27.592794, -43.67922, -3.2492433, 39.492, 89.46829, 17.779215, -9.423169, -91.57199, 28.179956], "categories": [], "categories_nodes": [], "categories_segments": [], "categories_sizes": [], "default_left": [0, 0, 0, 0, 0, 0, 0, 0, 0, 0, 0, 0, 0, 0, 0, 0, 0, 0, 0, 0, 0, 0, 0, 0, 0, 0, 0, 0, 0, 0, 0, 0, 0, 0, 0, 0, 0, 0, 0, 0, 0, 0, 0, 0, 0, 0, 0, 0, 0, 0, 0, 0, 0, 0, 0, 0, 0, 0, 0, 0, 0, 0, 0, 0, 0, 0, 0, 0, 0], "id": 18, "left_children": [1, 3, 5, 7, 9, 11, 13, -1, -1, 15, 17, 19, 21, 23, 25, -1, -1, 27, 29, 31, 33, 35, -1, 37, 39, 41, -1, -1, 43, 45, -1, 47, 49, -1, 51, 53, 55, 57, 59, 61, 63, 65, 67, -1, -1, -1, -1, -1, -1, -1, -1, -1, -1, -1, -1, -1, -1, -1, -1, -1, -1, -1, -1, -1, -1, -1, -1, -1, -1], "loss_changes": [11219712.0, 3881524.5, 2935365.0, 265334.25, 581267.0, 1599987.5, 2573502.0, 0.0, 0.0, 20262.531, 403245.0, 1563180.4, 1568750.5, 3224837.0, 2651651.0, 0.0, 0.0, 234083.75, 96864.0, 307188.47, 634642.6, 79000.63, 0.0, 595453.9, 2337123.0, 1788949.2, 0.0, 0.0, 23970.836, 169057.0, 0.0, 248453.8, 174791.38, 0.0, 226063.88, 1353.5234, 4425.6016, 588697.1, 207920.22, 101568.94, 1920224.0, 313973.7, 2701130.5, 0.0, 0.0, 0.0, 0.0, 0.0, 0.0, 0.0, 0.0, 0.0, 0.0, 0.0, 0.0, 0.0, 0.0, 0.0, 0.0, 0.0, 0.0, 0.0, 0.0, 0.0, 0.0, 0.0, 0.0, 0.0, 0.0], "parents": [2147483647, 0, 0, 1, 1, 2, 2, 3, 3, 4, 4, 5, 5, 6, 6, 9, 9, 10, 10, 11, 11, 12, 12, 13, 13, 14, 14, 17, 17, 18, 18, 19, 19, 20, 20, 21, 21, 23, 23, 24, 24, 25, 25, 28, 28, 29, 29, 31, 31, 32, 32, 34, 34, 35, 35, 36, 36, 37, 37, 38, 38, 39, 39, 40, 40, 41, 41, 42, 42], "right_children": [2, 4, 6, 8, 10, 12, 14, -1, -1, 16, 18, 20, 22, 24, 26, -1, -1, 28, 30, 32, 34, 36, -1, 38, 40, 42, -1, -1, 44, 46, -1, 48, 50, -1, 52, 54, 56, 58, 60, 62, 64, 66, 68, -1, -1, -1, -1, -1, -1, -1, -1, -1, -1, -1, -1, -1, -1, -1, -1, -1, -1, -1, -1, -1, -1, -1, -1, -1, -1], "split_conditions": [2.00001, 2.00001, -0.19323365, -0.25143486, 2.00001, -0.44874352, -0.20804292, 20.428686, 80.23642, -0.40615854, -0.24762253, -0.29797122, -0.29527423, 2.00001, -0.22649176, 8.092444, 29.483887, -1.7050003, -0.113272145, -0.7042534, -0.24765229, 0.44475532, -71.12414, 0.9991457, 2.00001, 2.00001, -71.16368, -30.493845, 0.9352682, -0.11727021, -24.575031, -1.5772454, -0.94553506, -31.634924, 0.82255167, -0.25711113, -0.36357355, 2.00001, -0.0908282, 0.010965591, -0.23035431, 2.00001, -0.20149483, 9.464492, -1.9465109, -18.63664, 7.566559, -15.871829, 1.1682755, -3.814624, -44.12485, 19.486305, 43.389927, 9.66478, 2.159491, -15.105773, -2.8083131, -26.72698, 8.731423, -5.6397786, 27.592794, -43.67922, -3.2492433, 39.492, 89.46829, 17.779215, -9.423169, -91.57199, 28.179956], "split_indices": [78, 18, 0, 4, 84, 0, 5, 0, 0, 0, 5, 4, 4, 121, 4, 0, 0, 0, 4, 0, 5, 3, 0, 0, 44, 25, 0, 0, 0, 5, 0, 0, 3, 0, 3, 0, 0, 42, 2, 2, 5, 56, 5, 0, 0, 0, 0, 0, 0, 0, 0, 0, 0, 0, 0, 0, 0, 0, 0, 0, 0, 0, 0, 0, 0, 0, 0, 0, 0], "split_type": [0, 0, 0, 0, 0, 0, 0, 0, 0, 0, 0, 0, 0, 0, 0, 0, 0, 0, 0, 0, 0, 0, 0, 0, 0, 0, 0, 0, 0, 0, 0, 0, 0, 0, 0, 0, 0, 0, 0, 0, 0, 0, 0, 0, 0, 0, 0, 0, 0, 0, 0, 0, 0, 0, 0, 0, 0, 0, 0, 0, 0, 0, 0, 0, 0, 0, 0, 0, 0], "sum_hessian": [492.0, 223.0, 269.0, 5.0, 218.0, 85.0, 184.0, 2.0, 3.0, 3.0, 215.0, 74.0, 11.0, 98.0, 86.0, 2.0, 1.0, 10.0, 205.0, 52.0, 22.0, 6.0, 5.0, 27.0, 71.0, 83.0, 3.0, 1.0, 9.0, 163.0, 42.0, 48.0, 4.0, 1.0, 21.0, 4.0, 2.0, 17.0, 10.0, 3.0, 68.0, 33.0, 50.0, 7.0, 2.0, 161.0, 2.0, 10.0, 38.0, 2.0, 2.0, 13.0, 8.0, 3.0, 1.0, 1.0, 1.0, 8.0, 9.0, 2.0, 8.0, 2.0, 1.0, 59.0, 9.0, 4.0, 29.0, 1.0, 49.0], "tree_param": {"num_deleted": "0", "num_feature": "126", "num_nodes": "69", "size_leaf_vector": "1"}}, {"base_weights": [4.990616, -143.4355, 128.11084, 590.1252, -162.8781, 108.83807, 618.3189, 260.09888, 83.345184, 196.69556, -168.7828, -307.55728, 126.652855, 33.656708, 75.0059, 7.2714233, 29.832235, 7.5529456, 28.009693, 98.21362, -174.28374, -7.3723726, -32.356827, 47.03347, 242.49849, 12.186707, 0.17999268, -49.66554, -182.8443, 427.07574, 25.443459, 67.774956, 363.67538, -19.55415, 2.1156762, -19.499815, -12.067062, 18.780375, 105.09899, -1.8465599, 17.833006, 54.688046, -5.736002, -52.80351, 40.35281], "categories": [], "categories_nodes": [], "categories_segments": [], "categories_sizes": [], "default_left": [0, 0, 0, 0, 0, 0, 0, 0, 0, 0, 0, 0, 0, 0, 0, 0, 0, 0, 0, 0, 0, 0, 0, 0, 0, 0, 0, 0, 0, 1, 0, 0, 0, 0, 0, 0, 0, 0, 0, 0, 0, 0, 0, 0, 0], "id": 19, "left_children": [1, 3, 5, 7, 9, 11, 13, 15, -1, 17, 19, 21, 23, -1, -1, -1, -1, -1, -1, 25, 27, -1, -1, 29, 31, -1, -1, 33, 35, 37, 39, 41, 43, -1, -1, -1, -1, -1, -1, -1, -1, -1, -1, -1, -1], "loss_changes": [9027584.0, 3290878.5, 2483572.5, 265045.38, 498174.5, 1975049.2, 118735.0, 6957.6562, 0.0, 19266.11, 334363.0, 17328.375, 2303707.8, 0.0, 0.0, 0.0, 0.0, 0.0, 0.0, 11183.23, 217081.0, 0.0, 0.0, 1219901.2, 2134941.5, 0.0, 0.0, 159106.08, 126088.0, 996901.75, 963267.1, 2609341.5, 2345301.5, 0.0, 0.0, 0.0, 0.0, 0.0, 0.0, 0.0, 0.0, 0.0, 0.0, 0.0, 0.0], "parents": [2147483647, 0, 0, 1, 1, 2, 2, 3, 3, 4, 4, 5, 5, 6, 6, 7, 7, 9, 9, 10, 10, 11, 11, 12, 12, 19, 19, 20, 20, 23, 23, 24, 24, 27, 27, 28, 28, 29, 29, 30, 30, 31, 31, 32, 32], "right_children": [2, 4, 6, 8, 10, 12, 14, 16, -1, 18, 20, 22, 24, -1, -1, -1, -1, -1, -1, 26, 28, -1, -1, 30, 32, -1, -1, 34, 36, 38, 40, 42, 44, -1, -1, -1, -1, -1, -1, -1, -1, -1, -1, -1, -1], "split_conditions": [2.00001, 2.00001, 2.00001, 0.8288058, 2.00001, 2.00001, -0.27445397, -0.0908282, 83.345184, -0.40615854, -1.262884, -0.854864, -0.27995107, 33.656708, 75.0059, 7.2714233, 29.832235, 7.5529456, 28.009693, -0.23581864, 2.00001, -7.3723726, -32.356827, 2.00001, 2.00001, 12.186707, 0.17999268, 2.00001, 0.7223433, 0.044929083, -0.17339313, 2.00001, 2.00001, -19.55415, 2.1156762, -19.499815, -12.067062, 18.780375, 105.09899, -1.8465599, 17.833006, 54.688046, -5.736002, -52.80351, 40.35281], "split_indices": [78, 18, 17, 0, 84, 66, 4, 2, 0, 0, 3, 3, 4, 0, 0, 0, 0, 0, 0, 0, 47, 0, 0, 82, 25, 0, 0, 123, 0, 1, 5, 41, 69, 0, 0, 0, 0, 0, 0, 0, 0, 0, 0, 0, 0], "split_type": [0, 0, 0, 0, 0, 0, 0, 0, 0, 0, 0, 0, 0, 0, 0, 0, 0, 0, 0, 0, 0, 0, 0, 0, 0, 0, 0, 0, 0, 0, 0, 0, 0, 0, 0, 0, 0, 0, 0, 0, 0, 0, 0, 0, 0], "sum_hessian": [492.0, 223.0, 269.0, 5.0, 218.0, 260.0, 9.0, 3.0, 2.0, 3.0, 215.0, 10.0, 250.0, 4.0, 5.0, 1.0, 2.0, 2.0, 1.0, 4.0, 211.0, 1.0, 9.0, 149.0, 101.0, 3.0, 1.0, 14.0, 197.0, 7.0, 142.0, 42.0, 59.0, 4.0, 10.0, 163.0, 34.0, 6.0, 1.0, 111.0, 31.0, 8.0, 34.0, 2.0, 57.0], "tree_param": {"num_deleted": "0", "num_feature": "126", "num_nodes": "45", "size_leaf_vector": "1"}}, {"base_weights": [5.231266, -128.55904, 116.20829, 551.18744, -146.5952, -16.546537, 177.2932, 243.36487, 77.78884, 185.91663, -152.07414, 33.340786, -326.96344, -263.3188, 201.32062, 6.9078493, 27.843418, 7.049414, 26.609205, 90.86556, -157.08652, -45.70257, 214.03458, 4.1474915, -65.876564, -7.0037537, -27.701252, -187.3936, 233.47202, 11.272699, 0.17099304, -45.861565, -164.71928, -22.190147, -266.98383, -32.070812, 252.91872, 73.14138, -112.22482, -68.10456, -46.859005, -49.40128, 250.19994, -17.989819, 1.9233404, -17.561726, -10.894833, -14.261067, 1.2343594, -3.437215, -41.060085, 18.739698, 43.821323, 8.562741, 1.1598634, -14.258156, -2.5755677, -0.8475525, -17.03365, 9.789244, 33.584644], "categories": [], "categories_nodes": [], "categories_segments": [], "categories_sizes": [], "default_left": [0, 0, 0, 0, 0, 0, 0, 0, 0, 0, 0, 0, 0, 0, 0, 0, 0, 0, 0, 0, 0, 0, 0, 0, 0, 0, 0, 0, 0, 0, 0, 0, 0, 0, 0, 0, 0, 0, 0, 0, 0, 0, 0, 0, 0, 0, 0, 0, 0, 0, 0, 0, 0, 0, 0, 0, 0, 0, 0, 0, 0], "id": 20, "left_children": [1, 3, 5, 7, 9, 11, 13, 15, -1, 17, 19, 21, 23, 25, 27, -1, -1, -1, -1, 29, 31, 33, 35, 37, -1, -1, -1, 39, 41, -1, -1, 43, 45, 47, 49, -1, 51, 53, 55, 57, -1, -1, 59, -1, -1, -1, -1, -1, -1, -1, -1, -1, -1, -1, -1, -1, -1, -1, -1, -1, -1], "loss_changes": [7334831.0, 2827045.5, 2192449.0, 229391.25, 427250.5, 1342686.0, 2011564.0, 5214.578, 0.0, 18258.25, 277298.0, 1080980.1, 1321092.1, 7066.1875, 2243347.5, 0.0, 0.0, 0.0, 0.0, 9552.59, 172424.0, 269827.06, 559352.25, 64411.13, 0.0, 0.0, 0.0, 437698.03, 2107199.0, 0.0, 0.0, 134336.69, 101209.0, 205530.31, 152921.78, 0.0, 184978.25, 2848.963, 4202.4805, 65612.22, 0.0, 0.0, 2054259.0, 0.0, 0.0, 0.0, 0.0, 0.0, 0.0, 0.0, 0.0, 0.0, 0.0, 0.0, 0.0, 0.0, 0.0, 0.0, 0.0, 0.0, 0.0], "parents": [2147483647, 0, 0, 1, 1, 2, 2, 3, 3, 4, 4, 5, 5, 6, 6, 7, 7, 9, 9, 10, 10, 11, 11, 12, 12, 13, 13, 14, 14, 19, 19, 20, 20, 21, 21, 22, 22, 23, 23, 27, 27, 28, 28, 31, 31, 32, 32, 33, 33, 34, 34, 36, 36, 37, 37, 38, 38, 39, 39, 42, 42], "right_children": [2, 4, 6, 8, 10, 12, 14, 16, -1, 18, 20, 22, 24, 26, 28, -1, -1, -1, -1, 30, 32, 34, 36, 38, -1, -1, -1, 40, 42, -1, -1, 44, 46, 48, 50, -1, 52, 54, 56, 58, -1, -1, 60, -1, -1, -1, -1, -1, -1, -1, -1, -1, -1, -1, -1, -1, -1, -1, -1, -1, -1], "split_conditions": [2.00001, 2.00001, -0.19323365, 0.8288058, 2.00001, -0.44874352, 2.00001, -0.0908282, 77.78884, -0.40615854, -1.262884, -0.29797122, -0.29527423, -0.854864, 2.00001, 6.9078493, 27.843418, 7.049414, 26.609205, -0.23581864, 2.00001, -0.7042534, -0.24765229, 0.44475532, -65.876564, -7.0037537, -27.701252, 2.00001, 2.00001, 11.272699, 0.17099304, 2.00001, 0.7223433, -1.5772454, -0.94553506, -32.070812, -0.26748294, -0.25711113, -0.36357355, -0.0086002415, -46.859005, -49.40128, 2.00001, -17.989819, 1.9233404, -17.561726, -10.894833, -14.261067, 1.2343594, -3.437215, -41.060085, 18.739698, 43.821323, 8.562741, 1.1598634, -14.258156, -2.5755677, -0.8475525, -17.03365, 9.789244, 33.584644], "split_indices": [78, 18, 0, 0, 84, 0, 66, 2, 0, 0, 3, 4, 4, 3, 74, 0, 0, 0, 0, 0, 47, 0, 5, 3, 0, 0, 0, 121, 69, 0, 0, 123, 0, 0, 3, 0, 4, 0, 0, 3, 0, 0, 25, 0, 0, 0, 0, 0, 0, 0, 0, 0, 0, 0, 0, 0, 0, 0, 0, 0, 0], "split_type": [0, 0, 0, 0, 0, 0, 0, 0, 0, 0, 0, 0, 0, 0, 0, 0, 0, 0, 0, 0, 0, 0, 0, 0, 0, 0, 0, 0, 0, 0, 0, 0, 0, 0, 0, 0, 0, 0, 0, 0, 0, 0, 0, 0, 0, 0, 0, 0, 0, 0, 0, 0, 0, 0, 0, 0, 0, 0, 0, 0, 0], "sum_hessian": [492.0, 223.0, 269.0, 5.0, 218.0, 85.0, 184.0, 3.0, 2.0, 3.0, 215.0, 74.0, 11.0, 9.0, 175.0, 1.0, 2.0, 2.0, 1.0, 4.0, 211.0, 52.0, 22.0, 6.0, 5.0, 1.0, 8.0, 13.0, 162.0, 3.0, 1.0, 14.0, 197.0, 48.0, 4.0, 1.0, 21.0, 4.0, 2.0, 10.0, 3.0, 3.0, 159.0, 4.0, 10.0, 163.0, 34.0, 10.0, 38.0, 2.0, 2.0, 17.0, 4.0, 3.0, 1.0, 1.0, 1.0, 7.0, 3.0, 58.0, 101.0], "tree_param": {"num_deleted": "0", "num_feature": "126", "num_nodes": "61", "size_leaf_vector": "1"}}, {"base_weights": [4.5207567, -115.198135, 103.82635, 514.82526, -131.93303, 86.58777, 543.37067, 227.71613, 72.6029, 175.73965, -137.01987, 65.07307, 357.1922, 28.574293, 66.74987, 6.5624514, 25.987183, 6.579456, 25.278748, 84.06773, -141.58788, 23.098766, 187.23839, 818.6179, 19.80906, 10.427246, 0.16244201, 37.456615, -145.21112, 43.84308, -303.36673, 318.3364, -33.597454, 55.749126, 132.32523, 194.52809, -263.70322, 9.652435, -0.14414063, -13.115616, -19.461699, -42.78236, 5.761981, 16.637482, -50.031666, 49.563396, 14.276545, 4.432358, -59.381924, -23.585052, 28.970367, 5.276306, -35.601055], "categories": [], "categories_nodes": [], "categories_segments": [], "categories_sizes": [], "default_left": [0, 0, 0, 0, 0, 0, 0, 0, 0, 0, 0, 0, 0, 0, 0, 0, 0, 0, 0, 0, 0, 0, 0, 0, 0, 0, 0, 0, 0, 0, 0, 0, 0, 0, 0, 0, 0, 0, 0, 0, 0, 0, 0, 0, 0, 0, 0, 0, 0, 0, 0, 0, 0], "id": 21, "left_children": [1, 3, 5, 7, 9, 11, 13, 15, -1, 17, 19, 21, 23, -1, -1, -1, -1, -1, -1, 25, 27, 29, 31, 33, 35, -1, -1, 37, 39, 41, 43, 45, 47, -1, -1, 49, 51, -1, -1, -1, -1, -1, -1, -1, -1, -1, -1, -1, -1, -1, -1, -1, -1], "loss_changes": [5873117.0, 2429638.5, 1998773.5, 198502.5, 366832.75, 1496291.4, 129055.0, 3794.7344, 0.0, 17252.078, 230048.0, 1241731.5, 2941652.2, 0.0, 0.0, 0.0, 0.0, 0.0, 0.0, 8159.34, 142968.5, 1245859.4, 1805666.0, 316486.0, 645717.56, 0.0, 0.0, 11627.223, 118909.5, 1142311.5, 1100911.2, 1143244.2, 1073993.6, 0.0, 0.0, 396019.06, 164844.97, 0.0, 0.0, 0.0, 0.0, 0.0, 0.0, 0.0, 0.0, 0.0, 0.0, 0.0, 0.0, 0.0, 0.0, 0.0, 0.0], "parents": [2147483647, 0, 0, 1, 1, 2, 2, 3, 3, 4, 4, 5, 5, 6, 6, 7, 7, 9, 9, 10, 10, 11, 11, 12, 12, 19, 19, 20, 20, 21, 21, 22, 22, 23, 23, 24, 24, 27, 27, 28, 28, 29, 29, 30, 30, 31, 31, 32, 32, 35, 35, 36, 36], "right_children": [2, 4, 6, 8, 10, 12, 14, 16, -1, 18, 20, 22, 24, -1, -1, -1, -1, -1, -1, 26, 28, 30, 32, 34, 36, -1, -1, 38, 40, 42, 44, 46, 48, -1, -1, 50, 52, -1, -1, -1, -1, -1, -1, -1, -1, -1, -1, -1, -1, -1, -1, -1, -1], "split_conditions": [2.00001, 2.00001, 2.00001, 0.8288058, 2.00001, -0.22023882, -0.27445397, -0.0908282, 72.6029, -0.40615854, -1.262884, 0.9139757, -0.24758384, 28.574293, 66.74987, 6.5624514, 25.987183, 6.579456, 25.278748, -0.23581864, 2.00001, 0.74363583, -0.15253279, 0.11275938, -0.17750919, 10.427246, 0.16244201, -0.28244537, 2.00001, 2.00001, -0.22016618, 2.00001, 1.3514664, 55.749126, 132.32523, 1.233363, 0.445541, 9.652435, -0.14414063, -13.115616, -19.461699, -42.78236, 5.761981, 16.637482, -50.031666, 49.563396, 14.276545, 4.432358, -59.381924, -23.585052, 28.970367, 5.276306, -35.601055], "split_indices": [78, 18, 17, 0, 84, 4, 4, 2, 0, 0, 3, 0, 5, 0, 0, 0, 0, 0, 0, 0, 57, 0, 5, 2, 4, 0, 0, 4, 109, 70, 3, 122, 3, 0, 0, 0, 0, 0, 0, 0, 0, 0, 0, 0, 0, 0, 0, 0, 0, 0, 0, 0, 0], "split_type": [0, 0, 0, 0, 0, 0, 0, 0, 0, 0, 0, 0, 0, 0, 0, 0, 0, 0, 0, 0, 0, 0, 0, 0, 0, 0, 0, 0, 0, 0, 0, 0, 0, 0, 0, 0, 0, 0, 0, 0, 0, 0, 0, 0, 0, 0, 0, 0, 0, 0, 0, 0, 0], "sum_hessian": [492.0, 223.0, 269.0, 5.0, 218.0, 260.0, 9.0, 3.0, 2.0, 3.0, 215.0, 242.0, 18.0, 4.0, 5.0, 1.0, 2.0, 2.0, 1.0, 4.0, 211.0, 181.0, 61.0, 7.0, 11.0, 3.0, 1.0, 4.0, 207.0, 171.0, 10.0, 38.0, 23.0, 6.0, 1.0, 7.0, 4.0, 1.0, 3.0, 164.0, 43.0, 4.0, 167.0, 3.0, 7.0, 18.0, 20.0, 21.0, 2.0, 1.0, 6.0, 1.0, 3.0], "tree_param": {"num_deleted": "0", "num_feature": "126", "num_nodes": "53", "size_leaf_vector": "1"}}, {"base_weights": [4.7207403, -103.12239, 94.17311, 480.86804, -118.651245, 78.31831, 498.56598, 213.08185, 67.762695, 166.13025, -123.37566, -262.9104, 92.96053, 26.288355, 61.187374, 6.2343264, 24.254696, 6.1408286, 24.014807, -140.64839, -66.19536, -6.8751864, -27.545109, 27.18294, 188.78091, -163.14284, -119.60659, 58.152386, -93.57401, 376.57773, 7.4462876, 458.67136, 121.4726, -3.8366382, -16.595867, 15.63425, -12.4519, 8.383672, -0.13332824, -10.310616, -0.05084839, 15.07268, 97.87671, -13.997794, 4.7824206, 15.156333, 75.06231, 16.569347, -31.38097], "categories": [], "categories_nodes": [], "categories_segments": [], "categories_sizes": [], "default_left": [0, 0, 0, 0, 0, 0, 0, 0, 0, 0, 0, 0, 0, 0, 0, 0, 0, 0, 0, 0, 0, 0, 0, 0, 0, 0, 0, 0, 0, 1, 0, 0, 0, 0, 0, 0, 0, 0, 0, 0, 0, 0, 0, 0, 0, 0, 0, 0, 0], "id": 22, "left_children": [1, 3, 5, 7, 9, 11, 13, 15, -1, 17, 19, 21, 23, -1, -1, -1, -1, -1, -1, 25, 27, -1, -1, 29, 31, 33, 35, 37, 39, 41, 43, 45, 47, -1, -1, -1, -1, -1, -1, -1, -1, -1, -1, -1, -1, -1, -1, -1, -1], "loss_changes": [4765595.5, 2088445.8, 1692076.2, 171746.0, 315145.0, 1328486.8, 106194.75, 2644.9375, 0.0, 16258.086, 204024.25, 7845.875, 1576879.8, 0.0, 0.0, 0.0, 0.0, 0.0, 0.0, 58585.5, 182474.2, 0.0, 0.0, 1031578.44, 1797203.0, 20686.625, 140113.62, 15390.27, 38093.438, 940513.75, 857927.94, 1679447.5, 1649626.8, 0.0, 0.0, 0.0, 0.0, 0.0, 0.0, 0.0, 0.0, 0.0, 0.0, 0.0, 0.0, 0.0, 0.0, 0.0, 0.0], "parents": [2147483647, 0, 0, 1, 1, 2, 2, 3, 3, 4, 4, 5, 5, 6, 6, 7, 7, 9, 9, 10, 10, 11, 11, 12, 12, 19, 19, 20, 20, 23, 23, 24, 24, 25, 25, 26, 26, 27, 27, 28, 28, 29, 29, 30, 30, 31, 31, 32, 32], "right_children": [2, 4, 6, 8, 10, 12, 14, 16, -1, 18, 20, 22, 24, -1, -1, -1, -1, -1, -1, 26, 28, -1, -1, 30, 32, 34, 36, 38, 40, 42, 44, 46, 48, -1, -1, -1, -1, -1, -1, -1, -1, -1, -1, -1, -1, -1, -1, -1, -1], "split_conditions": [2.00001, 2.00001, 2.00001, 0.8288058, 2.00001, 2.00001, -0.27445397, -0.0908282, 67.762695, -0.40615854, 1.2257893, -0.854864, -0.27995107, 26.288355, 61.187374, 6.2343264, 24.254696, 6.1408286, 24.014807, -0.49132848, -0.24762253, -6.8751864, -27.545109, 2.00001, 2.00001, -1.5189128, 2.00001, -0.28244537, 1.4249954, 0.044929083, 2.00001, -0.26102042, -0.15253279, -3.8366382, -16.595867, 15.63425, -12.4519, 8.383672, -0.13332824, -10.310616, -0.05084839, 15.07268, 97.87671, -13.997794, 4.7824206, 15.156333, 75.06231, 16.569347, -31.38097], "split_indices": [78, 18, 17, 0, 84, 66, 4, 2, 0, 0, 1, 3, 4, 0, 0, 0, 0, 0, 0, 0, 5, 0, 0, 82, 56, 1, 77, 4, 0, 1, 15, 4, 5, 0, 0, 0, 0, 0, 0, 0, 0, 0, 0, 0, 0, 0, 0, 0, 0], "split_type": [0, 0, 0, 0, 0, 0, 0, 0, 0, 0, 0, 0, 0, 0, 0, 0, 0, 0, 0, 0, 0, 0, 0, 0, 0, 0, 0, 0, 0, 0, 0, 0, 0, 0, 0, 0, 0, 0, 0, 0, 0, 0, 0, 0, 0, 0, 0, 0, 0], "sum_hessian": [492.0, 223.0, 269.0, 5.0, 218.0, 260.0, 9.0, 3.0, 2.0, 3.0, 215.0, 10.0, 250.0, 4.0, 5.0, 1.0, 2.0, 2.0, 1.0, 164.0, 51.0, 1.0, 9.0, 149.0, 101.0, 76.0, 88.0, 9.0, 42.0, 7.0, 142.0, 19.0, 82.0, 2.0, 74.0, 1.0, 87.0, 6.0, 3.0, 38.0, 4.0, 6.0, 1.0, 30.0, 112.0, 10.0, 9.0, 75.0, 7.0], "tree_param": {"num_deleted": "0", "num_feature": "126", "num_nodes": "49", "size_leaf_vector": "1"}}, {"base_weights": [4.9408307, -92.32334, 85.61577, 449.15652, -106.73683, -28.183073, 138.05406, 199.39594, 63.245186, 157.05609, -111.12774, 11.9172, -334.13687, 224.30081, 38.324383, 5.9226074, 22.63772, 5.731437, 22.814062, -126.6881, -59.616432, -21.775211, 268.90155, -12.440974, -653.3446, 168.84592, 652.59033, 67.98994, -59.42334, -113.65575, -15.9944, 53.16214, -84.45758, -192.1658, 13.853447, 13.382739, 35.019543, 49.739777, -91.20165, -18.517088, -72.40953, -85.361664, 280.92603, 242.75777, 852.1007, -569.07794, 90.468155, -11.77828, 8.931169, 7.665066, -0.12333069, -6.619922, -13.809026, -42.704018, -10.248691, -3.1112168, 14.482903, 6.2488728, 0.574646, -11.64525, -2.0349977, -13.896697, 40.767155, 121.95583, 24.554585, 28.088964, 4.5115113, 115.689995, 33.427643, 0.95614016, -86.31783, -6.420945, 19.0746], "categories": [], "categories_nodes": [], "categories_segments": [], "categories_sizes": [], "default_left": [0, 0, 0, 0, 0, 0, 0, 0, 0, 0, 0, 0, 0, 0, 0, 0, 0, 0, 0, 0, 0, 0, 0, 0, 0, 0, 0, 0, 0, 0, 0, 0, 0, 0, 0, 0, 0, 0, 0, 0, 0, 0, 0, 0, 0, 0, 0, 0, 0, 0, 0, 0, 0, 0, 0, 0, 0, 0, 0, 0, 0, 0, 0, 0, 0, 0, 0, 0, 0, 0, 0, 0, 0], "id": 23, "left_children": [1, 3, 5, 7, 9, 11, 13, 15, -1, 17, 19, 21, 23, 25, 27, -1, -1, -1, -1, 29, 31, 33, 35, 37, 39, 41, 43, 45, -1, 47, -1, 49, 51, 53, 55, -1, -1, 57, 59, -1, -1, 61, 63, 65, 67, 69, 71, -1, -1, -1, -1, -1, -1, -1, -1, -1, -1, -1, -1, -1, -1, -1, -1, -1, -1, -1, -1, -1, -1, -1, -1, -1, -1], "loss_changes": [3876367.2, 1796176.4, 1615093.1, 148571.25, 271118.75, 1059101.5, 1582655.8, 1720.4062, 0.0, 15284.641, 165578.75, 672553.94, 1018749.75, 2241137.5, 1672972.2, 0.0, 0.0, 0.0, 0.0, 53333.0, 150170.5, 421546.5, 51960.562, 33920.74, 31536.75, 2559733.5, 692570.0, 1254376.0, 0.0, 112713.5, 0.0, 12871.225, 32966.062, 208993.34, 346090.94, 0.0, 0.0, 1884.3857, 2997.3867, 0.0, 0.0, 796670.44, 1759499.0, 25010.062, 718102.5, 518787.3, 1284128.1, 0.0, 0.0, 0.0, 0.0, 0.0, 0.0, 0.0, 0.0, 0.0, 0.0, 0.0, 0.0, 0.0, 0.0, 0.0, 0.0, 0.0, 0.0, 0.0, 0.0, 0.0, 0.0, 0.0, 0.0, 0.0, 0.0], "parents": [2147483647, 0, 0, 1, 1, 2, 2, 3, 3, 4, 4, 5, 5, 6, 6, 7, 7, 9, 9, 10, 10, 11, 11, 12, 12, 13, 13, 14, 14, 19, 19, 20, 20, 21, 21, 22, 22, 23, 23, 24, 24, 25, 25, 26, 26, 27, 27, 29, 29, 31, 31, 32, 32, 33, 33, 34, 34, 37, 37, 38, 38, 41, 41, 42, 42, 43, 43, 44, 44, 45, 45, 46, 46], "right_children": [2, 4, 6, 8, 10, 12, 14, 16, -1, 18, 20, 22, 24, 26, 28, -1, -1, -1, -1, 30, 32, 34, 36, 38, 40, 42, 44, 46, -1, 48, -1, 50, 52, 54, 56, -1, -1, 58, 60, -1, -1, 62, 64, 66, 68, 70, 72, -1, -1, -1, -1, -1, -1, -1, -1, -1, -1, -1, -1, -1, -1, -1, -1, -1, -1, -1, -1, -1, -1, -1, -1, -1, -1], "split_conditions": [2.00001, 2.00001, -0.19323365, 0.8288058, 2.00001, -0.38486606, -0.20804292, -0.0908282, 63.245186, -0.40615854, 1.2257893, -0.27445397, -0.31197852, -0.23035431, -0.22649176, 5.9226074, 22.63772, 5.731437, 22.814062, 2.00001, -0.24762253, -0.2476027, -0.26748294, -0.47706768, -0.36357355, 2.00001, 2.00001, -0.20149483, -59.42334, -0.11727021, -15.9944, -0.28244537, 0.2331894, 2.00001, -0.29797122, 13.382739, 35.019543, -0.25711113, -0.36357355, -18.517088, -72.40953, -0.20539665, 2.00001, 0.7223433, 0.21132362, 0.019691223, 2.00001, -11.77828, 8.931169, 7.665066, -0.12333069, -6.619922, -13.809026, -42.704018, -10.248691, -3.1112168, 14.482903, 6.2488728, 0.574646, -11.64525, -2.0349977, -13.896697, 40.767155, 121.95583, 24.554585, 28.088964, 4.5115113, 115.689995, 33.427643, 0.95614016, -86.31783, -6.420945, 19.0746], "split_indices": [78, 18, 0, 0, 84, 0, 5, 2, 0, 0, 1, 4, 4, 5, 4, 0, 0, 0, 0, 109, 5, 5, 4, 3, 0, 15, 56, 5, 0, 5, 0, 4, 3, 47, 4, 0, 0, 0, 0, 0, 0, 4, 125, 0, 0, 0, 25, 0, 0, 0, 0, 0, 0, 0, 0, 0, 0, 0, 0, 0, 0, 0, 0, 0, 0, 0, 0, 0, 0, 0, 0, 0, 0], "split_type": [0, 0, 0, 0, 0, 0, 0, 0, 0, 0, 0, 0, 0, 0, 0, 0, 0, 0, 0, 0, 0, 0, 0, 0, 0, 0, 0, 0, 0, 0, 0, 0, 0, 0, 0, 0, 0, 0, 0, 0, 0, 0, 0, 0, 0, 0, 0, 0, 0, 0, 0, 0, 0, 0, 0, 0, 0, 0, 0, 0, 0, 0, 0, 0, 0, 0, 0, 0, 0, 0, 0, 0, 0], "sum_hessian": [492.0, 223.0, 269.0, 5.0, 218.0, 85.0, 184.0, 3.0, 2.0, 3.0, 215.0, 76.0, 9.0, 98.0, 86.0, 1.0, 2.0, 2.0, 1.0, 164.0, 51.0, 68.0, 8.0, 5.0, 4.0, 88.0, 10.0, 83.0, 3.0, 121.0, 43.0, 9.0, 42.0, 11.0, 57.0, 4.0, 4.0, 3.0, 2.0, 1.0, 3.0, 27.0, 61.0, 4.0, 6.0, 2.0, 81.0, 119.0, 2.0, 6.0, 3.0, 33.0, 9.0, 2.0, 9.0, 43.0, 14.0, 2.0, 1.0, 1.0, 1.0, 25.0, 2.0, 1.0, 60.0, 3.0, 1.0, 3.0, 3.0, 1.0, 1.0, 32.0, 49.0], "tree_param": {"num_deleted": "0", "num_feature": "126", "num_nodes": "73", "size_leaf_vector": "1"}}, {"base_weights": [4.8942494, -80.22418, 80.24761, 18.457197, -115.53425, 470.68912, 59.623665, -20.03997, 247.3894, 133.89932, -130.2182, 261.56934, 67.106735, 303.04684, 21.208864, 0.9935135, -283.2069, 12.312114, 32.21798, 12.729345, 21.255775, -336.0996, -111.507034, 5.6264772, 28.286076, 166.64978, 725.5061, 198.93887, -17.63292, -24.630028, 141.7988, -36.47209, -1.9332459, -32.277832, 5.349341, 13.13533, -442.18362, 92.97687, -116.31267, 68.56192, 229.80006, 109.16579, 421.51257, 615.07526, 88.68794, 265.93045, -45.19012, -13.60143, -0.3463713, 4.8291464, 16.491934, -0.3520569, -4.489618, -2.6051168, 6.5347414, -51.325916, -10.5254345, 1.0134888, 11.721256, -25.564077, -11.163472, 22.209473, 1.5645887, 10.078669, 25.181957, 47.850338, 6.82793, 83.10397, 31.928864, -0.6955653, 60.655453, 40.23837, 7.917923, 15.394882, -7.712678], "categories": [], "categories_nodes": [], "categories_segments": [], "categories_sizes": [], "default_left": [0, 0, 0, 0, 0, 0, 0, 0, 0, 0, 0, 0, 0, 0, 0, 0, 0, 0, 0, 0, 0, 0, 0, 0, 0, 0, 0, 0, 0, 0, 0, 0, 0, 0, 0, 0, 0, 0, 0, 0, 0, 0, 0, 0, 0, 0, 0, 0, 0, 0, 0, 0, 0, 0, 0, 0, 0, 0, 0, 0, 0, 0, 0, 0, 0, 0, 0, 0, 0, 0, 0, 0, 0, 0, 0], "id": 24, "left_children": [1, 3, 5, 7, 9, 11, 13, 15, 17, 19, 21, 23, -1, 25, 27, 29, 31, -1, -1, 33, -1, 35, 37, -1, -1, 39, 41, 43, 45, 47, 49, -1, -1, 51, -1, 53, 55, 57, 59, 61, 63, -1, 65, 67, 69, 71, 73, -1, -1, -1, -1, -1, -1, -1, -1, -1, -1, -1, -1, -1, -1, -1, -1, -1, -1, -1, -1, -1, -1, -1, -1, -1, -1, -1, -1], "loss_changes": [3168520.2, 810524.0, 2081676.4, 551378.7, 643753.25, 369209.0, 2331335.8, 299188.53, 43979.438, 92604.7, 586592.25, 19054.688, 0.0, 1838249.8, 1501535.0, 187496.92, 78986.875, 0.0, 0.0, 10900.027, 0.0, 487435.25, 158215.75, 0.0, 0.0, 151490.0, 430314.5, 1734747.6, 1410761.6, 103263.05, 9331.328, 0.0, 0.0, 930.54736, 0.0, 9886.411, 185451.62, 6842.996, 67271.875, 94017.3, 20072.812, 0.0, 88114.375, 245693.75, 1589198.6, 375864.5, 1054886.1, 0.0, 0.0, 0.0, 0.0, 0.0, 0.0, 0.0, 0.0, 0.0, 0.0, 0.0, 0.0, 0.0, 0.0, 0.0, 0.0, 0.0, 0.0, 0.0, 0.0, 0.0, 0.0, 0.0, 0.0, 0.0, 0.0, 0.0, 0.0], "parents": [2147483647, 0, 0, 1, 1, 2, 2, 3, 3, 4, 4, 5, 5, 6, 6, 7, 7, 8, 8, 9, 9, 10, 10, 11, 11, 13, 13, 14, 14, 15, 15, 16, 16, 19, 19, 21, 21, 22, 22, 25, 25, 26, 26, 27, 27, 28, 28, 29, 29, 30, 30, 33, 33, 35, 35, 36, 36, 37, 37, 38, 38, 39, 39, 40, 40, 42, 42, 43, 43, 44, 44, 45, 45, 46, 46], "right_children": [2, 4, 6, 8, 10, 12, 14, 16, 18, 20, 22, 24, -1, 26, 28, 30, 32, -1, -1, 34, -1, 36, 38, -1, -1, 40, 42, 44, 46, 48, 50, -1, -1, 52, -1, 54, 56, 58, 60, 62, 64, -1, 66, 68, 70, 72, 74, -1, -1, -1, -1, -1, -1, -1, -1, -1, -1, -1, -1, -1, -1, -1, -1, -1, -1, -1, -1, -1, -1, -1, -1, -1, -1, -1, -1], "split_conditions": [-0.19323365, 2.00001, 2.00001, -0.27176726, -0.93042326, -0.2285463, 2.00001, 2.00001, -0.26748294, -0.31449687, -0.24758625, 2.00001, 67.106735, -0.26102042, 0.23261611, -0.3156444, -0.25711113, 12.312114, 32.21798, -0.55520594, 21.255775, -0.31014386, -0.0908282, 5.6264772, 28.286076, -0.30258194, 0.48812595, 2.00001, 2.00001, -1.5772454, -1.470783, -36.47209, -1.9332459, -0.6616684, 5.349341, -1.300443, 0.7772161, -1.1088107, 2.00001, -0.24755071, 0.21132362, 109.16579, 1.4249954, 2.00001, 0.73188055, 2.00001, 2.00001, -13.60143, -0.3463713, 4.8291464, 16.491934, -0.3520569, -4.489618, -2.6051168, 6.5347414, -51.325916, -10.5254345, 1.0134888, 11.721256, -25.564077, -11.163472, 22.209473, 1.5645887, 10.078669, 25.181957, 47.850338, 6.82793, 83.10397, 31.928864, -0.6955653, 60.655453, 40.23837, 7.917923, 15.394882, -7.712678], "split_indices": [0, 83, 18, 4, 3, 4, 56, 117, 4, 4, 5, 56, 0, 4, 0, 4, 0, 0, 0, 0, 0, 4, 2, 0, 0, 4, 0, 123, 73, 0, 0, 0, 0, 0, 0, 0, 3, 0, 70, 5, 0, 0, 0, 42, 3, 112, 84, 0, 0, 0, 0, 0, 0, 0, 0, 0, 0, 0, 0, 0, 0, 0, 0, 0, 0, 0, 0, 0, 0, 0, 0, 0, 0, 0, 0], "split_type": [0, 0, 0, 0, 0, 0, 0, 0, 0, 0, 0, 0, 0, 0, 0, 0, 0, 0, 0, 0, 0, 0, 0, 0, 0, 0, 0, 0, 0, 0, 0, 0, 0, 0, 0, 0, 0, 0, 0, 0, 0, 0, 0, 0, 0, 0, 0, 0, 0, 0, 0, 0, 0, 0, 0, 0, 0, 0, 0, 0, 0, 0, 0, 0, 0, 0, 0, 0, 0, 0, 0, 0, 0, 0, 0], "sum_hessian": [492.0, 231.0, 261.0, 61.0, 170.0, 12.0, 249.0, 53.0, 8.0, 9.0, 161.0, 7.0, 5.0, 33.0, 216.0, 50.0, 3.0, 4.0, 4.0, 4.0, 5.0, 12.0, 149.0, 1.0, 6.0, 26.0, 7.0, 38.0, 178.0, 43.0, 7.0, 2.0, 1.0, 2.0, 2.0, 3.0, 9.0, 3.0, 146.0, 11.0, 15.0, 2.0, 5.0, 7.0, 31.0, 15.0, 163.0, 6.0, 37.0, 2.0, 5.0, 1.0, 1.0, 2.0, 1.0, 7.0, 2.0, 1.0, 2.0, 3.0, 143.0, 2.0, 9.0, 3.0, 12.0, 4.0, 1.0, 3.0, 4.0, 27.0, 4.0, 8.0, 7.0, 22.0, 141.0], "tree_param": {"num_deleted": "0", "num_feature": "126", "num_nodes": "75", "size_leaf_vector": "1"}}, {"base_weights": [5.4354033, -72.402855, 74.34014, 16.829165, -104.33258, 431.3908, 55.476143, -18.610672, 227.59828, 122.68571, -117.70203, 239.65143, 61.514484, 279.29742, 20.15172, -37.880825, -4.667167, 11.327153, 29.640537, 11.557935, 19.484457, -306.94516, -100.51627, 5.345154, 25.861547, 152.17128, 673.436, 101.45468, -52.84269, -28.035486, 130.28406, -30.66394, 4.992717, 12.804184, -404.1504, 86.862915, -104.93124, 63.68684, 209.02391, 101.888054, 388.47437, 53.188793, 755.78845, -22.924116, -307.73343, -14.176169, -0.3988175, 18.747662, 7.997378, -0.33445436, -4.2651367, -2.4314432, 6.2080016, -9.803769, -46.84239, 0.9628174, 10.939844, -23.646772, -10.054876, 18.176062, 0.41332874, 3.0268433, 21.892305, 44.022316, 6.4865236, -7.218985, 13.873978, 101.34165, 30.921331, -6.601606, 18.66272, -49.375328, -10.432593], "categories": [], "categories_nodes": [], "categories_segments": [], "categories_sizes": [], "default_left": [0, 0, 0, 0, 0, 0, 0, 0, 0, 0, 0, 0, 0, 0, 0, 0, 0, 0, 0, 0, 0, 0, 0, 0, 0, 0, 0, 0, 0, 0, 0, 0, 0, 0, 0, 0, 0, 0, 0, 0, 0, 0, 0, 0, 0, 0, 0, 0, 0, 0, 0, 0, 0, 0, 0, 0, 0, 0, 0, 0, 0, 0, 0, 0, 0, 0, 0, 0, 0, 0, 0, 0, 0], "id": 25, "left_children": [1, 3, 5, 7, 9, 11, 13, 15, 17, 19, 21, 23, -1, 25, 27, -1, 29, -1, -1, 31, -1, 33, 35, -1, -1, 37, 39, 41, 43, 45, 47, 49, -1, 51, 53, 55, 57, 59, 61, -1, 63, 65, 67, 69, 71, -1, -1, -1, -1, -1, -1, -1, -1, -1, -1, -1, -1, -1, -1, -1, -1, -1, -1, -1, -1, -1, -1, -1, -1, -1, -1, -1, -1], "loss_changes": [2649550.8, 662759.5, 1740743.5, 467352.38, 533443.75, 310607.25, 1970961.2, 269442.53, 37224.094, 77936.516, 496017.5, 14425.406, 0.0, 1601102.8, 1293182.8, 0.0, 170792.48, 0.0, 0.0, 9631.067, 0.0, 409231.75, 133205.5, 0.0, 0.0, 122513.44, 391698.75, 3212746.5, 869931.75, 125235.86, 8025.7656, 839.81836, 0.0, 8825.644, 150826.12, 5908.793, 60962.5, 83629.28, 21686.0, 0.0, 71923.125, 1050463.5, 491990.0, 951437.7, 402542.5, 0.0, 0.0, 0.0, 0.0, 0.0, 0.0, 0.0, 0.0, 0.0, 0.0, 0.0, 0.0, 0.0, 0.0, 0.0, 0.0, 0.0, 0.0, 0.0, 0.0, 0.0, 0.0, 0.0, 0.0, 0.0, 0.0, 0.0, 0.0], "parents": [2147483647, 0, 0, 1, 1, 2, 2, 3, 3, 4, 4, 5, 5, 6, 6, 7, 7, 8, 8, 9, 9, 10, 10, 11, 11, 13, 13, 14, 14, 16, 16, 19, 19, 21, 21, 22, 22, 25, 25, 26, 26, 27, 27, 28, 28, 29, 29, 30, 30, 31, 31, 33, 33, 34, 34, 35, 35, 36, 36, 37, 37, 38, 38, 40, 40, 41, 41, 42, 42, 43, 43, 44, 44], "right_children": [2, 4, 6, 8, 10, 12, 14, 16, 18, 20, 22, 24, -1, 26, 28, -1, 30, -1, -1, 32, -1, 34, 36, -1, -1, 38, 40, 42, 44, 46, 48, 50, -1, 52, 54, 56, 58, 60, 62, -1, 64, 66, 68, 70, 72, -1, -1, -1, -1, -1, -1, -1, -1, -1, -1, -1, -1, -1, -1, -1, -1, -1, -1, -1, -1, -1, -1, -1, -1, -1, -1, -1, -1], "split_conditions": [-0.19323365, 2.00001, 2.00001, -0.27176726, -0.93042326, -0.2285463, 2.00001, -2.5721126, -0.26748294, -0.31449687, -0.24758625, 2.00001, 61.514484, -0.26102042, -0.20804292, -37.880825, -0.3156444, 11.327153, 29.640537, -0.55520594, 19.484457, -0.31014386, -0.0908282, 5.345154, 25.861547, -0.30258194, 0.48812595, -0.23035431, -0.23272067, -1.5772454, 2.00001, -0.6616684, 4.992717, -1.300443, 2.00001, -1.1088107, 2.00001, -0.24745235, 2.00001, 101.888054, 1.4249954, -0.2872038, 0.21132362, 2.00001, 2.00001, -14.176169, -0.3988175, 18.747662, 7.997378, -0.33445436, -4.2651367, -2.4314432, 6.2080016, -9.803769, -46.84239, 0.9628174, 10.939844, -23.646772, -10.054876, 18.176062, 0.41332874, 3.0268433, 21.892305, 44.022316, 6.4865236, -7.218985, 13.873978, 101.34165, 30.921331, -6.601606, 18.66272, -49.375328, -10.432593], "split_indices": [0, 83, 18, 4, 3, 4, 56, 1, 4, 4, 5, 56, 0, 4, 5, 0, 4, 0, 0, 0, 0, 4, 2, 0, 0, 4, 0, 5, 4, 0, 47, 0, 0, 0, 34, 0, 70, 5, 85, 0, 0, 4, 0, 109, 79, 0, 0, 0, 0, 0, 0, 0, 0, 0, 0, 0, 0, 0, 0, 0, 0, 0, 0, 0, 0, 0, 0, 0, 0, 0, 0, 0, 0], "split_type": [0, 0, 0, 0, 0, 0, 0, 0, 0, 0, 0, 0, 0, 0, 0, 0, 0, 0, 0, 0, 0, 0, 0, 0, 0, 0, 0, 0, 0, 0, 0, 0, 0, 0, 0, 0, 0, 0, 0, 0, 0, 0, 0, 0, 0, 0, 0, 0, 0, 0, 0, 0, 0, 0, 0, 0, 0, 0, 0, 0, 0, 0, 0, 0, 0, 0, 0, 0, 0, 0, 0, 0, 0], "sum_hessian": [492.0, 231.0, 261.0, 61.0, 170.0, 12.0, 249.0, 53.0, 8.0, 9.0, 161.0, 7.0, 5.0, 33.0, 216.0, 1.0, 52.0, 4.0, 4.0, 4.0, 5.0, 12.0, 149.0, 1.0, 6.0, 26.0, 7.0, 102.0, 114.0, 45.0, 7.0, 2.0, 2.0, 3.0, 9.0, 3.0, 146.0, 11.0, 15.0, 2.0, 5.0, 96.0, 6.0, 103.0, 11.0, 7.0, 38.0, 2.0, 5.0, 1.0, 1.0, 2.0, 1.0, 2.0, 7.0, 1.0, 2.0, 3.0, 143.0, 3.0, 8.0, 1.0, 14.0, 4.0, 1.0, 39.0, 57.0, 3.0, 3.0, 86.0, 17.0, 5.0, 6.0], "tree_param": {"num_deleted": "0", "num_feature": "126", "num_nodes": "73", "size_leaf_vector": "1"}}, {"base_weights": [5.5820427, -65.33298, 68.35572, 15.392321, -94.219734, 395.38406, 51.07682, -17.225733, 209.39038, 112.404945, -106.39274, 219.58713, 56.388264, 257.1296, 18.556675, -35.986782, -3.9708297, 10.420981, 27.269287, 10.480786, 17.86076, -280.31754, -90.60997, 5.0778933, 23.644846, 138.56557, 625.142, 175.47545, -15.736001, -36.709576, 81.414635, -29.130737, 4.6598716, 12.467911, -369.39996, 81.15222, -94.66738, 43.008827, 183.95456, 95.09551, 358.04514, 533.34155, 80.52533, 236.95627, -40.292953, -13.352608, -1.8544617, -4.806128, 11.7788725, -0.31773072, -4.05188, -2.269346, 5.8976016, -43.19917, -7.935535, 0.91467285, 10.210514, -21.873264, -9.056372, 17.428793, -1.159694, 2.3039856, 21.460152, 40.50053, 6.162207, 71.457245, 28.168848, -0.39759937, 53.762764, 36.579643, 6.239157, 17.445826, -6.468807], "categories": [], "categories_nodes": [], "categories_segments": [], "categories_sizes": [], "default_left": [0, 0, 0, 0, 0, 0, 0, 0, 0, 0, 0, 0, 0, 0, 0, 0, 0, 0, 0, 0, 0, 0, 0, 0, 0, 0, 0, 0, 0, 0, 0, 0, 0, 0, 0, 0, 0, 0, 0, 0, 0, 0, 0, 0, 0, 0, 0, 0, 0, 0, 0, 0, 0, 0, 0, 0, 0, 0, 0, 0, 0, 0, 0, 0, 0, 0, 0, 0, 0, 0, 0, 0, 0], "id": 26, "left_children": [1, 3, 5, 7, 9, 11, 13, 15, 17, 19, 21, 23, -1, 25, 27, -1, 29, -1, -1, 31, -1, 33, 35, -1, -1, 37, 39, 41, 43, 45, 47, 49, -1, 51, 53, 55, 57, 59, 61, -1, 63, 65, 67, 69, 71, -1, -1, -1, -1, -1, -1, -1, -1, -1, -1, -1, -1, -1, -1, -1, -1, -1, -1, -1, -1, -1, -1, -1, -1, -1, -1, -1, -1], "loss_changes": [2199103.0, 542449.25, 1460285.8, 395932.9, 442065.75, 261258.62, 1670445.1, 243822.12, 31506.469, 65604.54, 419292.62, 10764.031, 0.0, 1396900.2, 1170474.0, 0.0, 151145.58, 0.0, 0.0, 8510.886, 0.0, 343672.12, 112218.875, 0.0, 0.0, 109193.375, 355704.5, 1282250.2, 1120305.8, 66111.86, 76304.586, 757.93726, 0.0, 7879.5254, 147263.12, 5100.9746, 55031.75, 73707.17, 83823.375, 0.0, 58563.312, 163571.5, 1238161.5, 337032.38, 870461.9, 0.0, 0.0, 0.0, 0.0, 0.0, 0.0, 0.0, 0.0, 0.0, 0.0, 0.0, 0.0, 0.0, 0.0, 0.0, 0.0, 0.0, 0.0, 0.0, 0.0, 0.0, 0.0, 0.0, 0.0, 0.0, 0.0, 0.0, 0.0], "parents": [2147483647, 0, 0, 1, 1, 2, 2, 3, 3, 4, 4, 5, 5, 6, 6, 7, 7, 8, 8, 9, 9, 10, 10, 11, 11, 13, 13, 14, 14, 16, 16, 19, 19, 21, 21, 22, 22, 25, 25, 26, 26, 27, 27, 28, 28, 29, 29, 30, 30, 31, 31, 33, 33, 34, 34, 35, 35, 36, 36, 37, 37, 38, 38, 40, 40, 41, 41, 42, 42, 43, 43, 44, 44], "right_children": [2, 4, 6, 8, 10, 12, 14, 16, 18, 20, 22, 24, -1, 26, 28, -1, 30, -1, -1, 32, -1, 34, 36, -1, -1, 38, 40, 42, 44, 46, 48, 50, -1, 52, 54, 56, 58, 60, 62, -1, 64, 66, 68, 70, 72, -1, -1, -1, -1, -1, -1, -1, -1, -1, -1, -1, -1, -1, -1, -1, -1, -1, -1, -1, -1, -1, -1, -1, -1, -1, -1, -1, -1], "split_conditions": [-0.19323365, 2.00001, 2.00001, -0.27176726, -0.93042326, -0.2285463, 2.00001, -2.5721126, -0.26748294, -0.31449687, -0.24758625, 2.00001, 56.388264, -0.26102042, 0.23261611, -35.986782, -0.324773, 10.420981, 27.269287, -0.55520594, 17.86076, -0.31014386, -0.0908282, 5.0778933, 23.644846, 0.21132362, 0.48812595, 2.00001, 2.00001, -1.5772454, -1.8114628, -0.6616684, 4.6598716, -1.300443, 0.7772161, -1.1088107, 2.00001, -0.06547873, -0.31774706, 95.09551, 1.4249954, 2.00001, 0.73188055, 2.00001, 2.00001, -13.352608, -1.8544617, -4.806128, 11.7788725, -0.31773072, -4.05188, -2.269346, 5.8976016, -43.19917, -7.935535, 0.91467285, 10.210514, -21.873264, -9.056372, 17.428793, -1.159694, 2.3039856, 21.460152, 40.50053, 6.162207, 71.457245, 28.168848, -0.39759937, 53.762764, 36.579643, 6.239157, 17.445826, -6.468807], "split_indices": [0, 83, 18, 4, 3, 4, 56, 1, 4, 4, 5, 56, 0, 4, 0, 0, 4, 0, 0, 0, 0, 4, 2, 0, 0, 0, 0, 123, 73, 0, 0, 0, 0, 0, 3, 0, 70, 0, 4, 0, 0, 42, 3, 112, 76, 0, 0, 0, 0, 0, 0, 0, 0, 0, 0, 0, 0, 0, 0, 0, 0, 0, 0, 0, 0, 0, 0, 0, 0, 0, 0, 0, 0], "split_type": [0, 0, 0, 0, 0, 0, 0, 0, 0, 0, 0, 0, 0, 0, 0, 0, 0, 0, 0, 0, 0, 0, 0, 0, 0, 0, 0, 0, 0, 0, 0, 0, 0, 0, 0, 0, 0, 0, 0, 0, 0, 0, 0, 0, 0, 0, 0, 0, 0, 0, 0, 0, 0, 0, 0, 0, 0, 